{"config":{"head":null,"layers":[{"gated":false,"channels":16,"dilations":[1,2,4,8,16,32,64,128,256,512],"head_bias":false,"head_size":8,"activation":"Tanh","input_size":1,"kernel_size":3,"condition_size":1},{"gated":false,"channels":8,"dilations":[1,2,4,8,16,32,64,128,256,512],"head_bias":true,"head_size":1,"activation":"Tanh","input_size":16,"kernel_size":3,"condition_size":1}],"head_scale":0.02},"version":"0.5.4","weights":[0.25650355219841003,0.5471267104148865,-1.0684205293655396,-0.9334880113601685,-0.4476640522480011,0.6738669872283936,0.0012846628669649363,0.9925456047058105,-0.29512426257133484,0.3821977376937866,-0.5046524405479431,-0.32201087474823,-0.98288494348526,-0.8088722229003906,-0.5308451652526855,0.17328962683677673,0.22803349792957306,-0.3875463008880615,-0.006130699068307877,0.05380323901772499,-0.4545019268989563,0.1863178163766861,-0.14341196417808533,0.6221618056297302,-0.09044309705495834,-0.09835857897996902,0.6443076133728027,-0.19964699447155,-0.20848912000656128,0.46496090292930603,-0.12220565974712372,0.2519196569919586,-0.6100612282752991,0.012111256830394268,-0.22577537596225739,0.2880204916000366,-0.12391851842403412,0.23920366168022156,-0.4486433267593384,0.13830552995204926,-0.12913432717323303,0.42501702904701233,-0.0627782791852951,-0.01597883366048336,-0.6035099029541016,0.0015172285493463278,-0.03221134841442108,0.5921991467475891,-0.14082756638526917,-0.12720538675785065,0.5949450731277466,0.06722311675548553,-0.05536865442991257,0.530504584312439,0.03315921127796173,-0.20151688158512115,0.5390235781669617,-0.17803601920604706,-0.2162393033504486,0.4316416382789612,-0.004252024460583925,0.15272299945354462,-0.5802822709083557,0.05564295873045921,0.05721154063940048,-0.12011538445949554,0.21741245687007904,-0.02969924733042717,-0.05134476721286774,0.30237171053886414,-0.044101595878601074,0.09268958866596222,-0.11225422471761703,0.18531085550785065,0.27063697576522827,-0.04156913235783577,0.08680951595306396,0.011196527630090714,-0.15469031035900116,-0.14826829731464386,-0.2719590961933136,0.3143959641456604,0.10912667214870453,-0.07840423285961151,-0.14957867562770844,-0.09057272225618362,-0.1683587282896042,0.10445814579725266,0.09415557980537415,0.029585903510451317,-0.14900578558444977,0.018532775342464447,-0.027198072522878647,0.23476892709732056,-0.086285300552845,0.040392059832811356,-0.10970087349414825,0.08423049747943878,0.01834220439195633,-0.2648751437664032,0.20242860913276672,0.24263082444667816,-0.22889813780784607,0.028009364381432533,0.006633181590586901,-0.1716781109571457,-0.04776376485824585,0.026292460039258003,-0.1827610433101654,-0.03358852118253708,-0.16448858380317688,0.2765395939350128,-0.11823416501283646,0.16073210537433624,-0.039995498955249786,-0.12528963387012482,0.010939110070466995,-0.08665062487125397,0.019837792962789536,-0.020308759063482285,0.1548546403646469,0.009648733772337437,-0.1240432858467102,0.1681785136461258,-0.12722079455852509,-0.12991364300251007,0.06506311148405075,-0.07944704592227936,-0.005386780481785536,-0.23387660086154938,0.006960177794098854,0.016536420211195946,0.0138483801856637,-0.007367600686848164,0.15642721951007843,-0.11530697345733643,0.03797871991991997,-0.032586220651865005,0.16831202805042267,0.07795897871255875,0.17683887481689453,-0.021563978865742683,0.14896658062934875,-0.051036588847637177,-0.015328961424529552,-0.0554351769387722,0.05700961872935295,0.11341569572687149,-0.07181946933269501,-0.16463451087474823,-0.03825974464416504,-0.11899484694004059,-0.08109060674905777,0.17964912950992584,0.0829080119729042,-0.1876729130744934,0.1944236159324646,-0.13766656816005707,-0.019022375345230103,-0.19844697415828705,-0.010018986649811268,-0.14911013841629028,-0.02297915332019329,-0.11354409158229828,-0.15133662521839142,0.08372952789068222,-0.07342392206192017,0.18808847665786743,-0.21499404311180115,-0.01848558895289898,0.2613230049610138,-0.14375488460063934,0.11405244469642639,0.17649689316749573,-0.21946370601654053,0.10704369843006134,-0.14550738036632538,0.033478993922472,0.07769642770290375,-0.039544206112623215,-0.08998075127601624,-0.021525336429476738,-0.029496824368834496,0.1268964558839798,0.036546312272548676,0.16284795105457306,-0.14975987374782562,-0.011140981689095497,-0.24183036386966705,0.17593297362327576,0.0998380035161972,0.22750850021839142,-0.19527974724769592,-0.01240695733577013,0.021934526041150093,-0.17824521660804749,-0.09217526763677597,0.1825326681137085,-0.16929619014263153,-0.013316171243786812,0.1383974552154541,0.007043749094009399,-0.12112303078174591,0.029399383813142776,-0.1740851253271103,0.10654713213443756,-0.1536681056022644,0.2274448275566101,0.024118684232234955,0.10260337591171265,-0.19357065856456757,0.012552188709378242,0.14456887543201447,-0.1396283060312271,-0.04862862452864647,-0.11824902147054672,-0.0006962700863368809,-0.12173664569854736,-0.020035890862345695,-0.004282691981643438,-0.04861133173108101,0.012312195263803005,0.16392070055007935,0.040452029556035995,0.006243634037673473,-0.05483459681272507,-0.08746317774057388,-0.11725547164678574,0.08069348335266113,0.02465949021279812,0.13681720197200775,0.006216433364897966,-0.004341199994087219,0.008287823759019375,0.23294655978679657,-0.052733223885297775,0.1922931969165802,-0.22676429152488708,-0.09785473346710205,-0.08681553602218628,0.17256160080432892,0.0719112753868103,-0.17502519488334656,0.12959985435009003,0.02831529639661312,-0.2749505639076233,0.2129637748003006,-0.16232885420322418,-0.132803276181221,0.08714113384485245,-0.11977820843458176,-0.1144278421998024,0.23558427393436432,-0.005752858240157366,0.05107094720005989,-0.16051846742630005,-0.2535680830478668,-0.0816308856010437,0.10094639658927917,-0.15128378570079803,-0.1840815395116806,0.3310401141643524,0.127107173204422,0.20558913052082062,-0.19422228634357452,0.004393984097987413,0.054511696100234985,-0.2011062204837799,0.1798860728740692,0.13968397676944733,-0.30715087056159973,-0.12983323633670807,-0.2441500872373581,0.26480767130851746,-0.010858898982405663,-0.0026564684230834246,-0.00928288884460926,-0.14540082216262817,-0.11271369457244873,0.28618404269218445,0.08952488005161285,0.029011216014623642,-0.31830230355262756,0.04965360090136528,-0.08378838002681732,0.34682705998420715,0.013589905574917793,0.1477724015712738,-0.2642187178134918,0.059122901409864426,0.01925833337008953,-0.17381533980369568,0.096826933324337,0.09107383340597153,-0.2786622941493988,-0.03502201288938522,0.19614441692829132,-0.3507995903491974,0.11507194489240646,0.05000899359583855,-0.30724942684173584,-0.037002235651016235,-0.18985526263713837,0.20343098044395447,-0.17162743210792542,-0.10406314581632614,0.1302429437637329,-0.10998495668172836,0.08529048413038254,0.11419762670993805,0.0490381121635437,-0.05807747319340706,-0.08305061608552933,0.11655180156230927,0.019713111221790314,-0.03468414023518562,0.10009747743606567,-0.026881499215960503,-0.06540746986865997,-0.17106282711029053,0.03610435500741005,0.14005015790462494,0.06033692508935928,0.020834650844335556,0.021362919360399246,-0.039227090775966644,0.11833198368549347,0.15014156699180603,0.2693541646003723,-0.0724070817232132,-0.21308885514736176,-0.30441102385520935,0.16613338887691498,0.20393699407577515,0.07978712022304535,0.03249743580818176,-0.009691412560641766,0.32493579387664795,0.10387828946113586,0.000577738624997437,0.13467533886432648,-0.08547264337539673,-0.014233428984880447,0.2520925998687744,-0.11967258155345917,-0.0014105526497587562,0.24078616499900818,0.04777605086565018,-0.21636052429676056,-0.12170042842626572,-0.04477475956082344,0.20691177248954773,0.042291440069675446,0.17754951119422913,-0.06015663221478462,0.18418347835540771,0.10059496760368347,0.05381571128964424,-0.2291032075881958,-0.12670473754405975,-0.07921074330806732,-0.26888740062713623,-0.2752724289894104,0.13260814547538757,-0.03569307550787926,-0.013110456988215446,0.13813450932502747,-0.0068037305027246475,0.05767970159649849,-0.05567733198404312,-0.14486433565616608,-0.01218360010534525,-0.06643511354923248,0.05723796784877777,0.018161924555897713,-0.10291865468025208,0.021178487688302994,-0.02518414705991745,0.151544451713562,0.22564563155174255,0.2785972058773041,-0.06593553721904755,-0.054606057703495026,-0.027423299849033356,0.07371959090232849,0.029313884675502777,-0.07849828898906708,0.11821576207876205,-0.17729569971561432,-0.08794257044792175,0.03397863358259201,-0.1592186689376831,-0.23844099044799805,-0.06118325889110565,-0.23265241086483002,-0.057589173316955566,0.12591341137886047,0.05737024545669556,0.011267490684986115,0.020227154716849327,-0.048330750316381454,0.10600366443395615,-0.05226260796189308,0.025271672755479813,0.17251035571098328,-0.05544782429933548,0.2434806227684021,-0.01104282308369875,-0.10367366671562195,0.18705444037914276,-0.20284485816955566,-0.07335835695266724,0.2345150262117386,-0.10634411126375198,-0.14984272420406342,-0.16579550504684448,0.07556024193763733,0.011876492761075497,0.1300896853208542,0.05422443524003029,-0.01226027775555849,-0.1954880803823471,0.12694810330867767,0.11884807050228119,0.20557500422000885,-0.22893622517585754,-0.046209730207920074,-0.22324280440807343,0.045921020209789276,0.0898030623793602,0.011919486336410046,-0.05985790118575096,0.08242173492908478,0.12674468755722046,-0.20479489862918854,-0.08699075877666473,0.13601896166801453,-0.23045241832733154,0.019036198034882545,-0.023465609177947044,-0.258417546749115,-0.19040319323539734,0.08011811226606369,-0.018442317843437195,-0.18068218231201172,0.024683207273483276,0.06203439459204674,0.08093095570802689,-0.20705930888652802,0.017124181613326073,0.12087938189506531,-0.07743091881275177,0.3235212564468384,0.1167268455028534,0.05654178932309151,-0.06858637183904648,-0.034978482872247696,0.22082588076591492,-0.3050084114074707,-0.08396515995264053,0.014295388013124466,-0.23650690913200378,-0.012714128009974957,-0.2793929874897003,0.23008550703525543,0.10762429237365723,0.17261812090873718,-0.23119066655635834,-0.1134086474776268,-0.19779379665851593,0.2512735426425934,0.18386626243591309,0.2623123526573181,-0.1836506426334381,0.03629288449883461,-0.30240678787231445,0.052005309611558914,0.09867506474256516,0.07907354831695557,-0.11186876147985458,-0.13368569314479828,0.09186436980962753,-0.29549381136894226,0.04901398345828056,0.13622744381427765,-0.0772477239370346,0.044024739414453506,0.23439721763134003,-0.1831582933664322,-0.08691138029098511,0.12292506545782089,-0.16514042019844055,0.03258637711405754,-0.2271585911512375,0.30750009417533875,0.04596135765314102,-0.014110695570707321,-0.15466256439685822,0.22985981404781342,0.17350943386554718,-0.2802392244338989,0.12781918048858643,0.03250090032815933,0.2373875379562378,0.09123782068490982,-0.11821726709604263,0.19731666147708893,0.02759632281959057,-0.09051349759101868,0.18955795466899872,-0.07424063980579376,0.14112161099910736,-0.1844298541545868,-0.009299657307565212,-0.04468698054552078,0.16098745167255402,-0.1279088854789734,0.053473830223083496,-0.06756485253572464,0.017245201393961906,-0.02650754339993,0.08452355116605759,-0.018485551699995995,-0.05386468023061752,-0.2192317098379135,-0.02716655097901821,0.08245166391134262,0.10297650843858719,-0.044968072324991226,-0.12299208343029022,0.2793317437171936,0.09083877503871918,-0.14843778312206268,0.034481365233659744,-0.13731299340724945,-0.04360194876790047,0.1136859580874443,-0.1256149262189865,-0.09644720703363419,0.17248286306858063,-0.11233626306056976,0.0719536617398262,-0.1729319989681244,-0.04938683286309242,-0.2598237693309784,0.39383649826049805,-0.04653751105070114,-0.31929534673690796,0.1931764781475067,0.1134708821773529,0.2023196667432785,-0.38111111521720886,0.16618923842906952,0.2440120279788971,-0.21493205428123474,0.009341182187199593,0.2850733697414398,-0.27394890785217285,0.11295634508132935,-0.3303305208683014,0.11615397781133652,-0.0965050533413887,0.19129550457000732,-0.178849995136261,-0.10262475907802582,-0.20107436180114746,0.21300269663333893,-0.047024402767419815,0.42138588428497314,-0.19116172194480896,0.11876951158046722,-0.2380097359418869,0.2005978673696518,-0.10994118452072144,0.3190610110759735,-0.1296693980693817,-0.03085092082619667,0.1897309273481369,-0.18496929109096527,0.15257512032985687,0.29201123118400574,-0.36152029037475586,-0.10750925540924072,0.3686259686946869,-0.2557416558265686,-0.051331132650375366,0.35916903614997864,-0.18753975629806519,0.13482625782489777,-0.08973861485719681,0.25641128420829773,-0.056337565183639526,-0.29924476146698,-0.012042999267578125,0.2396886646747589,-0.15157604217529297,-0.339055597782135,0.22988131642341614,0.35727760195732117,0.34785616397857666,-0.22530503571033478,0.1642632931470871,0.11766873300075531,0.03317638859152794,0.1434803158044815,0.1445317268371582,-0.027643950656056404,-0.2836235761642456,-0.28154027462005615,0.10560832917690277,0.10570786893367767,-0.020995743572711945,-0.0002944562875200063,-0.28414350748062134,-0.16570527851581573,0.22996073961257935,0.2666149139404297,0.21244223415851593,-0.009933759458363056,-0.18667654693126678,-0.2749834656715393,0.24921643733978271,0.2467959225177765,0.0717301070690155,-0.15042966604232788,0.10731460154056549,0.3313894271850586,-0.1405094563961029,0.08712005615234375,0.20767641067504883,-0.009686429984867573,0.25494661927223206,0.26078587770462036,-0.08964967727661133,0.26656076312065125,0.17551319301128387,-0.16614042222499847,-0.30444639921188354,-0.24877965450286865,0.2069445103406906,0.07614285498857498,-0.05869602784514427,0.06144223362207413,0.12620922923088074,-0.21439701318740845,0.09930163621902466,-0.1972709745168686,0.24608448147773743,-0.07767897844314575,-0.1487954556941986,0.20598499476909637,-0.022336583584547043,-0.00103024544660002,0.018124191090464592,-0.08976011723279953,0.06056561321020126,-0.09818018227815628,0.10801973938941956,-0.1894059032201767,0.15132632851600647,-0.02760404907166958,0.08276546746492386,-0.02035285346210003,-0.1479445993900299,-0.12940038740634918,0.23843277990818024,-0.017166731879115105,0.23739497363567352,-0.15831030905246735,0.09329413622617722,-0.2634383738040924,0.09978299587965012,-0.0005533269140869379,-0.08034160733222961,0.1712067574262619,0.1300668865442276,-0.13405869901180267,0.12118767201900482,0.13765574991703033,-0.1549018770456314,0.2527696490287781,-0.060299161821603775,-0.13391093909740448,0.11425390839576721,0.09436087310314178,0.211960107088089,-0.1455007791519165,-0.14506351947784424,0.3287312984466553,-0.028554603457450867,-0.10203837603330612,0.18483039736747742,0.05125341936945915,0.055173609405756,-0.27089035511016846,-0.09713803976774216,0.1888200044631958,-0.3877822458744049,0.07035000622272491,0.10982945561408997,-0.33063092827796936,0.0936923399567604,-0.0394161120057106,0.3137228786945343,-0.1407979428768158,-0.11877977848052979,-0.15591879189014435,0.20114906132221222,0.032881271094083786,0.3749239444732666,-0.05757700651884079,-0.15825499594211578,-0.38128775358200073,-0.06935563683509827,0.2584637403488159,0.23118893802165985,-0.03613824397325516,-0.05729488655924797,-0.17689572274684906,0.16699258983135223,0.21057282388210297,-0.3752029538154602,0.02191505767405033,0.01624177023768425,-0.3618106245994568,0.07161958515644073,0.22167238593101501,-0.39398491382598877,0.1273908168077469,0.01432295236736536,-0.30261656641960144,0.15663622319698334,0.060563500970602036,0.20158682763576508,-0.21252264082431793,-0.07446349412202835,-0.2688945233821869,-0.166692852973938,0.12780357897281647,-0.3487495481967926,-0.17815308272838593,0.0700913816690445,0.3696673810482025,0.025918496772646904,0.00038827667594887316,0.376775860786438,0.16281037032604218,-0.14388211071491241,0.2218788117170334,0.017041124403476715,-0.18445831537246704,-0.2530824542045593,0.0474434569478035,0.19882437586784363,0.218457892537117,0.08292869478464127,-0.10773533582687378,-0.14477454125881195,-0.12482798844575882,-0.03080739825963974,0.25444358587265015,0.13900399208068848,-0.2152976393699646,-0.11001572012901306,-0.012260247953236103,-0.028607891872525215,0.2123483419418335,0.18443551659584045,-0.18649232387542725,0.20403093099594116,0.11379465460777283,-0.19837355613708496,0.3299604654312134,0.14056313037872314,0.022283677011728287,0.15837138891220093,0.20808865129947662,-0.15462464094161987,0.3931581676006317,-0.07540557533502579,-0.1997743397951126,-0.11435937881469727,0.012121690437197685,0.13572485744953156,-0.19536523520946503,-0.05402849242091179,-0.07342702895402908,-0.03807094320654869,0.005099373869597912,0.0949873998761177,0.010095801204442978,-0.0037366512697190046,0.09222948551177979,0.07296065986156464,-0.0910494476556778,-0.12451475113630295,0.0057494156062603,-0.028084933757781982,0.029885603114962578,-0.024625632911920547,0.5062292814254761,-0.2665594518184662,0.707356333732605,-0.6244364380836487,-0.10159264504909515,1.1537516117095947,1.134848713874817,-0.5907953977584839,0.23630709946155548,0.16815383732318878,-0.44667378067970276,-0.37453901767730713,0.36609387397766113,-0.7404373288154602,0.08502291142940521,0.4966573417186737,-0.06545894593000412,0.22394239902496338,-0.007971139624714851,0.21363061666488647,0.1426408588886261,0.13619472086429596,0.2814503610134125,-0.15496526658535004,-0.0048708319664001465,-0.029605954885482788,0.05267469212412834,-0.25500020384788513,0.14729459583759308,-0.0161090400069952,0.15293234586715698,-0.009549174457788467,0.07147309184074402,0.0051795016042888165,-0.19380934536457062,0.1529642790555954,-0.027158129960298538,-0.08463583141565323,-0.12935885787010193,0.025257186964154243,-0.0681772530078888,0.12003151327371597,0.06999661773443222,0.12390005588531494,0.18151240050792694,-0.04737444221973419,-0.02183258719742298,0.28365010023117065,0.19638462364673615,0.08274353295564651,-0.029736148193478584,0.17439810931682587,-0.14595183730125427,-0.3061751425266266,-0.050289783626794815,-0.19913996756076813,-0.06291953474283218,-0.17909933626651764,0.2154526710510254,-0.01470879465341568,0.24700100719928741,0.34066683053970337,-0.07463356107473373,0.1226978674530983,0.14003995060920715,-0.08169704675674438,-0.15531252324581146,-0.17382875084877014,-0.09882320463657379,-0.1562628448009491,-0.1937824934720993,0.023570941761136055,-0.2368200719356537,-0.024967331439256668,-0.015748973935842514,0.31569403409957886,0.174647718667984,0.28352826833724976,-0.32466185092926025,0.10974130034446716,-0.1491095870733261,-0.3925606608390808,-0.17753936350345612,0.026110798120498657,0.2366754561662674,0.07065662741661072,0.05534794181585312,-0.014314699918031693,0.11090956628322601,0.26484617590904236,-0.20293886959552765,0.22134484350681305,-0.06105482205748558,0.09862086921930313,-0.18802101910114288,0.0857013538479805,-0.45953992009162903,-0.2270350158214569,0.1951514035463333,-0.06900972127914429,0.3988366723060608,0.4305837154388428,0.3142358064651489,0.29908502101898193,0.27092400193214417,0.11592478305101395,-0.35125043988227844,-0.4039648175239563,-0.23993316292762756,-0.27374163269996643,0.4070373773574829,-0.16477951407432556,0.0833757296204567,0.29310885071754456,0.025859948247671127,0.21857012808322906,-0.4611935019493103,-0.3207509219646454,-0.02772517316043377,-0.1350993514060974,-0.007452826015651226,-0.36049455404281616,-0.10203686356544495,0.4291459619998932,0.33594173192977905,-0.09374967217445374,-0.045177701860666275,0.004802795592695475,-0.011991329491138458,-0.005741965491324663,0.38632383942604065,-0.26622474193573,-0.11662064492702484,0.39857468008995056,0.3688642382621765,0.15623028576374054,0.24252553284168243,-0.07956055551767349,0.05689876154065132,-0.2798963785171509,0.006913121324032545,-0.3111768662929535,-0.0225765909999609,-0.005384956952184439,0.11794973909854889,0.04065759852528572,-0.19455893337726593,-0.254421591758728,0.05619524046778679,-0.26211017370224,-0.21758940815925598,-0.1021384596824646,-0.27241775393486023,-0.2787550389766693,0.18890945613384247,0.35464659333229065,0.1453733891248703,-0.032227154821157455,-0.06570407003164291,0.17138774693012238,-0.25892874598503113,0.1349475085735321,0.11163914948701859,-0.13623948395252228,-0.2939911186695099,0.14040681719779968,0.1897374391555786,-0.13717201352119446,0.05256740376353264,0.12269429862499237,0.1355895698070526,0.027136368677020073,0.2955738604068756,0.16922065615653992,-0.3450416922569275,0.06013888493180275,0.246250718832016,0.29602181911468506,-0.3363189101219177,0.17550067603588104,-0.22208702564239502,-0.37671351432800293,-0.16353604197502136,-0.17565275728702545,-0.06776400655508041,-0.30302441120147705,-0.033037275075912476,0.15010590851306915,0.01777469366788864,0.3041592538356781,-0.16311460733413696,0.3700278103351593,0.08043880015611649,-0.185271218419075,0.09807951748371124,-0.14707916975021362,0.057909902185201645,-0.3729732632637024,-0.23203328251838684,0.03631260618567467,-0.11244897544384003,-0.2209511548280716,-0.005610487889498472,-0.017204729840159416,-0.13028457760810852,0.25873327255249023,-0.09086611866950989,-0.17384003102779388,0.16232085227966309,-0.05934734269976616,0.2550448179244995,-0.13168965280056,0.24530735611915588,-0.12076617032289505,0.21513734757900238,0.1117987185716629,0.3788129687309265,0.059053339064121246,-0.38359782099723816,0.002187769627198577,0.22361545264720917,-0.3901946544647217,-0.17878736555576324,0.22300253808498383,0.10792276263237,-0.05785326287150383,-0.11892091482877731,0.1755911111831665,-0.16594037413597107,0.22847722470760345,0.21538352966308594,-0.026842279359698296,-0.11943045258522034,-0.24748194217681885,0.1014019027352333,0.0908452570438385,-0.06445272266864777,0.023157436400651932,-0.14173269271850586,0.20379222929477692,-0.1658438891172409,0.288737416267395,0.014277673326432705,-0.12613697350025177,0.0594145730137825,0.296943336725235,0.3715440034866333,0.058549948036670685,-0.1881752461194992,0.1569778025150299,-0.039567723870277405,-0.10008490085601807,0.28730839490890503,0.13172698020935059,-0.19261755049228668,0.06332828849554062,0.3718840777873993,-0.05178485065698624,0.2027975171804428,-0.1306447684764862,-0.026944687590003014,0.06892581284046173,-0.02870091423392296,0.3538152575492859,-0.1709543913602829,-0.1904420405626297,0.08346861600875854,-0.2371322363615036,-0.13418763875961304,0.3217620849609375,0.40515390038490295,-0.27650967240333557,0.11311621218919754,-0.21636198461055756,0.29077768325805664,-0.07835577428340912,-0.030897442251443863,-0.030557261779904366,0.16676421463489532,-0.11689811199903488,0.09128818660974503,-0.18411388993263245,0.10027805715799332,0.10564728826284409,0.083590067923069,0.1331200897693634,0.027722110971808434,-0.057857222855091095,0.006308097392320633,-0.04001865163445473,-0.17116248607635498,0.11347217112779617,-0.03585955128073692,0.22513258457183838,-0.17312966287136078,-0.08929787576198578,0.14591558277606964,-0.19497288763523102,-0.07408877462148666,0.059253886342048645,-0.028788968920707703,0.02500123903155327,-0.10189881920814514,0.22246964275836945,-0.04831578582525253,-0.08920081704854965,-0.1454993188381195,-0.1309724748134613,0.208619624376297,0.07391463220119476,0.00478008110076189,-0.25130170583724976,-0.1455642729997635,0.0075687081553041935,0.030219903215765953,-0.18608905375003815,0.1653287410736084,-0.09717908501625061,-0.24447210133075714,-0.07674730569124222,0.15377019345760345,-0.20308861136436462,-0.19653970003128052,0.08431340754032135,-0.05836339667439461,0.15954402089118958,-0.10200759768486023,-0.12167146056890488,0.06646634638309479,0.01704275608062744,-0.2414662092924118,0.053704556077718735,0.1448201984167099,0.3191142678260803,-0.31405627727508545,-0.16006499528884888,0.01662418246269226,-0.05548204854130745,0.18716217577457428,-0.2224685400724411,0.06967324763536453,0.03235238790512085,-0.08229413628578186,0.032912034541368484,0.06395731121301651,-0.16448958218097687,0.11303828656673431,-0.11322996765375137,0.017630193382501602,-0.15433792769908905,0.20806434750556946,-0.11679395288228989,-0.19485540688037872,0.009795675054192543,0.05031966045498848,-0.048433009535074234,-0.14678701758384705,-0.00440154317766428,-0.12233077734708786,0.04904939606785774,-0.12484696507453918,0.051936764270067215,-0.08737841993570328,-0.1093556359410286,0.12653885781764984,-0.07473799586296082,-0.014475373551249504,0.07654786109924316,-0.0810505598783493,0.04971034452319145,0.020095784217119217,0.07650585472583771,0.07569189369678497,-0.3377669155597687,-0.018997903913259506,-0.12553223967552185,0.0678999125957489,-0.08358599990606308,-0.1536196768283844,-0.07179848849773407,-0.06095244735479355,-0.05730123445391655,0.19827914237976074,-0.136042520403862,-0.14508195221424103,-0.07231409102678299,0.09722457081079483,0.15614965558052063,0.1176677793264389,-0.22338362038135529,0.11381857097148895,0.16956035792827606,-0.06804049015045166,0.22026999294757843,0.04651988297700882,-0.18095126748085022,0.3968535363674164,-0.19786928594112396,0.2889555096626282,-0.16285520792007446,-0.007553385570645332,0.30641940236091614,0.2544964551925659,-0.04127739369869232,-0.1866900622844696,-0.20012232661247253,-0.1163337305188179,0.1924700289964676,0.10981477051973343,-0.023880043998360634,-0.17769503593444824,0.09969735890626907,-0.00350943929515779,-0.08340582251548767,0.013086099177598953,-0.060166869312524796,-0.09485987573862076,0.1864192932844162,-0.05075084790587425,-0.0064527615904808044,0.20274803042411804,-0.1659967452287674,-0.08335424214601517,0.10696663707494736,0.061855487525463104,-0.010019185952842236,0.06227516382932663,0.16427327692508698,0.00792442075908184,-0.43785360455513,0.2651078701019287,0.07969295978546143,-0.16315512359142303,-0.06460639089345932,0.1026030108332634,-0.03751341626048088,0.18651507794857025,-0.011187874712049961,0.16459599137306213,-0.16891039907932281,-0.3393174111843109,0.15530593693256378,0.09160330891609192,-0.22034311294555664,-0.07851623743772507,-0.07539458572864532,-0.0018928979989141226,-0.1704377830028534,0.12391035258769989,0.1828383505344391,0.13565438985824585,0.14219830930233002,-0.10235345363616943,-0.2377522736787796,0.1466301530599594,0.14339615404605865,0.1900031715631485,-0.17036809027194977,-0.08824463188648224,0.1035739853978157,0.026088258251547813,-0.08265762031078339,0.22202561795711517,-0.12142864614725113,-0.18535657227039337,0.21083767712116241,-0.10921531915664673,0.13142555952072144,-0.24796944856643677,-0.0894433856010437,-0.3375545144081116,0.09660982340574265,-0.18037623167037964,-0.31357714533805847,0.011067010462284088,-0.011449902318418026,-0.08296018838882446,-0.006017335690557957,0.22854088246822357,0.23517189919948578,-0.19957540929317474,-0.10317870229482651,0.03497827425599098,0.10335829854011536,0.22954925894737244,-0.0026449328288435936,-0.03363596275448799,0.11550132185220718,-0.20109695196151733,-0.03370246663689613,0.18965725600719452,0.02315434254705906,0.11447909474372864,0.08303030580282211,-0.1887972354888916,-0.1443832963705063,0.033750731498003006,0.10584573447704315,0.1485111266374588,-0.07029940187931061,-0.13579609990119934,-0.05859268456697464,0.09089989215135574,0.2443929761648178,0.11990541964769363,0.08807780593633652,-0.2105012685060501,-0.03411037474870682,0.029931548982858658,0.20668573677539825,0.159942165017128,-0.024985045194625854,-0.17848072946071625,-0.0501546747982502,-0.0227389894425869,0.018062962219119072,-0.26445040106773376,-0.10517596453428268,-0.27777913212776184,0.04301993548870087,0.04032173380255699,-0.10819743573665619,0.01058494858443737,-0.02999962493777275,-0.25515395402908325,-0.003843447659164667,0.1401437222957611,0.12726068496704102,-0.03436201438307762,-0.014850004576146603,-0.1687334179878235,-0.048136599361896515,0.08001627773046494,0.11681608110666275,-0.13816103339195251,-0.15225853025913239,0.14194652438163757,-0.052213191986083984,-0.029350891709327698,0.1527990698814392,-0.08994106948375702,0.15740281343460083,-0.16218644380569458,0.17148201167583466,0.039162252098321915,-0.15415063500404358,0.030055133625864983,-0.29312166571617126,-0.008229915983974934,0.2346600890159607,0.018809635192155838,0.057970885187387466,0.07001040130853653,0.01068816240876913,0.06022275611758232,0.21480566263198853,0.06172711402177811,-0.22525840997695923,0.005514129064977169,-0.04412706568837166,0.19529400765895844,0.009284700267016888,-0.16400127112865448,0.2335060089826584,0.032027896493673325,0.2032090425491333,-0.033674709498882294,-0.09227796643972397,-0.2235659956932068,0.13763469457626343,-0.09470017999410629,-0.0033278786577284336,-0.17011983692646027,0.15495432913303375,-0.1953269988298416,0.18017929792404175,-0.03627423942089081,0.05985650047659874,0.11403190344572067,0.026514235883951187,0.07082260400056839,-0.2743375897407532,0.1295631229877472,-0.02971847914159298,0.04118707776069641,0.19695916771888733,-0.007203428540378809,-0.12066803127527237,-0.08807235211133957,-0.011685420759022236,0.050154123455286026,0.01073312759399414,0.08744669705629349,0.24549688398838043,0.2282876968383789,-0.1053398922085762,-0.10794302821159363,-0.1631779819726944,-0.012774724513292313,0.06736652553081512,0.1574402004480362,-0.06097937002778053,-0.21048864722251892,0.07339972257614136,-0.09113873541355133,-0.17101559042930603,0.2348567694425583,-0.07659619301557541,-0.07363855838775635,-0.009025048464536667,0.08205404132604599,-0.06095283478498459,0.16061607003211975,0.05731557682156563,0.13311119377613068,0.10230756551027298,0.03579616919159889,-0.2465529888868332,0.08190155774354935,0.03136789798736572,-0.14167268574237823,-0.3695278465747833,0.011634103953838348,0.008976510725915432,-0.10599883645772934,-0.005823841784149408,-0.05921652913093567,0.09212090820074081,-0.003924931865185499,0.05305147543549538,-0.24594956636428833,-0.06743092834949493,0.14797459542751312,-0.13562820851802826,-0.1033133864402771,-0.010662123560905457,-0.06887663900852203,0.009257352910935879,0.013759052380919456,0.26940035820007324,-0.03848053142428398,-0.11074496805667877,-0.14529013633728027,-0.15068654716014862,0.08584988862276077,0.1343679130077362,0.02526414766907692,-0.0658780187368393,-0.12814730405807495,-0.20023082196712494,0.1879197061061859,0.10664509236812592,0.20014220476150513,0.13640815019607544,-0.05735157057642937,-0.1641545295715332,0.05397658050060272,-0.131808802485466,-0.11686110496520996,0.11707445234060287,-0.08408383280038834,0.20333322882652283,0.004575180355459452,-0.2145766019821167,-0.01774929091334343,-0.05753358080983162,-0.04005340486764908,0.010359412059187889,0.19020001590251923,0.13922330737113953,-0.16896072030067444,-0.1636120229959488,0.1670127958059311,0.13887105882167816,-0.30760693550109863,-0.08354266732931137,-0.07716869562864304,0.048616450279951096,0.13134917616844177,-0.012115308083593845,0.3944394588470459,0.13348978757858276,-0.009527782909572124,0.1186167523264885,0.04184901341795921,0.37850311398506165,-0.312930703163147,-0.12357237190008163,0.10836511105298996,-0.2926368713378906,0.07172957062721252,-0.04475856572389603,0.23242229223251343,-0.1348997950553894,-0.07350626587867737,-0.2303081750869751,-0.012701695784926414,-0.1534833163022995,0.405585378408432,0.01658751256763935,0.22453121840953827,-0.32540157437324524,0.0555359423160553,-0.07129815965890884,0.20966742932796478,-0.16073836386203766,-0.1478736251592636,0.39501872658729553,-0.02342546544969082,0.47945380210876465,-0.017687734216451645,0.0046403249725699425,-0.11706215888261795,-0.006906752474606037,0.0878107026219368,-0.04302625358104706,0.1755383461713791,0.16973544657230377,-0.4182197153568268,0.07888619601726532,0.01216161996126175,-0.000046259359805844724,0.031320031732320786,-0.10625441372394562,0.26198554039001465,0.010386666283011436,-0.18748289346694946,0.2053816020488739,-0.12106525152921677,-0.04604816436767578,0.2661757469177246,-0.05736594274640083,0.2523736357688904,0.051408782601356506,-0.2511844336986542,-0.05637500807642937,-0.2745303511619568,0.10662784427404404,0.023246392607688904,0.25106722116470337,-0.006123948842287064,-0.18547996878623962,0.11277133971452713,0.2783544361591339,-0.028587346896529198,0.2868281900882721,-0.14210815727710724,-0.27239081263542175,0.18135084211826324,-0.15697288513183594,-0.14666813611984253,0.24849042296409607,0.0017393482849001884,0.1652379333972931,-0.14922991394996643,0.025911495089530945,0.16086053848266602,-0.1810435801744461,-0.27019184827804565,-0.19086024165153503,0.2607094347476959,-0.1388271003961563,-0.2294653356075287,0.11660999059677124,-0.23001597821712494,-0.06682942807674408,-0.14597761631011963,0.21605780720710754,0.016532007604837418,0.31999123096466064,-0.09569313377141953,-0.21816180646419525,-0.0644705519080162,-0.1446240097284317,-0.03588525578379631,-0.24821242690086365,0.003327261656522751,-0.20790690183639526,-0.2673157751560211,-0.04495903477072716,-0.14417728781700134,-0.030263055115938187,0.17388339340686798,0.09517468512058258,0.3003137707710266,0.06998465210199356,-0.15094490349292755,-0.11002238839864731,0.06035429239273071,-0.09456797689199448,0.21186602115631104,0.0948559045791626,-0.022415392100811005,-0.20151425898075104,0.10947659611701965,-0.17411984503269196,-0.17149998247623444,-0.1139751598238945,0.07042067497968674,-0.23751387000083923,-0.13010846078395844,0.11349564045667648,-0.19491444528102875,-0.09426659345626831,-0.14335286617279053,0.15307635068893433,0.2881709337234497,0.022097241133451462,-0.18034692108631134,0.0727049931883812,0.11972324550151825,-0.06533047556877136,-0.031743235886096954,0.09596383571624756,-0.4166569113731384,-0.22730812430381775,0.023818332701921463,0.15517443418502808,0.011282766237854958,-0.0019470520783215761,-0.16445189714431763,-0.2500329613685608,0.16888919472694397,0.03228577598929405,0.11137276142835617,0.19469285011291504,-0.008752082474529743,0.0062760040163993835,-0.2985997498035431,0.45710137486457825,-0.25087252259254456,-0.1970759928226471,0.2626846730709076,0.05558909475803375,0.11500087380409241,-0.2446851283311844,0.01296788826584816,-0.17550958693027496,0.12828156352043152,0.047915104776620865,0.3524174690246582,-0.2087656408548355,-0.11857278645038605,-0.31574806571006775,0.1911749690771103,-0.21493931114673615,0.136071115732193,-0.08009462058544159,-0.09161654859781265,0.03583879396319389,-0.12108303606510162,-0.030501676723361015,-0.2259930521249771,0.5577595233917236,0.11139001697301865,0.33686524629592896,0.013895341195166111,-0.007689423393458128,0.33649346232414246,0.10907604545354843,-0.03865491971373558,-0.17174552381038666,-0.550163984298706,-0.0007704537129029632,-0.062722347676754,0.003798474557697773,-0.0012270823353901505,0.10221501439809799,0.10110615193843842,-0.05523750185966492,0.08665936440229416,0.11499877274036407,-0.10135151445865631,0.002853154903277755,0.07814422249794006,-0.06981576979160309,0.1280212253332138,-0.08770105987787247,-0.23637142777442932,-0.06982161104679108,-0.1632184535264969,0.14681342244148254,-0.03257234767079353,-0.03430300951004028,-0.04945562407374382,-0.13777300715446472,-0.1773456633090973,0.15418855845928192,-0.08825913071632385,0.12144212424755096,0.052509207278490067,-0.08646947145462036,0.03584389388561249,-0.12330605834722519,0.10068928450345993,0.15956364572048187,-0.0035501106176525354,0.1882554143667221,-0.04718392342329025,-0.06666910648345947,0.1263038069009781,-0.2174074500799179,0.06230930984020233,-0.07099117338657379,-0.06760397553443909,-0.16010898351669312,0.08898624777793884,-0.056616611778736115,-0.04122030362486839,0.04494941979646683,0.21599754691123962,0.1615377962589264,-0.14686977863311768,-0.04868542402982712,0.06213552504777908,0.083998903632164,0.0927291214466095,0.06426647305488586,0.15448226034641266,-0.21596235036849976,0.06557056307792664,0.01502902153879404,-0.05972041189670563,0.06653192639350891,0.03365994244813919,0.11575089395046234,0.354654461145401,-0.1433686465024948,0.1302032321691513,-0.1177317351102829,0.04012642055749893,0.010278686881065369,0.036138471215963364,0.0713481679558754,-0.008852599188685417,-0.010605940595269203,0.09927533566951752,-0.13445515930652618,0.09880165755748749,0.09455113112926483,-0.09365705400705338,0.08387317508459091,0.04923175275325775,-0.09258201718330383,-0.04051049426198006,0.022047346457839012,0.028463097289204597,-0.08011797815561295,-0.13519133627414703,0.12935425341129303,0.34101593494415283,0.14097224175930023,-0.025614915415644646,-0.10039566457271576,0.0140414759516716,-0.15511947870254517,-0.1431116908788681,-0.037501100450754166,-0.24794341623783112,-0.11593179404735565,-0.13233457505702972,-0.006501360796391964,0.06770462542772293,-0.06764449924230576,0.11707659810781479,-0.23037251830101013,0.08595869690179825,0.2868048846721649,-0.014030411839485168,-0.013974753208458424,-0.02245253510773182,-0.118044413626194,-0.11430182307958603,0.015366164967417717,-0.09432821720838547,0.03724677488207817,-0.16652332246303558,0.051070425659418106,0.11668883264064789,0.2137473076581955,-0.015208656899631023,-0.12603823840618134,-0.17098693549633026,0.034996408969163895,0.20813784003257751,0.05184822157025337,-0.13740147650241852,-0.2503216862678528,-0.13651098310947418,-0.06573071330785751,0.07927452772855759,0.20517787337303162,0.0018473647069185972,0.22795294225215912,0.15482880175113678,-0.1158362478017807,0.19587206840515137,-0.04979773983359337,0.02052045799791813,-0.0019242095295339823,0.04528575390577316,-0.08368835598230362,-0.10562445223331451,0.07962144911289215,-0.2042437046766281,0.02866443432867527,-0.036244288086891174,0.15629470348358154,-0.19062440097332,-0.029047591611742973,-0.05002155900001526,0.17672601342201233,0.16335363686084747,0.07565802335739136,0.0128895603120327,0.07805191725492477,0.005044003948569298,0.124918133020401,0.16665323078632355,-0.11857569217681885,0.13799209892749786,0.08498472720384598,-0.07693664729595184,-0.07501568645238876,-0.1759314239025116,0.046568211168050766,0.0813373327255249,0.12910044193267822,-0.253050833940506,0.08643753826618195,-0.19567595422267914,-0.01700308546423912,-0.07862602919340134,-0.014836646616458893,-0.08444908261299133,0.026077115908265114,0.19049206376075745,0.12479279190301895,0.018466874957084656,0.11123394966125488,-0.1776227056980133,0.0012782332487404346,0.10369006544351578,0.0042105866596102715,0.2208372950553894,-0.13738277554512024,-0.06759125739336014,0.02511882223188877,0.06940613687038422,-0.23266486823558807,-0.007863694801926613,-0.15341101586818695,-0.19082890450954437,-0.11299316585063934,0.2525186836719513,0.42875492572784424,0.10791388899087906,0.033730603754520416,0.00897376611828804,0.01154832448810339,-0.37925684452056885,0.11081758886575699,0.18644453585147858,0.11838916689157486,-0.08309555798768997,-0.04950479045510292,0.11550945043563843,0.10173545777797699,0.08501803874969482,-0.029455294832587242,0.13640619814395905,-0.18679404258728027,-0.4690350890159607,0.33085325360298157,0.4524707496166229,-0.37829962372779846,0.33272966742515564,-0.9359566569328308,-0.22410260140895844,-0.4236360788345337,0.44904184341430664,-0.8378205299377441,-0.5667473673820496,-1.0142922401428223,0.30723854899406433,-0.9136642217636108,0.4103407859802246,-0.5778695344924927,0.05504123866558075,-0.20352263748645782,-0.027584055438637733,0.08416692912578583,0.20348866283893585,0.003304499201476574,-0.5198756456375122,0.10157826542854309,-0.35219934582710266,-0.0669151246547699,0.23794876039028168,-0.029123760759830475,0.0069912029430270195,-0.24692116677761078,-0.22667010128498077,-0.26188281178474426,-0.03488509729504585,-0.32697728276252747,0.15803536772727966,0.12674705684185028,-0.17483553290367126,0.2664969861507416,0.029245968908071518,-0.15472635626792908,0.17128802835941315,-0.5046499967575073,0.5042394995689392,0.1744091957807541,-0.1629626750946045,0.3400687873363495,0.10075107961893082,0.12522271275520325,0.009977918118238449,-0.1394629180431366,-0.1308271735906601,0.034814395010471344,0.059140004217624664,0.20312388241291046,-0.05933612585067749,0.10514327138662338,-0.05744176357984543,0.03342638909816742,-0.15744733810424805,-0.29099035263061523,-0.0342063270509243,0.1060553714632988,0.1865376979112625,0.04114167392253876,0.09417665004730225,0.037942346185445786,-0.17588379979133606,-0.045717157423496246,-0.11824043095111847,-0.005608826410025358,-0.009958160109817982,-0.12730638682842255,-0.11904839426279068,0.19351719319820404,0.12985987961292267,0.3058049976825714,0.20117968320846558,-0.09574005007743835,0.15314938127994537,0.14573660492897034,0.39113688468933105,-0.03935627266764641,0.042421113699674606,-0.4882142245769501,0.12772676348686218,-0.333548903465271,-0.21115943789482117,0.30002930760383606,0.2166704386472702,-0.09425094723701477,-0.03294955939054489,-0.06349106132984161,-0.20427778363227844,-0.19079822301864624,-0.14768174290657043,-0.13452336192131042,-0.09457922726869583,-0.0570966973900795,-0.2816368639469147,-0.18264281749725342,0.04436827450990677,-0.06760506331920624,-0.11333074420690536,-0.060072485357522964,0.3160977065563202,0.3794032335281372,-0.21207456290721893,-0.08911588788032532,-0.10414046794176102,-0.16304467618465424,0.047463949769735336,0.10814951360225677,-0.07814686745405197,-0.021084768697619438,0.064374640583992,-0.12549415230751038,0.029419101774692535,0.4098990261554718,-0.06284588575363159,-0.3568732738494873,0.08710038661956787,-0.07159499078989029,-0.0308457650244236,0.30711108446121216,0.17483973503112793,0.19389024376869202,0.08412185311317444,0.2840862572193146,0.10173865407705307,0.0813886970281601,-0.0012107895454391837,0.07247015833854675,0.07169747352600098,-0.07994401454925537,-0.012055345810949802,0.05032684653997421,-0.02611706592142582,0.29330384731292725,-0.23363971710205078,0.14469583332538605,-0.053775589913129807,0.13347488641738892,0.14708903431892395,0.041844770312309265,-0.06807070225477219,0.11022529751062393,-0.20162297785282135,-0.24304084479808807,-0.23630808293819427,-0.10373726487159729,-0.02339508756995201,-0.10389984399080276,-0.008079820312559605,0.02617638371884823,0.22182339429855347,-0.29334336519241333,-0.122637078166008,0.09846577048301697,-0.03908175602555275,0.32212743163108826,-0.35620883107185364,-0.25819921493530273,0.13257218897342682,0.48096969723701477,0.26876336336135864,-0.20645539462566376,0.4295558035373688,-0.23672229051589966,-0.10752929002046585,-0.012942085973918438,0.054189544171094894,0.34324193000793457,0.2257538139820099,0.27695196866989136,0.18000847101211548,0.019317010417580605,-0.1855894774198532,0.1279289573431015,-0.1843172311782837,-0.01274654921144247,0.006415410432964563,-0.04401315003633499,0.0528978630900383,-0.09701531380414963,0.09714513272047043,0.32914072275161743,-0.1126977950334549,0.08265311270952225,0.17638984322547913,0.036910053342580795,0.10326063632965088,0.215545192360878,0.13527370989322662,0.3263547718524933,-0.36497682332992554,-0.181375652551651,-0.1858699470758438,-0.0006366978050209582,-0.04788179695606232,0.1560070663690567,-0.015328017063438892,0.23572660982608795,0.15401284396648407,-0.19738733768463135,0.061380334198474884,-0.08161907643079758,0.14561258256435394,-0.028969408944249153,-0.09044459462165833,-0.2385978400707245,-0.45142778754234314,-0.2916976809501648,-0.2520778775215149,0.2717262804508209,-0.24789921939373016,0.13070937991142273,-0.14232848584651947,0.11126299202442169,-0.3817153573036194,-0.3699832260608673,0.1997254192829132,-0.39655473828315735,-0.13092711567878723,0.1557599902153015,0.11407963931560516,0.06304661929607391,-0.32870805263519287,0.0252136941999197,-0.43883779644966125,0.21311047673225403,-0.025904318317770958,-0.058805905282497406,0.3152799606323242,0.2896699607372284,-0.045578353106975555,-0.18820302188396454,0.2062380462884903,0.0446336604654789,0.17318083345890045,0.04477669671177864,-0.04629450663924217,0.31585046648979187,0.02601201832294464,-0.11473195254802704,-0.12798264622688293,-0.13180269300937653,0.2520080506801605,-0.06717522442340851,-0.17017140984535217,0.03567969426512718,-0.0629267767071724,-0.04056930169463158,-0.03162034600973129,0.0389765165746212,0.20304268598556519,0.23676249384880066,0.3996357321739197,-0.2498883605003357,-0.14652632176876068,-0.014525160193443298,-0.2492060661315918,0.15489597618579865,-0.3059176802635193,0.26122695207595825,0.30687180161476135,-0.264451265335083,0.16639657318592072,-0.004999685101211071,-0.34054890275001526,0.18244515359401703,-0.30544695258140564,-0.2757619023323059,0.012958659790456295,-0.2194877713918686,0.05306817591190338,-0.015006378293037415,-0.023844746872782707,-0.0034935560543090105,0.17866714298725128,0.07493867725133896,0.10674366354942322,-0.050940271466970444,0.0632614940404892,-0.16186636686325073,0.07396538555622101,-0.23575273156166077,-0.12983471155166626,-0.10156560689210892,0.19648630917072296,-0.04328387230634689,0.021999042481184006,0.030243422836065292,-0.6409769654273987,0.1096951812505722,0.19891257584095,0.07561144232749939,-0.007478381507098675,0.14461687207221985,0.01794661581516266,-0.007465614937245846,0.14772510528564453,-0.0520474910736084,-0.10310421139001846,-0.08218906074762344,0.4585215151309967,-0.026457982137799263,-0.14747114479541779,0.06978993117809296,0.07463585585355759,-0.3437226712703705,0.2077440470457077,0.06843391060829163,0.013975183479487896,0.23938266932964325,-0.01390733104199171,-0.11890514194965363,-0.10918017476797104,-0.054780468344688416,-0.07181377708911896,0.15423759818077087,0.001754666562192142,0.052360326051712036,0.2541410028934479,-0.010486776009202003,0.2022850066423416,0.33164650201797485,0.011164559982717037,-0.10033122450113297,0.1700454205274582,-0.08839341253042221,0.010981850326061249,0.19195456802845,-0.15375778079032898,0.2431374490261078,-0.2985084354877472,-0.05855952948331833,-0.07069537043571472,-0.05060861259698868,0.20973902940750122,-0.4204932153224945,-0.10893221944570541,-0.21606560051441193,0.17577970027923584,0.11708240211009979,0.04596821591258049,0.043652862310409546,-0.047168709337711334,-0.1134539544582367,0.1643448770046234,-0.14241857826709747,0.02792740799486637,-0.04488874971866608,-0.05164390057325363,-0.124168761074543,0.04317476600408554,-0.13223594427108765,0.012864002026617527,-0.12045112997293472,-0.122641921043396,-0.03646862879395485,0.20334908366203308,0.041091397404670715,-0.1853395700454712,0.09013467282056808,0.09146812558174133,-0.07607437670230865,0.1786843091249466,0.0664009228348732,-0.0990855023264885,-0.036450307816267014,-0.05035966634750366,-0.030512353405356407,0.1419917345046997,0.17497046291828156,0.06810826808214188,0.012684086337685585,-0.05873851850628853,-0.20599140226840973,0.05436857044696808,0.1179092675447464,-0.032081831246614456,0.028719468042254448,-0.04166748374700546,0.11591644585132599,0.016840269789099693,-0.11382834613323212,-0.23590978980064392,0.3272775113582611,-0.14212043583393097,-0.2311163693666458,-0.02551082707941532,-0.023517383262515068,0.1322789341211319,-0.18309833109378815,-0.0033534623216837645,0.1252717226743698,0.07223094254732132,-0.21010999381542206,0.0051415227353572845,0.2938752770423889,0.18579688668251038,0.04800103232264519,-0.01862962543964386,0.08562932163476944,0.0754309669137001,0.014069889672100544,0.09280583262443542,0.07102295756340027,-0.026041269302368164,-0.01812967099249363,0.07169198244810104,-0.17475999891757965,0.07927393168210983,0.08496333658695221,-0.24002276360988617,0.03392088785767555,0.0036688598338514566,0.17021268606185913,0.04989076033234596,0.05351804941892624,0.08558124303817749,0.026745980605483055,0.08873262256383896,-0.046803947538137436,0.05282324180006981,0.168629989027977,0.02083841897547245,-0.1470588594675064,0.0847710445523262,0.11908955872058868,-0.007534062024205923,-0.08441290259361267,-0.18196849524974823,-0.07886914908885956,0.306969553232193,-0.0833498015999794,0.17586013674736023,-0.2083049863576889,0.15806104242801666,0.18726466596126556,-0.20865978300571442,0.19959485530853271,0.09122374653816223,-0.18182481825351715,-0.04852289333939552,0.0878480076789856,-0.06055959314107895,-0.1504496932029724,-0.1027751937508583,0.23722149431705475,0.2118249237537384,0.025219036266207695,-0.2392607033252716,-0.023899322375655174,-0.12002971023321152,0.16414512693881989,0.08535362035036087,0.12150458991527557,-0.039542701095342636,0.01452591735869646,-0.34302231669425964,-0.32648980617523193,0.10571339726448059,0.09745912253856659,-0.10141249746084213,0.1715502142906189,0.07086062431335449,-0.15682664513587952,-0.003405145835131407,0.03448370844125748,-0.08884581923484802,0.19486303627490997,0.03411133214831352,-0.00202440214343369,0.11831370741128922,-0.0057772076688706875,0.00906609371304512,-0.23487631976604462,0.07435822486877441,0.17469803988933563,0.14494526386260986,-0.03951224312186241,-0.012650636024773121,0.06325604021549225,0.33562642335891724,0.21416406333446503,0.058204639703035355,0.07004883885383606,0.18580421805381775,-0.02242966555058956,0.10760688036680222,0.064023457467556,-0.17401744425296783,0.02211800403892994,-0.07758418470621109,0.003623008029535413,0.11854687333106995,-0.17932547628879547,-0.2166038453578949,-0.1668550819158554,0.19751602411270142,0.24350766837596893,0.023949099704623222,0.07914818078279495,-0.025087477639317513,-0.24463438987731934,0.16382434964179993,0.22152049839496613,0.15652933716773987,-0.012189303524792194,-0.04329629987478256,-0.07131985574960709,0.1930149793624878,-0.34922856092453003,-0.13489197194576263,0.014981341548264027,-0.1979866474866867,0.005158955696970224,0.06455746293067932,-0.10775134712457657,-0.2254338413476944,0.2110394835472107,0.030801938846707344,-0.18554171919822693,0.15548785030841827,-0.09296998381614685,-0.13025249540805817,-0.09889759123325348,0.21826934814453125,0.03316537290811539,-0.10536361485719681,0.515994668006897,0.1005103662610054,0.10446766018867493,0.011750570498406887,-0.14275602996349335,-0.07186125218868256,-0.04150369390845299,-0.10714487731456757,0.2144695371389389,-0.0579930916428566,-0.28879353404045105,0.08500399440526962,-0.23816625773906708,-0.17667733132839203,0.02920209802687168,-0.17165999114513397,0.015743697062134743,0.007410705089569092,-0.1632266491651535,-0.056240394711494446,0.24246646463871002,0.058021433651447296,-0.07831797748804092,-0.10850296169519424,-0.12271402776241302,0.2365446835756302,0.030690154060721397,0.10688971728086472,0.05219683796167374,0.0714961364865303,-0.11165787279605865,-0.18668903410434723,0.08161748945713043,0.0603138729929924,-0.4598954916000366,0.06277570128440857,0.0012749516172334552,-0.03788606449961662,0.09517697989940643,-0.10869873315095901,-0.11430293321609497,-0.05533668398857117,0.263638436794281,-0.09746585041284561,-0.09328795224428177,-0.15367047488689423,-0.16093935072422028,-0.018851719796657562,-0.1263188123703003,-0.14332181215286255,0.18761609494686127,0.0553613007068634,-0.12787418067455292,-0.18798018991947174,0.0038713945541530848,0.13415586948394775,0.03278803825378418,0.26114967465400696,-0.3244486153125763,-0.007998470216989517,0.0021210545673966408,0.12561851739883423,0.0215572752058506,0.0014712801203131676,0.05747583508491516,-0.07777629792690277,-0.0542796365916729,0.07728945463895798,-0.08817855268716812,-0.06364471465349197,-0.021250300109386444,0.05591234192252159,-0.4951153099536896,0.22129930555820465,0.07033830881118774,-0.18306288123130798,0.07714591920375824,-0.10527677088975906,0.25185906887054443,-0.1668824553489685,-0.17322279512882233,0.2762364149093628,-0.09383541345596313,0.08573407679796219,-0.011948628351092339,-0.08972545713186264,-0.03894064575433731,-0.23772253096103668,0.0618283711373806,0.02301802858710289,0.444982647895813,-0.2288859635591507,-0.029631132259964943,0.1004677340388298,0.10087669640779495,-0.1950422078371048,-0.23778358101844788,-0.4050471782684326,0.20755429565906525,-0.21069976687431335,0.0886879563331604,-0.020089078694581985,-0.3295304775238037,-0.15496495366096497,0.005628257989883423,-0.12645478546619415,0.07051243633031845,-0.023904550820589066,0.3324628174304962,0.23153504729270935,0.01572343520820141,-0.20192179083824158,-0.09875674545764923,0.05538521707057953,0.08255654573440552,0.20783285796642303,0.008990399539470673,-0.2146797925233841,-0.061182424426078796,-0.09732337296009064,-0.1639745980501175,0.08845540881156921,0.028706977143883705,0.026438701897859573,-0.12124792486429214,0.02200922556221485,-0.1227346658706665,-0.0718221366405487,-0.30291059613227844,0.22596469521522522,0.19109147787094116,0.22183094918727875,-0.1545199751853943,-0.06549275666475296,0.08991188555955887,0.03411320224404335,-0.0016589667648077011,0.014286015182733536,-0.13520245254039764,-0.10762350261211395,-0.0990886241197586,-0.01799810118973255,-0.07523809373378754,-0.19802594184875488,-0.03205619752407074,0.051949549466371536,0.16461224853992462,-0.06319624185562134,-0.0532345250248909,-0.02918453887104988,-0.1357041597366333,-0.12670618295669556,0.09713545441627502,-0.06479831039905548,0.1112881749868393,-0.05997755005955696,0.01864088512957096,-0.12891021370887756,-0.15349037945270538,0.04417067766189575,-0.21034851670265198,0.09721989184617996,0.10225463658571243,-0.11903858929872513,-0.08424996584653854,0.015727272257208824,-0.19700226187705994,0.1286180317401886,-0.04095005989074707,0.09117290377616882,0.25684964656829834,-0.06427658349275589,-0.20576125383377075,-0.08636748045682907,-0.10966287553310394,-0.048334088176488876,-0.06676611304283142,0.042482297867536545,0.060653042048215866,-0.18124404549598694,0.048928581178188324,-0.17666850984096527,0.16862472891807556,0.06660272181034088,-0.10557524114847183,-0.0543467253446579,0.0639956071972847,0.17944355309009552,-0.09390085935592651,-0.13942843675613403,-0.02166944369673729,0.06905453652143478,0.1416422724723816,-0.047310154885053635,0.05913718789815903,0.12269507348537445,0.06987427920103073,0.0548003651201725,0.07950692623853683,0.09422668069601059,-0.09764934331178665,-0.0016638088272884488,-0.0467679388821125,0.16227877140045166,-0.22201374173164368,0.061147745698690414,-0.08452615141868591,-0.1501159518957138,-0.005110953468829393,-0.29609137773513794,-0.05014984309673309,-0.13374833762645721,-0.11054201424121857,-0.016165880486369133,-0.15732231736183167,0.016037549823522568,0.1834292709827423,-0.06772244721651077,-0.15999023616313934,0.13722939789295197,0.08924458175897598,-0.1165173277258873,-0.04845272749662399,0.2266390323638916,-0.017935018986463547,-0.11420270800590515,0.0748470202088356,0.04564356431365013,-0.029116787016391754,-0.1613670438528061,-0.0991441160440445,0.039467792958021164,0.19285179674625397,-0.17123916745185852,0.08787690848112106,-0.13417662680149078,0.045490361750125885,-0.2791646420955658,0.04412231221795082,0.34046444296836853,-0.08926548808813095,0.23304049670696259,-0.17473585903644562,0.2080584615468979,0.03452512249350548,-0.15519121289253235,0.23682305216789246,0.07566937804222107,-0.1404455602169037,-0.27235859632492065,-0.17784243822097778,0.20619730651378632,-0.16758869588375092,0.01715651899576187,0.25024089217185974,0.2849506437778473,0.1156192198395729,-0.3995477855205536,0.041829802095890045,0.14647778868675232,-0.039890579879283905,0.11052367091178894,0.05404003709554672,-0.23231327533721924,0.36070334911346436,0.19304046034812927,-0.19464507699012756,0.24820107221603394,0.004972923547029495,-0.2105834186077118,0.13845746219158173,-0.2555549442768097,0.11987346410751343,-0.013469725847244263,-0.05823230370879173,0.17846621572971344,0.27091583609580994,-0.13890111446380615,-0.34634244441986084,0.12371156364679337,0.17865759134292603,-0.3818485736846924,-0.2317427396774292,-0.2542892396450043,0.2542322874069214,0.16107027232646942,0.02009325660765171,0.029170449823141098,-0.39910566806793213,-0.37311699986457825,0.16429737210273743,-0.042690448462963104,-0.09241729974746704,0.17051568627357483,-0.18685555458068848,-0.02751227281987667,0.12667915225028992,-0.020303484052419662,-0.16053429245948792,-0.026952095329761505,-0.06419059634208679,-0.07176719605922699,-0.08458113670349121,-0.13879092037677765,0.023045502603054047,0.1647714376449585,0.04318782314658165,-0.018245939165353775,-0.1698327511548996,-0.17220832407474518,0.003145345486700535,-0.06113278865814209,-0.18087369203567505,0.1339496374130249,0.07330388575792313,-0.17893438041210175,-0.17043279111385345,-0.015371127054095268,0.1270052194595337,-0.18402862548828125,0.08371130377054214,-0.07258807867765427,-0.09203790873289108,-0.06122569367289543,-0.20109640061855316,-0.1922457218170166,0.17305050790309906,-0.16451282799243927,-0.2224106639623642,0.15167798101902008,0.15262185037136078,-0.12032745033502579,-0.19162309169769287,-0.10115357488393784,-0.050823476165533066,0.3460334837436676,0.047652289271354675,-0.17936427891254425,-0.15616458654403687,0.03643632307648659,-0.08332150429487228,-0.046813126653432846,0.012429973110556602,0.07550918310880661,-0.0824504941701889,0.11095704138278961,-0.011403391137719154,0.3025466501712799,-0.21476256847381592,0.04709777608513832,0.10477914661169052,-0.12858618795871735,0.1781371384859085,-0.1938897669315338,-0.03329116478562355,-0.14483337104320526,0.09507681429386139,0.15331672132015228,-0.022489337250590324,-0.01683034561574459,-0.13916337490081787,-0.17858512699604034,-0.28562766313552856,0.09350114315748215,0.20392173528671265,-0.05431503802537918,0.08679302781820297,0.15161530673503876,0.0787094458937645,-0.060332898050546646,0.22924448549747467,0.07865812629461288,0.06854651123285294,0.16580162942409515,0.001892644795589149,0.13394109904766083,0.20668503642082214,-0.14599117636680603,0.08501893281936646,-0.05738119035959244,0.13919344544410706,-0.18420353531837463,-0.048700351268053055,0.2418498396873474,0.07313103973865509,-0.17098885774612427,-0.18975546956062317,0.20750609040260315,0.06409698724746704,-0.34915798902511597,0.006522681564092636,-0.021771354600787163,-0.06664753705263138,-0.031618908047676086,0.02841203846037388,0.22730933129787445,-0.21401576697826385,-0.0782143771648407,0.1572088599205017,0.1688951700925827,0.01708975061774254,-0.21679279208183289,0.022137433290481567,-0.031153999269008636,0.143673837184906,0.09675995260477066,0.09310224652290344,-0.20765981078147888,0.12681080400943756,-0.038291238248348236,0.08450078964233398,0.11784704029560089,0.057622410356998444,-0.33612343668937683,0.025978436693549156,0.028593827039003372,-0.2807024121284485,-0.09887171536684036,0.20064808428287506,-0.13391180336475372,0.16511787474155426,0.17825983464717865,-0.3052683472633362,0.06874002516269684,0.12016329914331436,-0.15304765105247498,-0.14317186176776886,-0.17127728462219238,0.0952698215842247,0.002830312354490161,0.13799256086349487,0.25838911533355713,0.14822284877300262,0.24493283033370972,-0.2863560914993286,0.11822479963302612,0.09473263472318649,0.02541808970272541,-0.04484967514872551,-0.08136028051376343,-0.08268609642982483,-0.23592200875282288,0.20441073179244995,-0.34138062596321106,-0.0745132640004158,-0.13223707675933838,-0.03567219153046608,0.06360165029764175,0.09634596854448318,-0.15642762184143066,0.06238377466797829,-0.11373674869537354,0.07083995640277863,0.1295337975025177,0.00790737196803093,0.04584560543298721,0.37222549319267273,-0.35769739747047424,-0.007048915605992079,0.06795498728752136,0.08655271679162979,-0.015594166703522205,-0.19403387606143951,0.1720597892999649,-0.24996818602085114,-0.17791937291622162,0.01010208297520876,-0.22176456451416016,0.0287525225430727,-0.04175717011094093,-0.03894195333123207,0.11812400817871094,-0.07768704742193222,-0.010697762481868267,-0.3187675476074219,0.1658380776643753,-0.14343659579753876,0.1306954324245453,0.17634430527687073,0.024744194000959396,-0.20972514152526855,-0.047218188643455505,-0.09574420005083084,-0.1217716634273529,0.11148502677679062,0.3201131224632263,-0.23894956707954407,-0.05887446179986,0.13407869637012482,0.16486826539039612,0.25739413499832153,0.058952782303094864,0.282118022441864,0.008572262711822987,-0.25021716952323914,-0.06549198925495148,-0.0790163204073906,0.14540091156959534,0.17143595218658447,0.3360866904258728,-0.0023632857482880354,-0.07300514727830887,-0.11030542105436325,0.2136535793542862,-0.3217664659023285,-0.1862664818763733,-0.2351176142692566,-0.09867817908525467,-0.16788625717163086,0.18275053799152374,-0.1490788608789444,-0.11668574810028076,0.32213717699050903,-0.1205524355173111,0.3174954056739807,0.16585606336593628,-0.13533151149749756,0.03647596016526222,0.07426415383815765,-0.04370009899139404,-0.22212891280651093,-0.06583894044160843,0.07376568764448166,0.09855309873819351,0.24676251411437988,0.08455096930265427,0.13688452541828156,-0.043822549283504486,-0.037522606551647186,-0.07717582583427429,-0.024215614423155785,-0.00023420763318426907,-0.11774183064699173,0.12127480655908585,-0.0038366459775716066,0.009799438528716564,0.07289078086614609,-0.04719286784529686,0.06522847712039948,-0.012650045566260815,0.034165237098932266,-0.13545416295528412,-0.3386310338973999,0.7193597555160522,0.5001298785209656,-0.6661566495895386,0.22237162292003632,-0.13780532777309418,-0.2618517577648163,0.32173675298690796,-0.686902642250061,1.2781238555908203,0.48449647426605225,0.17338712513446808,-0.05233771353960037,0.3047125041484833,-1.0195682048797607,0.19775718450546265,-0.396914541721344,0.2871077060699463,-0.3297797739505768,-0.11206616461277008,0.21989968419075012,0.3072616159915924,0.0931461900472641,0.18013709783554077,-0.3143075406551361,0.18580397963523865,0.21192175149917603,-0.09403351694345474,-0.0640149712562561,-0.14264072477817535,-0.40597671270370483,0.2939506471157074,0.19512809813022614,0.018209412693977356,0.28241288661956787,0.08790694177150726,0.6227849125862122,0.13902589678764343,-0.7078610062599182,-0.8334636688232422,0.45253875851631165,0.1001514419913292,-0.17753587663173676,0.468384712934494,0.24536076188087463,0.025317857041954994,-0.09943021833896637,0.07076658308506012,-0.22319373488426208,0.1682281494140625,-0.383027583360672,0.24359993636608124,0.22924025356769562,-0.023071765899658203,-0.14309105277061462,-0.21644149720668793,-0.11080947518348694,-0.46982261538505554,0.3185751140117645,0.3181641399860382,-0.6637874245643616,-0.2250698357820511,0.2790319621562958,0.6041286587715149,-0.04280955344438553,0.17623603343963623,-0.14246119558811188,-0.26593440771102905,0.006837567780166864,-0.2574347257614136,0.35100480914115906,0.10864338278770447,-0.11373255401849747,-0.2685132324695587,0.32677456736564636,0.09205687791109085,-0.07107165455818176,0.18638047575950623,-0.006302120164036751,0.1919367015361786,-0.4850590229034424,0.40915560722351074,-0.5140745639801025,0.2929598391056061,-0.2251947522163391,-0.13439874351024628,0.03909550979733467,0.14672155678272247,-0.14010177552700043,-0.3051355481147766,0.4334597885608673,0.019206944853067398,-0.5316300392150879,0.16345064342021942,-0.023716958239674568,0.0719699114561081,-0.18429970741271973,0.23384101688861847,-0.12320440262556076,0.05966348201036453,-0.14249679446220398,0.16435685753822327,-0.013813994824886322,-0.3428690731525421,-0.17104686796665192,0.18109293282032013,0.1343502700328827,0.3934563398361206,0.14664703607559204,0.07745866477489471,0.056602854281663895,0.24695821106433868,0.4106995165348053,-0.22555355727672577,0.0647641122341156,0.424356073141098,0.11823724210262299,0.04918298497796059,0.039286430925130844,-0.47530025243759155,0.6105932593345642,0.2928418815135956,-0.1385127604007721,0.2037946581840515,0.17742840945720673,-0.0067042941227555275,0.2370835840702057,0.22341366112232208,0.31143322587013245,-0.38980740308761597,-0.018121356144547462,-0.002445586258545518,0.6117062568664551,0.0452108196914196,-0.24874284863471985,-0.12665055692195892,0.44615498185157776,0.4489724040031433,0.14642442762851715,0.19081877171993256,0.32993966341018677,-0.13887843489646912,-0.2868460714817047,-0.46032285690307617,0.27533861994743347,-0.2941228747367859,-0.03149209916591644,0.3434142470359802,0.1838589757680893,0.032276853919029236,0.10987727344036102,-0.023876620456576347,0.3174264132976532,-0.21120032668113708,0.3274138867855072,-0.2978309392929077,-0.25821369886398315,-0.3198951482772827,0.17704126238822937,0.32540395855903625,0.2768262028694153,-0.32486480474472046,0.7755794525146484,-0.05747752636671066,0.27203458547592163,-0.0357515886425972,-0.21643733978271484,-0.20496100187301636,0.32254892587661743,0.4058595895767212,-0.3694227635860443,0.11830230802297592,0.3359723389148712,0.3021707832813263,-0.1695881485939026,0.38972553610801697,-0.1884375661611557,-0.07110541313886642,-0.28271493315696716,0.06949178874492645,-0.218500018119812,-0.06954772770404816,-0.028124669566750526,0.24925902485847473,0.0727546438574791,-0.5375550389289856,0.06450282037258148,-0.18960461020469666,-0.3833942413330078,0.1619870811700821,0.24144648015499115,-0.0565975122153759,0.05366576835513115,-0.2345290333032608,-0.04352318495512009,0.31081289052963257,0.5613445043563843,0.20371080935001373,0.14953431487083435,-0.1795123815536499,-0.12345397472381592,-0.2989678680896759,0.29135510325431824,-0.1980406492948532,-0.694486677646637,-0.1426524966955185,0.2766967713832855,-0.8818925023078918,-0.30667564272880554,-0.2854892611503601,0.11798172444105148,0.6369419693946838,-0.32776308059692383,-0.7854424715042114,-0.23639990389347076,0.43132326006889343,-0.06267978250980377,-0.46222713589668274,-0.16836731135845184,-0.7356395125389099,0.11434967815876007,0.42789334058761597,0.18742550909519196,-0.3747587203979492,0.1512622982263565,-0.07856356352567673,-0.11947470903396606,0.446309894323349,-0.009827783331274986,0.39415380358695984,-0.1977771520614624,0.06041034683585167,0.05278714746236801,0.3324227035045624,-0.2167481780052185,-0.3791123330593109,0.13039489090442657,-0.21538423001766205,0.09305228292942047,0.07416269183158875,0.32387250661849976,-0.044213563203811646,0.01812632940709591,-0.1760558784008026,-0.008621102198958397,0.18461936712265015,-0.284596711397171,0.013026407919824123,0.2023642510175705,0.16112037003040314,0.10877734422683716,-0.018124820664525032,-0.011923971585929394,-0.06594793498516083,-0.17186695337295532,-0.44577375054359436,-0.20973823964595795,-0.11447307467460632,-0.3413994312286377,0.15347528457641602,-0.051701150834560394,-0.21752791106700897,-0.044750772416591644,0.2784710228443146,0.02539258636534214,0.03972101956605911,0.33233392238616943,-0.5121384263038635,-0.2218354046344757,0.00370198767632246,0.13658899068832397,0.07317621260881424,-0.03525630757212639,0.014344447292387486,0.16040094196796417,0.0074615259654819965,0.15962772071361542,0.09583486616611481,-0.08941005915403366,-0.09627468138933182,-0.06639141589403152,0.07217703759670258,0.02131914533674717,0.13997577130794525,0.09959500283002853,-0.05062858760356903,-0.11904725432395935,0.113263338804245,-0.09621410816907883,-0.14562273025512695,-0.17562724649906158,-0.2703199088573456,0.08422187715768814,-0.11266708374023438,0.16902554035186768,0.0015406847232952714,-0.41566625237464905,0.18099428713321686,-0.06791725754737854,0.0032753392588347197,-0.26994866132736206,-0.31596317887306213,0.28648751974105835,0.1570095419883728,0.09845265001058578,0.12416868656873703,-0.2050437331199646,0.056037090718746185,-0.15800344944000244,-0.03115086443722248,0.07053441554307938,-0.152013897895813,0.0452054999768734,0.22990629076957703,0.02256173826754093,0.09132371842861176,0.0008372836746275425,-0.3236277997493744,0.14676254987716675,0.030573153868317604,0.00585227319970727,-0.019089456647634506,-0.058513447642326355,-0.003906555008143187,0.09836342930793762,0.04505835473537445,-0.0934782326221466,-0.3165619969367981,0.0748787447810173,-0.3393966555595398,-0.23039808869361877,-0.08330856263637543,0.14095421135425568,-0.47375452518463135,-0.037670597434043884,0.006538736633956432,0.11891230940818787,-0.1120978519320488,0.10262425988912582,-0.12313670665025711,-0.09259796142578125,0.15931926667690277,-0.3780328631401062,0.1145462691783905,0.10295066982507706,-0.023816745728254318,0.2208399474620819,0.23893213272094727,-0.06263171136379242,0.15604521334171295,0.05991310998797417,-0.021821999922394753,-0.0071368892677128315,-0.2360340803861618,0.17801260948181152,0.01951494999229908,-0.3067501485347748,0.06625831872224808,-0.14205104112625122,-0.08125471323728561,-0.18198515474796295,-0.08107726275920868,-0.02997126802802086,0.20920611917972565,0.12198012322187424,0.008494655601680279,-0.10379836708307266,0.06984686106443405,0.31452617049217224,-0.38524580001831055,-0.04294874891638756,-0.14806963503360748,-0.02373199723660946,-0.023450477048754692,-0.3030671179294586,-0.008240626193583012,-0.16583935916423798,-0.0751362070441246,0.12911571562290192,-0.009143427945673466,-0.07399654388427734,-0.10315437614917755,-0.11133702099323273,-0.2691521644592285,-0.12017439305782318,0.13682498037815094,0.20230194926261902,0.023210536688566208,-0.2324826419353485,-0.16672183573246002,0.15511104464530945,0.24585436284542084,-0.1592750996351242,-0.24365676939487457,-0.2701159417629242,0.016092238947749138,-0.2455517053604126,0.3355962038040161,-0.09660886228084564,-0.03234363719820976,0.2448352426290512,0.12376902252435684,0.09480919688940048,-0.2865189015865326,0.4149850010871887,0.2117575854063034,-0.07769004255533218,-0.4217072129249573,0.3791702687740326,-0.21581366658210754,0.418698251247406,-0.007502089254558086,-0.005068318452686071,0.11084684729576111,-0.07163388282060623,-0.007288631051778793,-0.7414429187774658,-0.02059156633913517,0.028467237949371338,-0.005033417139202356,0.23286908864974976,-0.20039749145507812,0.0450376458466053,0.1471003144979477,-0.2474793642759323,0.29946351051330566,-0.1447257101535797,-0.19238650798797607,-0.36293524503707886,0.2552962601184845,0.09613186120986938,0.05031958222389221,0.1515359878540039,0.04080716520547867,-0.20890668034553528,-0.07781770825386047,-0.01571614108979702,0.09485115855932236,0.2194114476442337,-0.0674334466457367,-0.06577133387327194,0.25926899909973145,-0.12947964668273926,0.10171227902173996,0.27059850096702576,-0.17364275455474854,0.13275322318077087,-0.14539624750614166,0.09483898431062698,0.14686806499958038,0.005854472983628511,0.06840551644563675,0.07540994882583618,-0.2502855360507965,0.27207714319229126,-0.05311335623264313,0.18071722984313965,0.04971351474523544,-0.1739257276058197,-0.048398666083812714,0.04926317557692528,-0.05587117746472359,0.35283681750297546,-0.10689456015825272,0.037560634315013885,0.406625360250473,0.20951786637306213,-0.16616609692573547,0.17940811812877655,-0.290648490190506,0.01597951166331768,0.053322408348321915,-0.042365025728940964,-0.130075603723526,0.0036849703174084425,-0.01095652300864458,-0.06979663670063019,-0.026620641350746155,-0.04578899219632149,0.2210555374622345,-0.04958678036928177,-0.02656402997672558,0.041943419724702835,-0.19903327524662018,0.045804157853126526,-0.01731126382946968,0.5586884617805481,0.12458361685276031,0.2993254065513611,0.2674238085746765,0.045413870364427567,0.07637283205986023,0.018853574991226196,0.09852069616317749,-0.26291218400001526,-0.03697796165943146,0.29134660959243774,-0.08745050430297852,0.046879805624485016,-0.11907587200403214,0.0784163847565651,-0.2694647014141083,-0.2085288166999817,0.07131482660770416,0.49300792813301086,-0.28349798917770386,-0.24823056161403656,-0.19529291987419128,-0.03014311008155346,0.15623490512371063,0.3900933265686035,0.04764285683631897,-0.08919692039489746,0.4124127924442291,0.15200677514076233,0.11354971677064896,0.13469605147838593,0.02935243770480156,-0.06154009327292442,0.15899261832237244,-0.24921466410160065,0.06220703199505806,0.038945842534303665,-0.09989985823631287,0.16350841522216797,0.14624625444412231,0.05332260578870773,-0.19770830869674683,-0.10767176747322083,0.06398826837539673,0.045739106833934784,0.023918842896819115,-0.15531261265277863,0.1298912912607193,0.09917342662811279,0.018473440781235695,0.061703238636255264,0.00986032746732235,-0.1846160590648651,-0.09435507655143738,-0.0764303058385849,-0.006909285672008991,-0.2837330996990204,-0.11625726521015167,0.1584310531616211,0.09805596619844437,0.06508658081293106,-0.10174282640218735,0.018899044021964073,-0.14897960424423218,-0.04113117977976799,0.011923222802579403,0.08827991783618927,-0.37204837799072266,0.13623151183128357,0.05099150910973549,-0.0866413488984108,0.12223920971155167,-0.13351549208164215,-0.21658329665660858,-0.04024900123476982,-0.07551345229148865,0.1574939638376236,0.0892665684223175,-0.10018562525510788,-0.49786344170570374,0.159580260515213,-0.0814771056175232,-0.22895175218582153,0.16773129999637604,0.02841867133975029,-0.16325779259204865,-0.11847835034132004,0.0032931561581790447,0.11636383086442947,0.24756497144699097,0.07483360171318054,-0.20442403852939606,-0.117409348487854,-0.05757572129368782,0.08108357340097427,-0.02787052094936371,0.2205127626657486,0.06496955454349518,-0.1097358763217926,0.10031592845916748,-0.09249581396579742,0.04215310141444206,0.11669947952032089,-0.14700375497341156,-0.05628858879208565,-0.1844882369041443,-0.016755271703004837,-0.18540360033512115,-0.0726189836859703,0.005120484158396721,0.126853346824646,-0.0715414509177208,-0.07183916121721268,-0.1807558238506317,0.16617655754089355,0.09815191477537155,-0.11478903144598007,-0.021723618730902672,0.059656284749507904,0.0339764803647995,0.1313028782606125,0.07202240079641342,0.02130463533103466,-0.12894533574581146,-0.09061548113822937,-0.059763919562101364,0.0904325321316719,0.1331595927476883,-0.20967590808868408,0.18387271463871002,-0.025438785552978516,-0.14353622496128082,0.23638613522052765,0.08299809694290161,0.10296425968408585,0.0309438519179821,-0.17270109057426453,0.14425382018089294,-0.08584321290254593,-0.1728229522705078,0.02344546839594841,0.04455776885151863,0.1357349157333374,-0.29305142164230347,-0.026489701122045517,0.25113222002983093,-0.36956703662872314,0.186671644449234,0.3025757372379303,0.0691162720322609,0.45193198323249817,0.007002928294241428,0.32777878642082214,-0.062111180275678635,-0.2910875976085663,-0.20330661535263062,-0.22464771568775177,0.01379016600549221,0.054616302251815796,-0.13817644119262695,-0.2864314913749695,-0.6162080764770508,0.08695156872272491,-0.20047031342983246,-0.14002081751823425,-0.2313506305217743,0.12846854329109192,-0.25971880555152893,0.040795281529426575,0.1637669950723648,-0.26180458068847656,0.06102476641535759,-0.14576496183872223,-0.05410389602184296,0.14236880838871002,0.17344431579113007,-0.029595131054520607,-0.08274472504854202,0.06839811056852341,-0.18501052260398865,-0.08751163631677628,0.15964184701442719,0.0723729133605957,-0.0536830760538578,-0.2793160080909729,-0.2730153799057007,0.11086666584014893,0.09594902396202087,0.31855082511901855,0.020368492230772972,0.01825488731265068,0.07136517763137817,-0.3121638596057892,0.12414480000734329,-0.0064261662773787975,-0.2648625075817108,-0.05943954735994339,-0.3444664180278778,-0.12353000789880753,0.11454553157091141,-0.15426774322986603,0.130751833319664,0.0793532207608223,0.12501589953899384,-0.06355127692222595,-0.14094942808151245,0.1401635855436325,0.15813042223453522,-0.07854911684989929,0.15075765550136566,-0.09819189459085464,-0.1367444545030594,0.2997332513332367,0.2372124046087265,-0.08950825780630112,0.15169945359230042,-0.31513357162475586,-0.02496258355677128,0.026214053854346275,-0.20008116960525513,0.021931109949946404,0.17452946305274963,-0.1673370599746704,-0.1655939370393753,0.0009739886736497283,0.042995303869247437,-0.11871559172868729,0.210787832736969,0.061067961156368256,-0.10940985381603241,-0.16240347921848297,-0.12420535832643509,0.12148398905992508,-0.18346655368804932,0.15312862396240234,0.05992613732814789,0.12277200073003769,-0.17435699701309204,-0.17140665650367737,0.030558349564671516,-0.4850028157234192,-0.21891522407531738,0.12790456414222717,-0.32587555050849915,-0.016202112659811974,-0.15594260394573212,-0.21748702228069305,0.08481691777706146,-0.11459781974554062,0.013771300204098225,-0.11858584731817245,0.11342078447341919,-0.13185882568359375,0.10719923675060272,0.054913073778152466,0.3656083941459656,0.09398868680000305,0.17184971272945404,-0.06055377051234245,0.11383280903100967,-0.02744024060666561,0.15292632579803467,-0.05607905611395836,-0.16471117734909058,-0.34220075607299805,-0.2588084638118744,-0.16094815731048584,-0.4471014440059662,-0.14433133602142334,0.09125966578722,-0.031041612848639488,0.11354116350412369,-0.014037951827049255,0.014793971553444862,-0.1677905023097992,0.13855063915252686,0.11190740019083023,-0.17458155751228333,0.009017905220389366,-0.13078294694423676,0.19629055261611938,0.029014727100729942,-0.14479678869247437,0.13247965276241302,0.19815896451473236,-0.03954337164759636,0.016708729788661003,0.030454598367214203,0.09742718935012817,0.21706178784370422,0.3527431786060333,0.28156939148902893,0.0894220694899559,-0.2293066680431366,-0.08412070572376251,0.053666211664676666,-0.09087026864290237,0.03098278120160103,0.026033906266093254,0.2642289400100708,0.12463678419589996,-0.08312924951314926,-0.10183624923229218,-0.025100689381361008,-0.011226128786802292,0.21384352445602417,0.2885228991508484,0.006762244738638401,-0.06316906213760376,0.04028439149260521,-0.11596522480249405,0.27349990606307983,0.2825058102607727,0.11239577829837799,0.055778179317712784,0.08652833849191666,-0.07222630083560944,0.20396941900253296,0.3670770823955536,0.18573807179927826,0.19437071681022644,0.06744162738323212,0.2029738873243332,0.22406084835529327,0.26841387152671814,0.18046726286411285,0.003339050803333521,0.05033879727125168,0.21199265122413635,-0.16828392446041107,0.09634999930858612,0.15074826776981354,0.17374713718891144,0.02484925463795662,-0.08907458931207657,0.0028142293449491262,-0.07816321402788162,-0.42502179741859436,0.03819837421178818,-0.07666858285665512,-0.3952527940273285,-0.1559581160545349,-0.29550737142562866,-0.18076075613498688,-0.0263960100710392,-0.10939830541610718,0.0994548499584198,0.2510245740413666,-0.00004426455052453093,-0.04748839884996414,0.09405335783958435,0.024684684351086617,0.35200315713882446,-0.06856342405080795,0.12270569801330566,-0.2630684971809387,-0.07378720492124557,0.0830196961760521,0.20484691858291626,0.22253865003585815,-0.15977104008197784,-0.3414652347564697,0.010064652189612389,-0.044176071882247925,-0.3304521143436432,0.1664009541273117,0.12381833791732788,-0.34259429574012756,0.3106110394001007,0.13642193377017975,0.03994427248835564,0.08651073276996613,0.07656992226839066,0.03826063498854637,-0.0619453601539135,-0.14790622889995575,-0.04429217055439949,0.15479405224323273,-0.018021797761321068,-0.1584484726190567,-0.1874437779188156,-0.038298290222883224,0.007852488197386265,0.03374718874692917,0.21664585173130035,0.0874587669968605,-0.17815925180912018,0.1582261323928833,-0.008917078375816345,0.16994261741638184,0.07708504050970078,-0.1349213570356369,0.24425269663333893,-0.09349982440471649,-0.172510027885437,-0.2147112935781479,0.13369211554527283,0.03098851628601551,0.04513368010520935,-0.11091293394565582,-0.007957464084029198,-0.33552515506744385,0.25841188430786133,-0.08340821415185928,-0.20602048933506012,0.019305992871522903,0.0482940711081028,-0.15803584456443787,0.18255619704723358,0.016775760799646378,-0.1512608677148819,0.26528608798980713,0.03170939162373543,-0.05206175148487091,0.09892983734607697,-0.20120103657245636,0.04414279758930206,0.19393227994441986,0.22685553133487701,-0.137931227684021,0.06920042634010315,0.11786308139562607,0.15759021043777466,0.0917348563671112,-0.12992171943187714,0.2555820345878601,-0.04598112776875496,-0.03697112947702408,-0.17941595613956451,0.168304443359375,-0.047164514660835266,-0.35362353920936584,0.1137072965502739,0.1329757124185562,-0.05630974844098091,0.15136602520942688,0.4433530569076538,0.1405559778213501,-0.06398893147706985,0.04012970253825188,0.2279716283082962,0.010840339586138725,-0.04746253788471222,-0.3074342906475067,0.13215948641300201,0.19355499744415283,0.031154319643974304,0.06135708838701248,-0.19652380049228668,-0.18126632273197174,0.16969181597232819,-0.1219569593667984,-0.10655272752046585,-0.19879502058029175,0.22534805536270142,-0.15472809970378876,0.04459869861602783,0.4063943028450012,0.022339724004268646,0.16387709975242615,-0.25324535369873047,-0.104899100959301,-0.08233459293842316,-0.11628947407007217,-0.28140947222709656,-0.04468246176838875,0.05718287080526352,-0.21700550615787506,-0.06234709918498993,0.16211386024951935,0.13124991953372955,0.19559745490550995,-0.12940576672554016,0.17470544576644897,0.039790328592061996,0.031936127692461014,-0.21372149884700775,-0.05145591124892235,0.02566957101225853,-0.09120390564203262,0.22143955528736115,0.07564591616392136,-0.1864410936832428,0.1416625827550888,0.3501785099506378,-0.042837273329496384,-0.013057863339781761,-0.13767534494400024,0.08077023923397064,-0.19792701303958893,-0.1961720734834671,-0.1283452808856964,-0.12040753662586212,0.04094194993376732,-0.07778718322515488,-0.05332460254430771,-0.03207514062523842,0.009118616580963135,0.32446154952049255,-0.01296980306506157,-0.19073456525802612,-0.021076049655675888,0.18331028521060944,-0.12153102457523346,0.028140882030129433,0.3221685290336609,0.21429958939552307,0.24309560656547546,-0.19704753160476685,-0.11037265509366989,0.09031818807125092,-0.051270753145217896,-0.20131345093250275,0.18712346255779266,-0.10997071862220764,-0.19663697481155396,-0.04002382978796959,-0.052728958427906036,0.11384984105825424,0.19976256787776947,-0.1631717085838318,-0.10406813770532608,0.25193533301353455,0.19822202622890472,0.10217054933309555,0.09633628278970718,0.10350348055362701,-0.39857950806617737,-0.018281934782862663,-0.10257206112146378,-0.16937491297721863,0.006332809571176767,-0.07430587708950043,-0.411582350730896,-0.05455464869737625,0.11622574180364609,-0.02519410476088524,-0.003043790115043521,0.1382710486650467,0.23541304469108582,-0.14681123197078705,-0.13272009789943695,0.3265434503555298,0.23168429732322693,-0.19350263476371765,-0.16956457495689392,0.05554020404815674,-0.017616715282201767,-0.021637586876749992,-0.09237965196371078,0.012379564344882965,-0.3349928557872772,0.06919727474451065,-0.22577521204948425,-0.26016896963119507,0.22610223293304443,0.02946743741631508,-0.3889736831188202,0.06348427385091782,0.14095279574394226,-0.022021319717168808,0.11505875736474991,0.06132075935602188,0.24512949585914612,0.06982854008674622,0.00008433533366769552,-0.011107907630503178,0.3490918278694153,0.36541175842285156,0.05175533518195152,-0.04844168201088905,-0.000016343745301128365,-0.06367002427577972,0.10926409065723419,0.07766252756118774,0.04419373348355293,0.0003394126833882183,0.05793270096182823,0.16523337364196777,0.09763266146183014,0.0629529133439064,0.06022980809211731,0.132737934589386,-0.11418916285037994,0.17174319922924042,0.6772935390472412,0.055044591426849365,0.9402400851249695,-0.6978678703308105,-0.23523344099521637,0.26520732045173645,0.15186959505081177,-0.25951722264289856,0.3552089035511017,0.12388768792152405,-0.9010297656059265,0.7253081798553467,-0.18335659801959991,-0.8218676447868347,-0.028948014602065086,-0.022696780040860176,-0.2915775179862976,-0.31385451555252075,0.25550562143325806,-0.13488976657390594,0.311173677444458,0.5874085426330566,-0.26448947191238403,0.020729271695017815,-0.2779046297073364,-0.1275842785835266,-0.1339658498764038,-0.16586430370807648,0.005583513993769884,-0.1917252391576767,0.32816919684410095,-0.06497130542993546,-0.12802331149578094,-0.13452193140983582,0.34516021609306335,-0.14758339524269104,0.14088517427444458,-0.2551412284374237,0.5283300876617432,-0.1695341318845749,-0.3256785273551941,-0.16287589073181152,-0.05787178874015808,-0.05819337069988251,0.07582147419452667,0.21226619184017181,0.253907710313797,0.154339000582695,-0.050919704139232635,0.10983160138130188,-0.25407689809799194,-0.15593260526657104,0.058957621455192566,-0.2941075563430786,0.08627607673406601,0.02796356752514839,0.20477551221847534,-0.044566694647073746,-0.06923429667949677,-0.36380359530448914,0.27903738617897034,0.2969597578048706,0.16106800734996796,0.13411861658096313,0.14711631834506989,0.06894593685865402,-0.145695760846138,0.3206965923309326,0.25589486956596375,0.31610849499702454,0.07749238610267639,0.21614181995391846,-0.2139182835817337,-0.17626953125,-0.14304302632808685,-0.24481052160263062,0.01642959751188755,0.21891020238399506,0.04956250265240669,-0.2312161922454834,0.08367148041725159,0.03568063676357269,0.04488898068666458,0.09665299206972122,0.12273949384689331,-0.3942611515522003,0.6278015971183777,-0.31026706099510193,0.4185430705547333,0.17678268253803253,-0.03264784440398216,0.44013556838035583,0.14234595000743866,-0.18072547018527985,-0.06388111412525177,-0.2292191982269287,-0.44374555349349976,0.23060467839241028,0.31684446334838867,-0.16452054679393768,-0.025005992501974106,0.20332273840904236,0.000592549447901547,-0.11545635759830475,0.19701305031776428,0.10299601405858994,-0.25126415491104126,0.18132705986499786,0.06700895726680756,-0.05017149820923805,-0.16971325874328613,0.058003734797239304,-0.010755063034594059,-0.2821742296218872,-0.05317254364490509,-0.15282966196537018,0.0015835434896871448,-0.20445756614208221,0.35821303725242615,0.09438208490610123,-0.3423377573490143,-0.0352526530623436,-0.030910437926650047,-0.03757359832525253,0.10415499657392502,0.10727998614311218,0.27347394824028015,-0.14707034826278687,-0.04824177920818329,0.2474183887243271,-0.3738785684108734,-0.02978021837770939,0.025769509375095367,-0.11818502098321915,0.39460304379463196,0.21211862564086914,-0.017794903367757797,0.1297302097082138,0.005647178739309311,-0.07439852505922318,0.304391473531723,0.1700897067785263,0.08606721460819244,-0.19190071523189545,-0.21106132864952087,0.07159624248743057,0.1417042315006256,-0.2651689648628235,0.11696697771549225,0.00961280893534422,-0.15513810515403748,0.09453266113996506,-0.17144112288951874,-0.10549711436033249,-0.11329948902130127,-0.32182466983795166,0.11776573956012726,0.46564823389053345,0.11199495196342468,0.10915853828191757,0.03831867501139641,0.215066060423851,-0.011642863042652607,0.1033773273229599,-0.1379798799753189,0.2621675133705139,-0.28764036297798157,-0.2466607689857483,-0.6239991188049316,-0.28849509358406067,0.09441913664340973,-0.15972170233726501,0.1252160221338272,-0.0658155307173729,0.32568198442459106,0.09639552980661392,-0.2165030539035797,0.243532195687294,-0.29945284128189087,-0.1981978565454483,-0.13772042095661163,0.1463097333908081,0.062492627650499344,-0.2239629626274109,0.2626839578151703,0.09700819849967957,-0.22322611510753632,0.06718464195728302,-0.15012936294078827,0.20836742222309113,0.09109117090702057,-0.10431716591119766,-0.006109161302447319,0.1772284358739853,-0.20569908618927002,0.07895694673061371,-0.15937457978725433,-0.7225256562232971,0.10614491254091263,0.16775517165660858,-0.21274493634700775,0.21506179869174957,0.1199406236410141,0.5336928367614746,0.2763439416885376,0.5691260099411011,0.10520841926336288,-0.1497902125120163,0.08274964243173599,0.245525524020195,0.09006756544113159,0.05269521102309227,-0.13623642921447754,0.16911548376083374,-0.3866654336452484,0.1411089450120926,0.3231581747531891,0.12284195423126221,-0.15636253356933594,-0.28802332282066345,-0.5623143911361694,-0.01028492208570242,-0.08987446874380112,-0.2717427909374237,-0.31760373711586,0.10135336220264435,-0.06264587491750717,-0.04646262153983116,-0.006792639382183552,0.2308536022901535,-0.21307426691055298,0.009385029785335064,0.15415842831134796,0.23126734793186188,0.17968511581420898,-0.1630319058895111,-0.45202335715293884,-0.3723790943622589,-0.19218949973583221,0.043925244361162186,0.5146751403808594,-0.11878474801778793,0.09688897430896759,0.3080907464027405,-0.257674902677536,-0.6002528071403503,0.3857109248638153,0.18892329931259155,-0.29079681634902954,0.016217397525906563,-0.2222234159708023,0.15798209607601166,0.511608898639679,0.33225348591804504,-0.0012358054518699646,0.06847260147333145,0.15308965742588043,0.2969067394733429,-0.33169329166412354,-0.10128629952669144,-0.30425700545310974,-0.42423132061958313,0.13945116102695465,-0.03150727599859238,-0.10742827504873276,0.29261964559555054,-0.34319067001342773,0.07241018861532211,0.0589662566781044,-0.09979016333818436,0.0743139311671257,0.10492461919784546,-0.09464994072914124,0.011114416643977165,0.05886745825409889,-0.03273145481944084,0.011319438926875591,0.07150914520025253,0.005130300298333168,-0.12343433499336243,-0.1609894037246704,0.21296364068984985,0.048031602054834366,-0.10944058746099472,0.07643947750329971,-0.18947230279445648,-0.06902983784675598,-0.003159350948408246,-0.014716981910169125,-0.05804596096277237,0.06385912746191025,0.0578506737947464,-0.24711787700653076,-0.16062688827514648,0.01518922671675682,-0.1371733695268631,-0.009078935720026493,0.12963375449180603,-0.04382286220788956,-0.01237222645431757,-0.2121862918138504,0.2851482331752777,0.11694113910198212,0.015326821245253086,-0.03336282819509506,0.15329520404338837,0.1587759554386139,-0.12849517166614532,0.06114480271935463,0.24196618795394897,0.19049397110939026,0.22371487319469452,0.1618529111146927,-0.19832377135753632,0.15562644600868225,0.2566375732421875,-0.2830834686756134,-0.12028772383928299,0.2922477424144745,0.03652476891875267,0.06533472239971161,0.0958816409111023,-0.22932492196559906,-0.04010094702243805,0.12475457787513733,0.34233617782592773,0.049900881946086884,0.07273959368467331,-0.04247640073299408,-0.12516848742961884,-0.004307715687900782,-0.0150983901694417,0.16885480284690857,-0.14530141651630402,0.17468039691448212,0.09284993261098862,0.05160738155245781,-0.06362681090831757,-0.01717584952712059,-0.09207866340875626,-0.1484316736459732,0.1318647265434265,-0.183053120970726,-0.16003283858299255,-0.1561182141304016,-0.14575369656085968,0.13381293416023254,0.07572585344314575,0.4309003949165344,0.053173407912254333,0.034806184470653534,0.026634683832526207,-0.07420860230922699,0.05892686918377876,-0.169882133603096,0.13456514477729797,0.20504818856716156,-0.6475334763526917,-0.29371705651283264,-0.15633484721183777,-0.14809241890907288,0.15832959115505219,0.11490299552679062,-0.1836642622947693,0.08742865920066833,0.03781728819012642,-0.02279333770275116,-0.07372486591339111,0.31604090332984924,-0.10530051589012146,-0.05621537193655968,-0.30212053656578064,-0.02023213542997837,0.06819862127304077,0.12316228449344635,-0.06390673667192459,0.10518442094326019,0.15411721169948578,0.38167357444763184,0.2807371914386749,0.22704404592514038,0.10385707020759583,0.0020875902846455574,-0.07350128144025803,-0.12455447018146515,-0.008118887431919575,0.06755591928958893,0.09324865788221359,0.0901552364230156,0.28323739767074585,0.144603431224823,-0.2594214081764221,0.06658390164375305,0.011411014012992382,0.011105453595519066,-0.12560656666755676,-0.31208398938179016,-0.0575207881629467,-0.21263422071933746,-0.0542740523815155,0.09185083210468292,0.034537941217422485,0.04231860488653183,-0.1127200797200203,-0.05558868870139122,0.043470729142427444,0.017093705013394356,0.05616142228245735,0.22326575219631195,-0.2994348406791687,0.024459190666675568,0.21490129828453064,-0.005780444480478764,0.14103065431118011,0.30255019664764404,-0.14641837775707245,-0.2670106887817383,0.16276289522647858,0.017238086089491844,0.07198536396026611,0.045711275190114975,-0.04605204612016678,-0.11337887495756149,-0.06161801889538765,0.11016237735748291,0.023792164400219917,-0.03124452382326126,0.2632000148296356,0.46588587760925293,0.1339312642812729,-0.06242752820253372,0.1593289077281952,-0.009049537591636181,-0.08010853081941605,-0.057487212121486664,0.2542746067047119,0.09827684611082077,0.20607532560825348,0.16010692715644836,-0.04430709034204483,0.09029801934957504,-0.014713907614350319,-0.3446657359600067,0.15426187217235565,-0.0490826740860939,0.43821948766708374,-0.01657794415950775,-0.0910736471414566,0.09434472024440765,-0.065458282828331,0.07915525883436203,-0.1204732283949852,0.32899877429008484,0.13092176616191864,-0.1247970312833786,-0.0891711488366127,0.07486233115196228,-0.22153115272521973,0.19709455966949463,-0.05388975515961647,0.07063708454370499,0.05716670677065849,-0.17104856669902802,-0.0734485536813736,-0.08396299183368683,0.035056959837675095,-0.04327448830008507,0.08427459001541138,-0.15461362898349762,-0.03494805470108986,-0.2900603115558624,-0.2004322111606598,0.11303143948316574,-0.02413547970354557,0.24121028184890747,0.18231098353862762,0.30386820435523987,0.2051451951265335,-0.02266858145594597,-0.208021879196167,-0.13774161040782928,0.16328725218772888,0.2874642610549927,0.0782201737165451,0.08644969016313553,-0.17660337686538696,0.19289158284664154,0.08235912024974823,0.1521083116531372,-0.03704904764890671,0.2318284958600998,-0.009520400315523148,-0.06231916323304176,-0.20814087986946106,0.2483338564634323,0.027528362348675728,-0.04870690777897835,0.03645111247897148,0.28972169756889343,-0.01552506536245346,-0.22624661028385162,0.06296226382255554,0.17040222883224487,-0.07012656331062317,0.06729345768690109,-0.041800882667303085,0.1596493273973465,0.13431665301322937,0.28119927644729614,-0.04650847986340523,0.06542600691318512,-0.014685329049825668,-0.2607448399066925,-0.0027400627732276917,-0.19736209511756897,-0.18952526152133942,0.03406795859336853,0.026637883856892586,0.23349088430404663,0.20956677198410034,-0.045564599335193634,-0.352699875831604,0.009592736139893532,-0.14332398772239685,-0.18600626289844513,-0.1280726194381714,-0.11867613345384598,0.28444361686706543,-0.24471259117126465,-0.21043549478054047,-0.06493745744228363,0.07480798661708832,0.23368261754512787,-0.0930853858590126,0.14407336711883545,0.20541433990001678,-0.1616823673248291,-0.07685285806655884,0.19630686938762665,-0.31540369987487793,0.023663485422730446,-0.4354941248893738,0.2486162930727005,-0.13926325738430023,-0.290410578250885,0.37530240416526794,0.2519826591014862,0.20766136050224304,-0.2787090241909027,-0.20803262293338776,0.4213971495628357,-0.11490712314844131,-0.10673462599515915,0.026189830154180527,-0.1959393322467804,-0.18018120527267456,0.226951465010643,-0.2785767614841461,0.03927038237452507,0.27494868636131287,0.14370448887348175,0.05064926669001579,0.3483557403087616,-0.22915537655353546,0.06276371330022812,-0.32732048630714417,0.1966513842344284,-0.07504640519618988,-0.12780378758907318,0.0377378910779953,0.1064639538526535,0.3982834219932556,-0.5408294796943665,0.061691515147686005,0.03158864378929138,0.15365849435329437,0.040934912860393524,0.1064082607626915,-0.06513813138008118,-0.1158561185002327,-0.20617708563804626,-0.00849710963666439,-0.07273606956005096,-0.3136317729949951,0.6629080772399902,-0.007354697212576866,-0.08547980338335037,0.3455258905887604,-0.14972780644893646,0.24333688616752625,-0.06183815374970436,0.11425305902957916,0.2438691258430481,-0.03651123866438866,-0.08984726667404175,0.016317568719387054,0.17380748689174652,-0.2089410275220871,0.026691310107707977,-0.42374229431152344,-0.10717972368001938,-0.2247978299856186,0.4512365162372589,0.01269493717700243,0.13574272394180298,-0.19185586273670197,-0.27307578921318054,0.011597284115850925,0.3051237165927887,-0.04342779144644737,-0.06511480361223221,0.3008244037628174,-0.021454529836773872,-0.05597541853785515,0.343222975730896,-0.14964984357357025,-0.025465102866292,0.045822326093912125,-0.1389177143573761,-0.03371460363268852,-0.2625693082809448,0.10121459513902664,0.03615839406847954,-0.11823419481515884,-0.023453239351511,0.028904225677251816,0.22199024260044098,0.135298952460289,0.08269792050123215,-0.20750415325164795,0.03272572159767151,0.039496514946222305,-0.0008793774759396911,0.16922344267368317,0.18196344375610352,-0.10332565754652023,0.029035333544015884,-0.40408286452293396,0.03210139274597168,-0.16654397547245026,-0.20625902712345123,0.04764367640018463,0.03537135571241379,0.09040237218141556,-0.23048533499240875,0.06282918155193329,-0.12618330121040344,-0.15129615366458893,-0.027763638645410538,0.1544378697872162,-0.004036168102174997,-0.10322939604520798,0.12617650628089905,-0.10991290211677551,0.0530659519135952,0.09051313251256943,-0.11101512610912323,-0.13411396741867065,-0.07897104322910309,-0.037892431020736694,0.039913199841976166,0.04218254238367081,0.20454540848731995,0.2109667807817459,0.3026462197303772,-0.08714514970779419,-0.0431644506752491,-0.20708397030830383,-0.26185792684555054,-0.12811951339244843,-0.19287414848804474,0.22894541919231415,0.07845381647348404,0.11073706299066544,0.06436363607645035,-0.013160442002117634,-0.11634256690740585,0.101408950984478,-0.2062792032957077,-0.11141478270292282,-0.020796354860067368,0.04257125034928322,-0.02527458220720291,0.09469674527645111,0.18680666387081146,-0.03842615336179733,-0.007174917031079531,-0.06231914088129997,0.02322249673306942,0.053052984178066254,0.11927568167448044,-0.14430101215839386,0.04070127755403519,0.0068986015394330025,-0.39581725001335144,0.14122509956359863,-0.05577490106225014,-0.05727403610944748,0.15057271718978882,-0.0005453091580420732,-0.2557843029499054,0.1584511548280716,0.019593222066760063,0.0010834167478606105,0.1265294998884201,0.005124726332724094,0.027273613959550858,-0.05363241955637932,-0.012580633163452148,-0.16345039010047913,-0.1806357353925705,0.08428250998258591,0.009079115465283394,0.1058502197265625,-0.29775992035865784,-0.3182380795478821,-0.3026019036769867,-0.3327849805355072,-0.1303219199180603,0.15406392514705658,0.02397867664694786,-0.05375664681196213,-0.014472533017396927,-0.23594975471496582,0.12623657286167145,-0.062073029577732086,-0.0721423327922821,0.4549974501132965,-0.12585227191448212,-0.20481230318546295,0.2036389708518982,0.055312130600214005,0.3178746998310089,0.15994682908058167,0.10483074933290482,0.2570231854915619,-0.0885959342122078,-0.10469520092010498,-0.1996183842420578,0.023023057729005814,0.0060838935896754265,0.01043722778558731,-0.3510216474533081,-0.04493360593914986,-0.09854109585285187,0.2630794048309326,0.12795117497444153,-0.15935926139354706,-0.11251740157604218,-0.018385950475931168,-0.16284778714179993,0.44894492626190186,-0.22775305807590485,0.14061038196086884,0.20331037044525146,0.002828088356181979,-0.10586725175380707,0.2270335555076599,0.031397733837366104,-0.21854598820209503,-0.1890190839767456,-0.0288701131939888,0.2357996106147766,0.07416275143623352,-0.07831208407878876,0.04903748631477356,-0.0707852691411972,-0.10321018099784851,-0.25971725583076477,-0.2888506352901459,-0.03735287860035896,0.023178210482001305,0.07624313980340958,0.02247377298772335,0.1612565815448761,-0.03067728504538536,-0.21231277287006378,0.04327099770307541,-0.03299085050821304,-0.11134854704141617,0.1926908791065216,-0.019222455099225044,0.20828711986541748,-0.26718083024024963,0.08860915899276733,0.09087184071540833,0.253679484128952,0.17458316683769226,-0.09512431919574738,0.07480362802743912,0.45123615860939026,-0.1454620510339737,0.18048955500125885,-0.08800537884235382,-0.22002443671226501,-0.12461116909980774,0.3008257746696472,-0.06034389138221741,0.22455964982509613,-0.039832957088947296,0.12393894046545029,0.2605169117450714,0.30893370509147644,-0.3566213846206665,0.21637378633022308,0.2166893482208252,0.3914310932159424,0.020315581932663918,0.09796369075775146,0.331622838973999,0.21172018349170685,0.40131738781929016,-0.05848297104239464,0.017110850661993027,-0.04759645462036133,-0.0789770856499672,-0.01443500630557537,-0.2490987926721573,-0.024875391274690628,0.11035281419754028,0.13830527663230896,-0.028899457305669785,0.051881883293390274,0.20497019588947296,0.09575877338647842,-0.11765997111797333,-0.02486097626388073,0.07768397033214569,-0.06844679266214371,-0.058734167367219925,-0.004893473349511623,-0.05343123525381088,0.00540191400796175,-0.032506879419088364,-0.006123346742242575,0.24783051013946533,0.01937847211956978,0.045402899384498596,-0.14719557762145996,-0.1221647635102272,-0.026871291920542717,0.07548893988132477,0.09710676968097687,0.09458470344543457,0.256330281496048,-0.1430814266204834,0.16653311252593994,0.2889214754104614,-0.13849294185638428,-0.047717612236738205,0.05564441531896591,0.25018107891082764,0.13647586107254028,0.07339958846569061,-0.0745370015501976,-0.04301008954644203,0.07121803611516953,-0.2288820445537567,0.12266198545694351,0.241143137216568,0.4273586869239807,-0.11364112049341202,-0.17803137004375458,0.030024051666259766,