{"version": "0.5.1", "metadata": {"date": {"year": 2023, "month": 6, "day": 8, "hour": 21, "minute": 32, "second": 2}, "loudness": -12.1140718460083, "gain": 0.8524144229380627, "name": null, "modeled_by": null, "gear_type": null, "gear_make": null, "gear_model": null, "tone_type": null}, "architecture": "WaveNet", "config": {"layers": [{"input_size": 1, "condition_size": 1, "head_size": 8, "channels": 16, "kernel_size": 3, "dilations": [1, 2, 4, 8, 16, 32, 64, 128, 256, 512], "activation": "Tanh", "gated": false, "head_bias": false}, {"input_size": 16, "condition_size": 1, "head_size": 1, "channels": 8, "kernel_size": 3, "dilations": [1, 2, 4, 8, 16, 32, 64, 128, 256, 512], "activation": "Tanh", "gated": false, "head_bias": true}], "head": null, "head_scale": 0.02}, "weights": [-0.06555698066949844, 0.6968346834182739, -1.0103148221969604, -0.8875455856323242, -0.2636450231075287, 0.1648443341255188, -0.1450985223054886, 0.7941065430641174, -0.2825828492641449, 0.4737100899219513, -0.4865724742412567, -0.3986054062843323, -1.051019549369812, -0.808911144733429, -0.7187542915344238, 0.26829004287719727, -0.0041295005939900875, -0.010348894633352757, -0.19384460151195526, -0.1894713193178177, -0.08366818726062775, 0.1070413887500763, 0.10596442967653275, 0.25069674849510193, -0.006422339007258415, 0.1503041833639145, 0.2737807035446167, -0.11563172191381454, 0.046443644911050797, 0.1069764643907547, -0.03322158753871918, 0.007452622056007385, -0.21590888500213623, -0.06582415103912354, -0.034091319888830185, -0.0722116008400917, -0.15417657792568207, -0.01507592387497425, -0.0820402279496193, 0.04855801910161972, 0.12597143650054932, 0.05239269137382507, 0.021303554996848106, -0.2603864073753357, -0.23787765204906464, -0.08224453032016754, 0.2153761386871338, 0.21514707803726196, -0.06050287187099457, 0.11465877294540405, 0.22278395295143127, 0.14836180210113525, 0.19278691709041595, 0.16237401962280273, 0.1145956888794899, 0.049180768430233, 0.16863499581813812, -0.09547560662031174, 0.027154618874192238, 0.06173821911215782, 0.07605422288179398, -0.07915696501731873, -0.22985856235027313, 0.03515130281448364, -0.074525386095047, -0.0034498400054872036, 0.0758519172668457, 0.7468116879463196, 0.17572735249996185, -0.02955370396375656, -0.8107656836509705, -0.127713143825531, 0.23447969555854797, -0.5813678503036499, 0.046516597270965576, 0.3008735179901123, -0.6384748220443726, -0.19733279943466187, 0.18204864859580994, 0.569351315498352, -0.05558113381266594, -0.027363773435354233, -0.5595718622207642, -0.22484393417835236, 0.1574859321117401, 0.6664348244667053, 0.049723219126462936, -0.24182072281837463, -0.6739774346351624, -0.18385063111782074, 0.20900502800941467, 0.7920296788215637, 0.1934598833322525, -0.11084108799695969, -0.8539461493492126, -0.17841069400310516, 0.24163088202476501, -0.697496235370636, -0.2102702409029007, 0.07555355876684189, -0.5638004541397095, 0.019519856199622154, 0.1102033331990242, -0.7366210222244263, -0.2162373661994934, 0.17010444402694702, -0.8293924331665039, -0.19954122602939606, 0.16011664271354675, 0.6810160875320435, -0.020449452102184296, -0.10745114833116531, -0.030386988073587418, 0.07227965444326401, -0.015894129872322083, -0.2428847998380661, 0.18315504491329193, 0.07449096441268921, 0.13521112501621246, -0.18076454102993011, -0.008780454285442829, 0.125492125749588, -0.2857728898525238, 0.005133870989084244, -0.01718599908053875, -0.2808604836463928, -0.07900769263505936, -0.18678392469882965, 0.13553567230701447, -0.08049663156270981, 0.10338849574327469, -0.14860211312770844, -0.1230873093008995, -0.1233440712094307, 0.3126769959926605, 0.04384297505021095, 0.15531796216964722, -0.19647309184074402, 0.0035584871657192707, -0.0383259542286396, 0.34444597363471985, 0.14378446340560913, 0.2650473713874817, -0.2102092206478119, -0.1772530972957611, 0.06479834020137787, -0.11418503522872925, -0.04892060160636902, 0.04401298612356186, -0.3253800570964813, -0.19985778629779816, -0.002963484264910221, -0.24058321118354797, 0.02066543884575367, 0.20178672671318054, -0.35584646463394165, 0.029741406440734863, -0.24521015584468842, 0.1345360428094864, -0.08840335160493851, -0.07925207912921906, -0.08827734738588333, -0.15013054013252258, -0.14485275745391846, -0.2060467153787613, 0.05887656658887863, -0.03868522495031357, 0.24028795957565308, -0.18126168847084045, 0.01841057650744915, 0.31580886244773865, -0.10827236622571945, 0.16017328202724457, 0.23712807893753052, -0.18046356737613678, 0.07582966983318329, -0.17867232859134674, 0.005960162729024887, 0.054824892431497574, -0.04033876955509186, -0.16636517643928528, -0.06078728660941124, -0.08595434576272964, 0.08780577033758163, 0.06845321506261826, 0.21184904873371124, -0.12660658359527588, -0.045627232640981674, -0.29732486605644226, 0.1443478912115097, 0.12502728402614594, 0.26635122299194336, -0.17611828446388245, 0.017313946038484573, 0.07394286245107651, -0.15772508084774017, -0.056535206735134125, 0.2369050681591034, -0.135779470205307, 0.02100108005106449, 0.18946312367916107, 0.03653067350387573, -0.09031706303358078, 0.08302100747823715, -0.14719770848751068, 0.09909665584564209, -0.20590242743492126, 0.2360890954732895, -0.17155595123767853, -0.11842312663793564, -0.31646907329559326, 0.11319847404956818, 0.03390120714902878, -0.19623637199401855, -0.14161381125450134, 0.005652747116982937, 0.05248497053980827, -0.2147514969110489, 0.10414732992649078, 0.05221981555223465, -0.14534181356430054, 0.1264425367116928, 0.21972665190696716, 0.14690633118152618, -0.09630833566188812, -0.08579107373952866, -0.25195059180259705, -0.07574895769357681, 0.09815133363008499, 0.11764207482337952, 0.014314431697130203, -0.04758759215474129, -0.13089211285114288, 0.10635992884635925, 0.25385597348213196, 0.052681777626276016, 0.08102468401193619, -0.26968100666999817, -0.20747382938861847, 0.02316775731742382, 0.2110375016927719, -0.03298244625329971, -0.06506652384996414, 0.17050231993198395, -0.06685660779476166, -0.1532866507768631, 0.26930975914001465, -0.2584582567214966, -0.010906172916293144, 0.14366066455841064, -0.21780794858932495, 0.004024009220302105, 0.2858918309211731, 0.07035144418478012, -0.09650619328022003, -0.2365545928478241, -0.06168101727962494, 0.15200504660606384, -0.08802257478237152, -0.14209577441215515, 0.016570940613746643, 0.08262580633163452, 0.11213043332099915, 0.007533582393079996, 0.04848609119653702, -0.011112754233181477, -0.145756796002388, 0.0390411801636219, 0.15759502351284027, -0.060245852917432785, -0.06417518109083176, -0.11804819107055664, -0.06054406985640526, -0.0013355365954339504, 0.03037930466234684, -0.12927237153053284, 0.24152962863445282, -0.12858247756958008, 0.08744790405035019, 0.04406306892633438, 0.08044856041669846, -0.1612512320280075, -0.0659940242767334, 0.06250590831041336, 0.11481088399887085, 0.10553381592035294, 0.00345524656586349, -0.04178197309374809, -0.012183777056634426, 0.05475784093141556, -0.17587870359420776, 0.0772106871008873, 0.08259812742471695, -0.10679582506418228, -0.036593955010175705, -0.04891848564147949, -0.0006077776779420674, -0.1045178472995758, 0.10674324631690979, -0.1462654024362564, -0.061680663377046585, -0.03682978078722954, -0.020236730575561523, -0.055375680327415466, 0.10054700821638107, -0.03755274787545204, -0.21657758951187134, -0.07420869916677475, 0.03537876904010773, 0.3232576549053192, 0.012091266922652721, 0.0050317225977778435, -0.2862689793109894, 0.0798235610127449, 0.08066676557064056, -0.23543402552604675, 0.06178121641278267, 0.041246771812438965, -0.23117545247077942, -0.1250561773777008, -0.03819228336215019, 0.2909180521965027, 0.04324086010456085, 0.07829952239990234, -0.18472211062908173, -0.0030894079245626926, 0.05270196497440338, 0.3429771661758423, 0.2325499951839447, -0.013814413920044899, -0.4280380308628082, -0.26866552233695984, 0.11004718393087387, 0.4188494384288788, 0.040672797709703445, 0.0937981978058815, -0.21696914732456207, 0.2902969717979431, 0.1531665176153183, -0.21493545174598694, 0.09886713325977325, -0.02413565292954445, -0.21568481624126434, 0.21461693942546844, -0.05879185348749161, -0.19993385672569275, 0.20685182511806488, 0.10220064222812653, -0.43126851320266724, -0.11514610052108765, -0.13231304287910461, 0.3824056386947632, -0.08849181234836578, -0.07041338831186295, -0.06108354032039642, 0.002636620542034507, 0.22988732159137726, -0.028726724907755852, -0.04810089245438576, -0.246860533952713, -0.0019666492007672787, -0.09291756898164749, -0.4001791775226593, 0.20574747025966644, 0.12494723498821259, -0.1376844346523285, 0.20795303583145142, -0.1738923341035843, 0.16587825119495392, -0.1142638549208641, 0.048636049032211304, -0.07496852427721024, 0.08692014962434769, -0.11642496287822723, 0.1446479856967926, -0.17071561515331268, 0.19637805223464966, -0.14527277648448944, 0.233241468667984, 0.0501641146838665, 0.405939519405365, -0.14488931000232697, 0.1284639686346054, -0.13863152265548706, 0.16074296832084656, 0.2134695202112198, -0.1980619877576828, 0.20947250723838806, -0.00031780675635673106, -0.21381402015686035, 0.10791152715682983, 0.019186003133654594, -0.3602091073989868, 0.017123859375715256, -0.05085986852645874, -0.18310627341270447, 0.20744262635707855, -0.11082576215267181, 0.15431909263134003, -0.0534246452152729, 0.16391465067863464, 0.1214890331029892, -0.018816160038113594, 0.16522987186908722, 0.23058801889419556, -0.02071855030953884, 0.09884168207645416, -0.06514201313257217, -0.1433795690536499, 0.042832303792238235, -0.2574760615825653, -0.1138974279165268, 0.08379857987165451, -0.1674942821264267, -0.19045840203762054, -0.026371551677584648, 0.11016304790973663, 0.032750796526670456, 0.02381705492734909, 0.0205939132720232, 0.0032473746687173843, -0.048923760652542114, 0.18264980614185333, 0.15978533029556274, 0.06286194175481796, -0.27771154046058655, -0.07691007107496262, -0.08061560243368149, 0.10324795544147491, 0.12881702184677124, -0.12946349382400513, -0.10794545710086823, 0.048944078385829926, -0.012635940685868263, -0.25961872935295105, -0.12409134954214096, -0.007663760334253311, -0.28553810715675354, -0.019722450524568558, -0.16796039044857025, -0.3119790554046631, -0.2279137521982193, -0.05893321707844734, -0.071326844394207, -0.2181314378976822, 0.14906665682792664, 0.09716462343931198, 0.08216721564531326, 0.07838521897792816, -0.041220083832740784, 0.16328631341457367, 0.11730819940567017, 0.3117799460887909, 0.08945348113775253, -0.14517846703529358, -0.05310267210006714, -0.0127793587744236, 0.018897395581007004, -0.29144343733787537, -0.06421506404876709, -0.1933118849992752, -0.23165363073349, 0.007179953623563051, -0.08223606646060944, 0.1951068639755249, 0.07012853026390076, 0.06677722185850143, -0.1520085334777832, 0.010492460802197456, 0.00843130424618721, 0.24023199081420898, 0.1659669578075409, 0.06671633571386337, -0.15776030719280243, 0.07291422039270401, -0.1057267114520073, 0.03913889825344086, 0.07365316152572632, -0.11609866470098495, -0.08659502118825912, -0.10111670196056366, -0.09848137199878693, -0.27765515446662903, 0.07715257257223129, -0.0646069198846817, -0.06361133605241776, 0.06741692125797272, 0.033131349831819534, -0.16698133945465088, -0.06177181005477905, -0.07075440883636475, -0.14881831407546997, 0.05909199267625809, -0.07056310772895813, 0.2674373686313629, -0.052738167345523834, -0.3665774464607239, -0.2590530514717102, -0.07139371335506439, 0.344237357378006, -0.3771129846572876, 0.21776190400123596, -0.14030708372592926, 0.3273017108440399, 0.005623070523142815, -0.2850552797317505, 0.2902997136116028, -0.05452270805835724, -0.23372334241867065, 0.2976949214935303, -0.14808733761310577, 0.2863856852054596, -0.2770864963531494, 0.06476670503616333, -0.21215833723545074, 0.26593801379203796, -0.20140637457370758, 0.21781381964683533, -0.16142486035823822, 0.09806472808122635, -0.18471740186214447, 0.19754165410995483, -0.08094462752342224, 0.11259852349758148, -0.3233529329299927, 0.049013521522283554, -0.0816156193614006, 0.2024841606616974, -0.12015683948993683, -0.29128849506378174, 0.38208433985710144, 0.014777113683521748, -0.3171374201774597, 0.12730567157268524, -0.22252990305423737, -0.21000328660011292, 0.20657388865947723, -0.2098863571882248, -0.27000054717063904, 0.26826635003089905, -0.19499239325523376, 0.2912746071815491, -0.24726605415344238, 0.08045615255832672, -0.06853578239679337, -0.01161883119493723, -0.05105537548661232, 0.030474631115794182, -0.0870376005768776, 0.09559506922960281, -0.1494065523147583, -0.10120458155870438, 0.19010408222675323, -0.11036737263202667, 0.06127622351050377, 0.028880834579467773, -0.06441032141447067, -0.012577594257891178, 0.11068855226039886, 0.030102483928203583, -0.16824352741241455, -0.10710477083921432, -0.05368020012974739, 0.13084016740322113, -0.03422071784734726, 0.15512724220752716, -0.06178489327430725, -0.06420426070690155, 0.06398914009332657, 0.08140388131141663, 0.1393147110939026, 0.11549535393714905, -0.06833098083734512, -0.12866434454917908, -0.03478231281042099, 0.14666375517845154, -0.014506240375339985, -0.1707964688539505, 0.08585454523563385, 0.16893164813518524, -0.057542458176612854, -0.08512408286333084, -0.08611367642879486, 0.015427224338054657, 0.02005971409380436, -0.03462701290845871, 0.005295705050230026, 0.08728181570768356, 0.15613427758216858, 0.13148774206638336, -0.02526552975177765, -0.12387211620807648, -0.05857766792178154, 0.15157826244831085, 0.11972610652446747, -0.09569824486970901, -0.19455371797084808, 0.18930570781230927, 0.29060202836990356, 0.19780510663986206, -0.18039919435977936, 0.10163013637065887, -0.02981090545654297, 0.07938730716705322, 0.09877511858940125, 0.013500351458787918, 0.03491242229938507, -0.22532090544700623, -0.1526121199131012, 0.0309730377048254, 0.11380478739738464, -0.07288993149995804, 0.04194467514753342, -0.22107170522212982, -0.021369779482483864, 0.17811980843544006, 0.23326125741004944, 0.09460069239139557, 0.0754595547914505, -0.13973161578178406, -0.13822109997272491, 0.1872727870941162, 0.19317568838596344, -0.06667161732912064, -0.0923285111784935, 0.06018507480621338, 0.19638192653656006, -0.07673081755638123, 0.025267893448472023, 0.06086603179574013, 0.034966692328453064, 0.19436012208461761, 0.11646012216806412, -0.041490934789180756, 0.2085631936788559, 0.030978398397564888, -0.11557132005691528, -0.26867443323135376, -0.16236908733844757, 0.11156121641397476, -0.16741161048412323, -0.035403285175561905, 0.04960393160581589, 0.05449836328625679, -0.21474571526050568, 0.11751503497362137, -0.12258635461330414, 0.2422921061515808, -0.09059569239616394, -0.07366383820772171, 0.20298431813716888, -0.03460327163338661, 0.08368674665689468, 0.020606625825166702, -0.10308955609798431, -0.01703154481947422, -0.07724735140800476, 0.13330678641796112, -0.15858688950538635, 0.10809769481420517, -0.09453509747982025, 0.005358442198485136, -0.018877778202295303, -0.13715219497680664, -0.05385024845600128, 0.22824238240718842, -0.034959498792886734, 0.1622169017791748, -0.15862540900707245, 0.10516753792762756, -0.1909797191619873, 0.08748108148574829, -0.01891813799738884, -0.009010851383209229, 0.16547013819217682, 0.1099500060081482, -0.05974587798118591, 0.1195300966501236, 0.12476590275764465, -0.07968892902135849, 0.24821755290031433, -0.07542779296636581, -0.0633036196231842, 0.10938532650470734, 0.07762283831834793, 0.1538444459438324, -0.12191610783338547, -0.09210284799337387, -0.08467274904251099, -0.22354039549827576, -0.017203491181135178, -0.07290025800466537, 0.4015704095363617, -0.11152077466249466, -0.009166854433715343, -0.44742491841316223, 0.3444659411907196, -0.13033899664878845, -0.28000643849372864, 0.2621902823448181, -0.08204498887062073, -0.24044765532016754, 0.11255576461553574, 0.045707955956459045, 0.19408364593982697, -0.24867847561836243, 0.04350185766816139, -0.14605869352817535, 0.1736481934785843, 0.11513101309537888, 0.29262349009513855, -0.3071073591709137, -0.12448853254318237, -0.4324207901954651, 0.40346238017082214, -0.02158352918922901, 0.31564950942993164, -0.21406400203704834, 0.0871201902627945, -0.18159092962741852, 0.3703401982784271, -0.11269168555736542, -0.3217327296733856, 0.18045978248119354, -0.1034790575504303, -0.278031587600708, 0.3757416605949402, -0.13322816789150238, -0.22083857655525208, 0.1704389899969101, -0.04315703362226486, -0.19499538838863373, 0.2212911993265152, -0.016993066295981407, 0.15630172193050385, -0.16795164346694946, -0.005680951755493879, 0.031109584495425224, 0.18000377714633942, -0.20482008159160614, -0.5461430549621582, 0.24307431280612946, 0.22315536439418793, 0.39060497283935547, -0.16436146199703217, 0.2308652251958847, 0.5256638526916504, -0.30810341238975525, 0.07179274410009384, 0.34796398878097534, -0.35291123390197754, -0.08876054733991623, -0.27809348702430725, 0.35321614146232605, 0.06610783189535141, 0.4003407657146454, -0.3322009742259979, 0.001543316524475813, -0.48700398206710815, 0.1300598829984665, 0.0978742241859436, 0.4967947006225586, -0.3971463441848755, 0.03508440777659416, -0.3720017969608307, 0.1446739137172699, 0.05898953229188919, 0.5387352705001831, -0.36232873797416687, 0.045604925602674484, 0.4685218930244446, -0.384879469871521, 0.18652409315109253, 0.5057055950164795, -0.14115749299526215, 0.009358692914247513, 0.5676589608192444, -0.3239038288593292, 0.24469876289367676, 0.29268693923950195, -0.37265685200691223, 0.0029567573219537735, -0.38478583097457886, 0.3144175708293915, -0.09158385545015335, -0.3820127546787262, -0.20596528053283691, -0.11443042010068893, 0.057910967618227005, 0.03533725067973137, -0.41753315925598145, -0.0076454635709524155, 0.2666511535644531, 0.1794794797897339, 0.04301178827881813, -0.028719693422317505, -0.008620025590062141, -0.07561174780130386, -0.29406309127807617, 0.43654030561447144, 0.4173705279827118, -0.6078580021858215, 0.8708689212799072, -0.6666045784950256, -0.1681307554244995, 0.9190945029258728, 1.333400011062622, -0.6600958704948425, 0.2815852761268616, 0.15502649545669556, -0.3569331467151642, -0.39355751872062683, 0.3301292657852173, -0.7338679432868958, -0.06987859308719635, 0.6543271541595459, 0.035369884222745895, 0.40591341257095337, -0.08461343497037888, 0.30643588304519653, 0.27951446175575256, -0.17552132904529572, 0.1787084937095642, -0.25426846742630005, -0.22826890647411346, -0.15991240739822388, 0.5386317372322083, 0.20762835443019867, -0.045088477432727814, 0.16922926902770996, 0.08776136487722397, -0.02614675834774971, -0.14560209214687347, -0.18041585385799408, -0.24611017107963562, -0.017302272841334343, 0.03542514890432358, -0.023389091715216637, -0.20425379276275635, 0.20580412447452545, 0.06119783595204353, 0.22334592044353485, -0.06846743077039719, -0.01591138355433941, -0.08331572264432907, -0.14322388172149658, 0.12208368629217148, 0.1903034895658493, 0.025514915585517883, 0.1533285230398178, -0.08682535588741302, 0.13541081547737122, -0.027715396136045456, -0.1823301762342453, -0.012376724742352962, -0.0686306580901146, -0.0816972553730011, -0.1763126403093338, -0.12445925921201706, -0.18532012403011322, -0.03922703489661217, 0.2824344038963318, 0.08392222225666046, 0.1177455484867096, 0.06956896185874939, -0.019451476633548737, -0.1757584512233734, -0.21762986481189728, -0.08713403344154358, -0.06776327639818192, -0.17462918162345886, 0.10104762762784958, -0.24433252215385437, -0.06111854687333107, -0.15584790706634521, 0.023376381024718285, 0.03454066067934036, 0.24145931005477905, -0.31368282437324524, 0.3034970164299011, -0.22548827528953552, -0.47646063566207886, -0.20627127587795258, 0.05969734489917755, 0.12729932367801666, 0.17617559432983398, 0.04917300492525101, 0.0007423402275890112, 0.1581241637468338, 0.3269979953765869, -0.2015666961669922, 0.20602275431156158, -0.05110650882124901, 0.06416060030460358, -0.08803391456604004, 0.21927623450756073, -0.0853850468993187, -0.09138449281454086, -0.04683734476566315, 0.19282710552215576, 0.4600653052330017, 0.08124741166830063, 0.15075385570526123, 0.07860914617776871, 0.10254274308681488, -0.08985942602157593, 0.23140959441661835, 0.10089719295501709, -0.21250994503498077, 0.01800244115293026, 0.09942954033613205, -0.014404302462935448, 0.21537278592586517, 0.26080557703971863, 0.19955234229564667, 0.2837529182434082, -0.2961912453174591, -0.2498159259557724, 0.18383407592773438, -0.025468267500400543, -0.07347574084997177, -0.4187465310096741, -0.30275240540504456, 0.09805994480848312, 0.31441107392311096, -0.07890499383211136, 0.07090113312005997, -0.18828991055488586, 0.4258086085319519, 0.01666814461350441, 0.27712324261665344, -0.005306219682097435, -0.3401864171028137, 0.0942632332444191, 0.29609429836273193, -0.06199045851826668, 0.002025855705142021, -0.3534508943557739, -0.003127772593870759, -0.1894221007823944, 0.17779375612735748, -0.03128966689109802, -0.19561409950256348, 0.035972289741039276, -0.12803642451763153, 0.030070630833506584, -0.3503580689430237, -0.24254994094371796, 0.15331938862800598, -0.1933741271495819, -0.2613074779510498, -0.09835552424192429, -0.31373804807662964, -0.3121039569377899, -0.010994167998433113, 0.027457140386104584, -0.0556526780128479, -0.06049421429634094, -0.09538927674293518, 0.2478579431772232, -0.191976398229599, -0.0052722664549946785, 0.20372124016284943, -0.22848059237003326, -0.3059143126010895, 0.11854270100593567, 0.19281665980815887, -0.3305331766605377, 0.14370621740818024, 0.20643895864486694, 0.3910687267780304, 0.04006658121943474, 0.2052685171365738, 0.1132441982626915, -0.1504545658826828, -0.012932224199175835, 0.11022929102182388, 0.31755951046943665, -0.3095259666442871, 0.11115416139364243, -0.16061782836914062, -0.20272214710712433, 0.021987583488225937, -0.03437858819961548, 0.02535109780728817, -0.18573975563049316, -0.25630056858062744, -0.09524782747030258, -0.030573183670639992, 0.12034929543733597, -0.0574602447450161, 0.37398719787597656, 0.12089306861162186, -0.10107623785734177, -0.23615340888500214, 0.057458456605672836, 0.16563689708709717, -0.34745606780052185, -0.4229942858219147, -0.3237704038619995, -0.1749519556760788, -0.35997456312179565, 0.25455108284950256, 0.022130217403173447, -0.23650339245796204, 0.3150864243507385, -0.5569924712181091, 0.37391507625579834, 0.013558304868638515, 0.15026874840259552, 0.03244491666555405, 0.022580228745937347, 0.164412721991539, -0.19804956018924713, 0.008626765571534634, 0.08039665222167969, 0.22500520944595337, 0.013371004723012447, -0.23971065878868103, 0.04335464537143707, 0.029093343764543533, -0.16189661622047424, -0.06110288202762604, 0.10532558709383011, 0.05994030833244324, -0.11854610592126846, -0.276886522769928, 0.10676557570695877, -0.07457520067691803, 0.008517652750015259, 0.05925295874476433, 0.061921942979097366, -0.08403460681438446, -0.19257526099681854, -0.01934932731091976, 0.08083250373601913, -0.18555468320846558, 0.0432962104678154, -0.275064617395401, 0.4371040165424347, 0.03389600291848183, 0.3749612271785736, -0.06721150130033493, 0.03335914760828018, 0.1796688288450241, -0.07364551723003387, 0.2622467875480652, 0.2333453744649887, -0.4342059791088104, 0.012558299116790295, -0.04308559000492096, 0.09152170270681381, 0.049112435430288315, 0.3022654056549072, -0.21415257453918457, 0.11478374898433685, 0.16057012975215912, 0.06743165850639343, 0.18427163362503052, -0.09301360696554184, -0.19430626928806305, 0.2659130096435547, 0.13775630295276642, 0.06854646652936935, -0.07462431490421295, -0.08704692125320435, 0.2475341260433197, -0.1472737044095993, 0.06133706122636795, 0.15637584030628204, 0.12283795326948166, -0.1884838491678238, 0.3434431850910187, -0.2645654082298279, 0.3588872253894806, -0.28390517830848694, -0.306456595659256, 0.08172661811113358, 0.28181931376457214, 0.1406259536743164, 0.08889283984899521, -0.3120459020137787, 0.08007656037807465, -0.013528547249734402, 0.15555831789970398, -0.0021542259491980076, 0.22683905065059662, 0.14948832988739014, 0.1246587336063385, -0.27479153871536255, -0.39831769466400146, 0.20975276827812195, 0.21454434096813202, 0.3563162684440613, -0.14686515927314758, -0.07303952425718307, 0.11340513080358505, -0.24832352995872498, -0.04058114066720009, 0.10647202283143997, -0.15269283950328827, -0.09448166191577911, 0.24737662076950073, 0.3147311508655548, -0.08842922002077103, -0.03666301071643829, -0.030897382646799088, -0.15675002336502075, -0.01608785055577755, 0.12303652614355087, -0.06739670783281326, -0.17160575091838837, -0.18699610233306885, 0.004421286750584841, -0.021545561030507088, 0.0026203026063740253, 0.08691815286874771, -0.07753179222345352, -0.1811075508594513, -0.06415043771266937, 0.2062535285949707, -0.17737160623073578, -0.05996841564774513, 0.2736858129501343, -0.24665425717830658, 0.006000520661473274, -0.10993514209985733, -0.18419243395328522, 0.025360632687807083, 0.05555962026119232, -0.15041227638721466, -0.14750078320503235, -0.17499896883964539, 0.20628204941749573, -0.05022932589054108, -0.23281557857990265, 0.2107488512992859, 0.0060099889524281025, -0.0928744524717331, -0.2502962350845337, -0.05629221349954605, 0.15022769570350647, -0.12062990665435791, 0.0015311239985749125, 0.3779127597808838, -0.2581294775009155, 0.06056753918528557, 0.16476550698280334, -0.09116443246603012, -0.16831213235855103, 0.3488306701183319, -0.04104011505842209, -0.05277508869767189, -0.134918674826622, 0.29056546092033386, -0.05783630162477493, -0.28331467509269714, 0.22811825573444366, 0.019145788624882698, 0.004580749198794365, -0.295943945646286, -0.04561181366443634, 0.1581738293170929, 0.17851881682872772, 0.04058413580060005, -0.20198744535446167, -0.14785511791706085, 0.010202783159911633, 0.3792678713798523, -0.3147437870502472, -0.03363621234893799, 0.5180379748344421, -0.11615992337465286, 0.047001954168081284, 0.1764952689409256, -0.11835936456918716, 0.0395495668053627, 0.3172268569469452, 0.0756061002612114, -0.10622279345989227, 0.0010588949080556631, 0.14543287456035614, 0.16652804613113403, -0.3024556636810303, -0.22627633810043335, -0.0036757509224116802, 0.08965232968330383, 0.18299639225006104, 0.3032413125038147, 0.04057522490620613, -0.06858818233013153, 0.006025286391377449, -0.10263020545244217, 0.16126354038715363, 0.009508014656603336, -0.21293509006500244, 0.22077980637550354, 0.022095633670687675, 0.05674842372536659, -0.018982354551553726, 0.02580178715288639, 0.2924022078514099, -0.16167619824409485, -0.35769668221473694, -0.11642300337553024, 0.05944308266043663, -0.0771360844373703, 0.24227789044380188, 0.026568317785859108, -0.037456948310136795, -0.13062144815921783, -0.047731753438711166, 0.07208716124296188, -0.03425747528672218, -0.09718970209360123, -0.11252042651176453, -0.08771930634975433, 0.22256885468959808, 0.032927483320236206, 0.0633348897099495, 0.1471928507089615, 0.05763780698180199, -0.20822341740131378, 0.053898077458143234, 0.002131540095433593, -0.02300768345594406, -0.3407641351222992, -0.03934791684150696, -0.2265784740447998, -0.13651013374328613, 0.05617842823266983, 0.22035562992095947, 0.031248196959495544, -0.30805379152297974, -0.07270163297653198, -0.15462560951709747, -0.04941228777170181, 0.07015060633420944, 0.24399977922439575, -0.22506719827651978, -0.27775096893310547, 0.3032658100128174, 0.024848975241184235, -0.19810321927070618, 0.07350079715251923, -0.1568979024887085, -0.16350401937961578, -0.2372562736272812, 0.10336877405643463, -0.008907458744943142, 0.34352827072143555, 0.28585952520370483, 0.17259348928928375, -0.259533554315567, 0.17988130450248718, 0.20616920292377472, 0.32816052436828613, -0.25174131989479065, -0.022414928302168846, -0.05637933686375618, -0.03522419556975365, 0.12219972908496857, 0.3659389317035675, -0.2514214515686035, -0.07595925033092499, 0.28611668944358826, -0.0607721172273159, -0.022153204306960106, 0.16163504123687744, -0.032838236540555954, -0.23107601702213287, 0.3036428689956665, -0.23544172942638397, -0.2160802185535431, 0.4134416878223419, -0.06513966619968414, 0.1429680436849594, -0.14084769785404205, 0.23097847402095795, 0.18932636082172394, -0.27828118205070496, -0.09754262119531631, 0.17088814079761505, 0.10087128728628159, 0.3632950186729431, 0.016616882756352425, -0.13126419484615326, 0.039520468562841415, -0.198527529835701, -0.13193237781524658, 0.08262737095355988, -0.026939725503325462, -0.046524256467819214, -0.02488372102379799, -0.2292630821466446, -0.17706021666526794, -0.10912543535232544, 0.05730830505490303, -0.08022873103618622, -0.32815301418304443, 0.09015817940235138, -0.0926567018032074, -0.05900361388921738, 0.13197456300258636, 0.10654012113809586, 0.10532379150390625, -0.1559727042913437, -0.10732477903366089, -0.16298078000545502, 0.046100642532110214, 0.06882930546998978, -0.10934384167194366, -0.2617119252681732, -0.03507668897509575, 0.11972090601921082, -0.017543409019708633, -0.06234433874487877, -0.050776638090610504, -0.04054352268576622, -0.007335681468248367, -0.03466296195983887, -0.10281747579574585, -0.31967297196388245, -0.39680078625679016, -0.3757663369178772, 0.11283056437969208, -0.006586732342839241, 0.09958124160766602, -0.6493505835533142, -0.37011900544166565, 0.30009764432907104, 0.14394155144691467, 0.35881897807121277, -0.0681178942322731, -0.2262272983789444, -0.24550513923168182, -0.013391257263720036, 0.015248335897922516, 0.03909270837903023, 0.1129928007721901, 0.15160666406154633, 0.1798630952835083, 0.028383919969201088, -0.0004238767141941935, 0.017975687980651855, 0.31123214960098267, -0.29122409224510193, -0.428452730178833, 0.11906470358371735, 0.2082304209470749, -0.09894392639398575, 0.15939535200595856, 0.14432227611541748, 0.09452936053276062, 0.012092026881873608, 0.2601858973503113, 0.025765933096408844, -0.15889674425125122, -0.025886209681630135, -0.20224592089653015, -0.04936463013291359, 0.25594717264175415, -0.14337173104286194, 0.08023765683174133, -0.008344623260200024, -0.0036505633033812046, 0.024999110028147697, -0.05001760646700859, -0.1985062062740326, 0.08064719289541245, -0.6070178151130676, -0.29899924993515015, 0.059053294360637665, -0.15962457656860352, -0.05414881184697151, 0.01501688826829195, 0.11668451875448227, -0.4696185886859894, 0.12502431869506836, 0.18021751940250397, 0.4159221351146698, -0.0901365652680397, 0.2735825479030609, 0.23742087185382843, 0.217056006193161, 0.16751256585121155, 0.08058538287878036, -0.11020397394895554, -0.018104271963238716, 0.3513672649860382, -0.02877182699739933, 0.06999466568231583, -0.10077804327011108, 0.10389155894517899, -0.07514988631010056, -0.22887171804904938, 0.1085982695221901, -0.6961774826049805, -0.20063650608062744, -0.04935850948095322, 0.30960792303085327, 0.13429269194602966, -0.04533775523304939, -0.3471181392669678, -0.2645493745803833, -0.11171117424964905, 0.20772264897823334, 0.08915327489376068, 0.0444769524037838, 0.05830290541052818, 0.19100214540958405, -0.031780391931533813, 0.38880738615989685, 0.2609153687953949, 0.2213568538427353, 0.13294970989227295, 0.3077337443828583, -0.12479712814092636, -0.04470238834619522, -0.028561469167470932, -0.12998726963996887, -0.3256383538246155, -0.22782161831855774, -0.017216674983501434, 0.06578841805458069, 0.14273813366889954, -0.04899211972951889, -0.16404147446155548, -0.36881017684936523, -0.0618746355175972, 0.045486703515052795, 0.07978147268295288, 0.15303222835063934, -0.03484957292675972, -0.10579661279916763, -0.07849863171577454, -0.03371165692806244, -0.18159708380699158, -0.1641961932182312, 0.1314646303653717, 0.024910900741815567, -0.1352786123752594, 0.31916099786758423, 0.20721258223056793, 0.05171477422118187, 0.02766244485974312, 0.07983064651489258, -0.06239229440689087, 0.08681370317935944, -0.17540180683135986, 0.15340854227542877, -0.014554024673998356, 0.11332567036151886, -0.04412882402539253, 0.18533840775489807, -0.09998643398284912, 0.03512296825647354, 0.03160422667860985, -0.0413905568420887, 0.04412050545215607, -0.0626567006111145, -0.06658444553613663, -0.04218587279319763, -0.0422377809882164, 0.03473880887031555, -0.07544796913862228, 0.25245600938796997, 0.23475095629692078, 0.02886096201837063, -0.10538583248853683, 0.027024799957871437, -0.0936574786901474, 0.07633278518915176, 0.0055727483704686165, 0.0886429026722908, 0.0026894656475633383, 0.15211862325668335, -0.06659151613712311, -0.0008695551077835262, 0.027233144268393517, 0.0841660350561142, 0.044520217925310135, 0.10212040692567825, -0.06647989153862, 0.046169523149728775, 0.21579231321811676, 0.06777770072221756, -0.18065500259399414, -0.16293933987617493, 0.027034929022192955, -0.26545849442481995, -0.3398023843765259, 0.08121246099472046, -0.3173452913761139, -0.29946500062942505, 0.12432529777288437, 0.003210152732208371, 0.04224180430173874, 0.16322040557861328, 0.02829023450613022, 0.022053925320506096, -0.1832146942615509, -0.05879150331020355, -0.010552656836807728, -0.14765790104866028, -0.07189515233039856, 0.05920024961233139, 0.08503886312246323, -0.037116970866918564, 0.078465536236763, -0.13222680985927582, -0.12510913610458374, -0.03170643374323845, -0.14670701324939728, -0.25261420011520386, -0.32862627506256104, -0.08424323797225952, -0.12354477494955063, -0.24119853973388672, -0.1145138144493103, -0.025104636326432228, 0.387027770280838, -0.5099077820777893, -0.05489569902420044, 0.030035553500056267, 0.06292559951543808, -0.13464336097240448, 0.13231070339679718, -0.053232353180646896, -0.09070160984992981, 0.263770192861557, -0.06651786714792252, 0.051807597279548645, 0.017368748784065247, -0.03553926199674606, -0.14223970472812653, -0.1777787208557129, -0.0855565294623375, 0.012315868400037289, -0.06502818316221237, -0.14699745178222656, -0.22012488543987274, -0.22401517629623413, 0.12554165720939636, -0.11635589599609375, 0.24279269576072693, -0.1061508059501648, -0.10641906410455704, -0.2063317894935608, 0.13103698194026947, -0.1700097769498825, 0.25274983048439026, 0.05514016002416611, -0.15508614480495453, 0.03724176436662674, -0.09574532508850098, 0.0729917585849762, 0.12146256119012833, 0.04330401122570038, -0.25232720375061035, 0.08255089074373245, -0.0966622456908226, 0.08987130224704742, 0.341921865940094, 0.044912613928318024, 0.0988486111164093, -0.05901709944009781, 0.09868898242712021, 0.34763303399086, 0.12528729438781738, -0.20746394991874695, -0.15136341750621796, -0.0959121510386467, -0.2330636978149414, -0.022766275331377983, 0.06387650221586227, 0.3854200839996338, -0.2838982045650482, -0.13541166484355927, 0.09833245724439621, -0.18223752081394196, -0.0646686777472496, -0.09695077687501907, 0.23393423855304718, 0.2518717348575592, -0.20450401306152344, 0.023519715294241905, 0.13051855564117432, 0.018435804173350334, 0.10735421627759933, 0.23820406198501587, -0.40992435812950134, -0.15538159012794495, -0.06667579710483551, 0.4468678832054138, -0.009426762349903584, -0.12480974197387695, -0.33708831667900085, -0.02868659980595112, -0.11645427346229553, 0.05148212984204292, -0.18215976655483246, -0.10946327447891235, 0.06516553461551666, 0.05789552256464958, 0.09019388258457184, 0.6436662077903748, -0.04557144269347191, -0.06752464175224304, 0.18758326768875122, 0.2457587718963623, 0.08704525232315063, -0.10043177753686905, 0.09591532498598099, -0.09889364242553711, -0.2397104799747467, 0.1480662077665329, 0.2793184518814087, 0.39646098017692566, -0.1534341275691986, -0.13458169996738434, -0.6796092987060547, 0.07859349250793457, 0.35563889145851135, 0.013720456510782242, 0.08417465537786484, 0.15885275602340698, -0.16302870213985443, -0.02030043862760067, 0.09794256091117859, -0.5545597076416016, -0.11414424329996109, 0.048463840037584305, 0.060427743941545486, 0.09248299896717072, 0.02454572729766369, 0.6288499236106873, -0.05998166278004646, 0.17602355778217316, 0.18122448027133942, 0.23493856191635132, -0.007943396456539631, -0.2603614032268524, -0.37442445755004883, -0.03862997516989708, 0.02916717901825905, 0.03276694566011429, 0.30660802125930786, -0.290601521730423, -0.08058887720108032, 0.2138979285955429, -0.19317170977592468, 0.16480787098407745, -0.06273450702428818, 0.17271749675273895, 0.23438192903995514, 0.2789968252182007, -0.28912171721458435, 0.4051881432533264, 0.4788878560066223, 0.11042606830596924, -0.15670998394489288, -0.03385080769658089, 0.3751465678215027, -0.38950657844543457, -0.2277824729681015, 0.09839856624603271, 0.38571009039878845, 0.28262564539909363, -0.022416463121771812, 0.06164384260773659, -0.004732555244117975, -0.08585580438375473, 0.093545101583004, 0.07224692404270172, 0.014239689335227013, 0.2732454538345337, 0.047369036823511124, -0.1517789512872696, -0.20239655673503876, -0.16107933223247528, 0.235658198595047, -0.3111833930015564, -0.28950971364974976, 0.04451720416545868, -0.1815892457962036, -0.1714005321264267, -0.027536090463399887, -0.01976730488240719, 0.09876620024442673, 0.1756102591753006, -0.03637918457388878, 0.05212201178073883, -0.20010241866111755, 0.1449006199836731, 0.08784960210323334, 0.0246964730322361, 0.1336556226015091, -0.2036673128604889, -0.07108823210000992, -0.07718046009540558, -0.27202534675598145, 0.023564770817756653, -0.006742867641150951, -0.06994786858558655, -0.13286474347114563, -0.11652857810258865, -0.31410160660743713, 0.15445053577423096, -0.07031028717756271, 0.053067952394485474, -0.0034295357763767242, -0.21076840162277222, -0.06067311018705368, 0.3103291988372803, 0.06296899169683456, 0.23937326669692993, -0.09561171382665634, 0.024068908765912056, -0.14839491248130798, 0.10228875279426575, -0.06162844970822334, -0.024149972945451736, 0.07736801356077194, 0.07229505479335785, -0.02441878244280815, 0.2660275101661682, 0.10590746998786926, 0.12662415206432343, 0.25979098677635193, -0.08418761938810349, 0.06974539905786514, 0.22642891108989716, 0.4230174720287323, -0.16407862305641174, 0.3072899580001831, -0.046646054834127426, 0.032595377415418625, 0.09391101449728012, 0.1811407208442688, -0.19721394777297974, 0.10599370300769806, -0.07959582656621933, -0.08150836825370789, -0.08489032834768295, -0.023296916857361794, 0.03409900888800621, 0.0363234281539917, -0.24055539071559906, -0.038543350994586945, -0.1833096295595169, 0.09530704468488693, 0.021900782361626625, -0.0331491120159626, -0.22490918636322021, -0.27928978204727173, -0.04193328320980072, 0.0007023108191788197, -0.11267614364624023, 0.1552361398935318, -0.45230674743652344, 0.33481794595718384, -0.3969172537326813, -0.02711750753223896, 0.07313406467437744, -0.2443600445985794, -0.0029165928717702627, 0.33381184935569763, -0.14894837141036987, 0.0501672625541687, 0.13029003143310547, -0.12143046408891678, 0.10345983505249023, 0.1243748739361763, -0.16122929751873016, -0.004156072624027729, -0.43251320719718933, -0.06860284507274628, -0.013879605568945408, 0.35887619853019714, 0.22642546892166138, -0.09893974661827087, -0.20903871953487396, 0.03722154349088669, 0.09345445036888123, 0.15598294138908386, -0.2006605565547943, -0.25150567293167114, -0.34009718894958496, 0.2107734978199005, -0.019982637837529182, 0.4113212823867798, -0.08978602290153503, 0.11757837235927582, 0.3042326271533966, -0.17540033161640167, -0.005806855391710997, 0.08283672481775284, -0.12997697293758392, 0.014980919659137726, 0.17408855259418488, -0.20721663534641266, -0.23621578514575958, 0.42130401730537415, -0.45913535356521606, 0.2295306771993637, -0.18613703548908234, 0.27336999773979187, -0.37659385800361633, -0.07883024960756302, -0.054739173501729965, 0.3377282917499542, 0.30362337827682495, 0.011340251192450523, -0.07797753810882568, -0.047375425696372986, 0.03545594587922096, 0.11424226313829422, 0.12668171525001526, -0.046758659183979034, 0.05841238051652908, 0.08270169049501419, 0.1464584767818451, -0.1277177482843399, -0.15684272348880768, 0.1254916936159134, -0.21636059880256653, -0.10319196432828903, -0.19834765791893005, 0.036261338740587234, -0.3184974491596222, 0.006132121197879314, -0.15279527008533478, -0.002402538899332285, -0.04668789356946945, 0.0346849299967289, 0.11823602020740509, 0.17181013524532318, -0.04355979338288307, 0.024716230109333992, -0.11532276123762131, 0.0016852235421538353, 0.014307575300335884, 0.08007147908210754, -0.09164406359195709, -0.06108409911394119, -0.009837883524596691, 0.017996707931160927, 0.053795814514160156, -0.05456053465604782, -0.22467371821403503, -0.2724314033985138, 0.16413277387619019, 0.03510100767016411, 0.15678685903549194, 0.27205950021743774, 0.06202938035130501, 0.10181771963834763, 0.05561627447605133, 0.096338652074337, -0.037232279777526855, 0.06387787312269211, 0.31931835412979126, 0.20991477370262146, -0.10670126229524612, -0.14092211425304413, 0.2050211876630783, 0.16483648121356964, -0.01670348457992077, 0.05681932345032692, 0.05607686936855316, -0.1700279712677002, -0.5145359039306641, -0.23506709933280945, 0.8184302449226379, -0.4077753722667694, 0.5671899318695068, -0.660608172416687, -0.2747463881969452, -0.4447442889213562, 1.049829125404358, -0.9793969392776489, -1.3988687992095947, -0.8189905285835266, 0.20988111197948456, -0.5826095938682556, 0.4397256672382355, -0.664801299571991, 0.1186622902750969, 0.11075600236654282, -0.11872386187314987, -0.07569759339094162, 0.025645427405834198, -0.3057224452495575, -0.37889188528060913, 0.021855149418115616, -0.30190861225128174, 0.052766166627407074, 0.13803644478321075, -0.21382980048656464, -0.14087213575839996, -0.1408863067626953, -0.20941267907619476, -0.14334073662757874, 0.02084033191204071, -0.12403197586536407, 0.03305695578455925, 0.0748617947101593, -0.09283995628356934, 0.2494485080242157, -0.008438372053205967, -0.1663641780614853, 0.15547271072864532, -0.25845766067504883, 0.19109563529491425, 0.28374117612838745, 0.09334135800600052, 0.1312817484140396, 0.07313143461942673, 0.20216825604438782, -0.33488568663597107, -0.4464038014411926, 0.10889033228158951, 0.6163924932479858, 0.0450652576982975, 0.022456642240285873, -0.13271410763263702, 0.14542236924171448, 0.005749108735471964, -0.07575003802776337, -0.3287533223628998, -0.2979104220867157, 0.1880352646112442, -0.05852906033396721, 0.08271270990371704, -0.14604774117469788, -0.0028398027643561363, 0.03194311261177063, -0.10778162628412247, -0.016706861555576324, -0.09037993103265762, 0.07597103714942932, -0.11356561630964279, -0.07035990804433823, -0.1250179409980774, 0.19631345570087433, 0.1674988865852356, 0.2364618182182312, 0.18718984723091125, -0.1719146966934204, -0.012820608913898468, 0.10894601047039032, 0.2622372508049011, -0.000876564416103065, -0.08736839890480042, -0.11681503057479858, 0.21803820133209229, 7.06630598870106e-05, 0.03084443137049675, 0.2149432748556137, 0.0624360516667366, -0.04034056141972542, -0.13083544373512268, 0.22091126441955566, -0.05369562283158302, -0.2863043546676636, -0.04860658571124077, -0.17225828766822815, -0.11676252633333206, -0.14345784485340118, -0.2709308862686157, -0.2860042452812195, 0.03183755651116371, -0.34726354479789734, 0.05872374773025513, -0.023955661803483963, 0.11759435385465622, 0.37653863430023193, -0.13586892187595367, -0.054160572588443756, -0.19831784069538116, -0.29029178619384766, 0.2642550468444824, -0.12687639892101288, 0.053057219833135605, 0.009418260306119919, 0.13068222999572754, -0.2236083298921585, 0.02066253498196602, 0.1640857756137848, -0.22933748364448547, -0.19259727001190186, 0.19707775115966797, 0.0397995300590992, 0.06462165713310242, 0.23147547245025635, 0.07448075711727142, -0.22773444652557373, -0.13648942112922668, 0.19712500274181366, 0.16431745886802673, 0.019300442188978195, -0.1059679388999939, -0.0021403173450380564, 0.0005203917971812189, -0.18558922410011292, -0.05123896896839142, 0.078264020383358, -0.08940605819225311, 0.320629745721817, -0.3275425136089325, 0.045518770813941956, -0.10677112638950348, -0.06860516220331192, 0.2052905112504959, 0.010838193818926811, 0.07917272299528122, 0.21663448214530945, -0.21904850006103516, -0.07803583145141602, -0.17918162047863007, -0.2501493990421295, -0.3457304537296295, -0.09195046126842499, -0.03257949650287628, 0.1490335911512375, 0.30964604020118713, -0.3348018229007721, -0.22852832078933716, 0.07900965213775635, -0.2385736107826233, 0.10601546615362167, -0.2646826505661011, -0.040890492498874664, -0.10204674303531647, 0.2356860488653183, 0.077602818608284, 0.15508133172988892, 0.24388431012630463, -0.08266716450452805, -0.00878039002418518, -0.06751413643360138, 0.1801013946533203, 0.4832414388656616, 0.4182300567626953, -0.004360710270702839, 0.24712039530277252, 0.08083571493625641, -0.13069073855876923, -0.10510483384132385, -0.019947361201047897, 0.012540788389742374, 0.24470071494579315, -0.01917947269976139, -0.11477327346801758, -0.1252400428056717, 0.2727380394935608, 0.27078354358673096, -0.042628880590200424, 0.026825541630387306, 0.07868819683790207, 0.20150095224380493, -0.03586746007204056, 0.1588950902223587, 0.01863003335893154, 0.18680265545845032, -0.18521901965141296, 0.03811047971248627, -0.2737346589565277, -0.08849415928125381, -0.010553226806223392, 0.2413627803325653, -0.3611971139907837, 0.07261189818382263, 0.38162702322006226, -0.18545395135879517, -0.0850338563323021, -0.11615557223558426, -0.002459365874528885, -0.13169549405574799, -0.3349032998085022, -0.5367608666419983, -0.19988524913787842, 0.2735002934932709, -0.06291980296373367, -0.1523161083459854, 0.08940666913986206, 0.10421277582645416, 0.03239816799759865, 0.04684501141309738, -0.4889560639858246, -0.049784015864133835, 0.21964366734027863, -0.12859688699245453, -0.05535665899515152, -0.08714045584201813, 0.0761893093585968, 0.11215069890022278, -0.22425635159015656, 0.03103059157729149, -0.15687042474746704, 0.12625156342983246, 0.14313969016075134, -0.09090442210435867, 0.14152294397354126, 0.20234315097332, 0.12383905053138733, -0.04343413561582565, 0.1965135782957077, 0.06671545654535294, 0.1946045458316803, 0.1051495149731636, 0.1284458339214325, 0.2752789855003357, -0.17540061473846436, -0.1616213619709015, -0.22996865212917328, -0.09338513016700745, 0.05285003408789635, 0.15246717631816864, -0.21580490469932556, 0.22241313755512238, -0.2532028555870056, -0.06748730689287186, -0.11576442420482635, 0.07500407844781876, 0.31178152561187744, -0.024570470675826073, 0.33817383646965027, -0.1618264615535736, -0.09488045424222946, -0.06874462962150574, -0.2732314169406891, -0.049670808017253876, -0.19790983200073242, 0.11946769058704376, 0.20784948766231537, -0.22970430552959442, 0.09356590360403061, -0.07264142483472824, -0.22920595109462738, 0.03133659064769745, -0.463157057762146, -0.27110207080841064, 0.12824153900146484, -0.15856733918190002, 0.20064187049865723, -0.15173107385635376, -0.22678427398204803, 0.16042475402355194, 0.12403913587331772, 0.2883877456188202, 0.1911497265100479, -0.08779376745223999, 0.06526444852352142, -0.12069811671972275, 0.21258194744586945, -0.3671933710575104, 0.020906973630189896, 0.14241325855255127, 0.17307984828948975, 0.013208026997745037, 0.11326126009225845, -0.15568840503692627, -0.1871006190776825, -0.31119078397750854, 0.14277803897857666, -0.4764765501022339, -0.09916885942220688, 0.18807607889175415, 0.03719894215464592, -0.11679919809103012, 0.2330864667892456, 0.025203876197338104, -0.07357926666736603, 0.6994820833206177, 0.3984420597553253, 0.12969233095645905, 0.027709301561117172, 0.009620033204555511, 0.0836724266409874, -0.08757531642913818, 0.03493709862232208, -0.12399374693632126, 0.11404310911893845, 0.3621077239513397, 0.1790604442358017, -0.37805747985839844, -0.04332081973552704, -0.3623144030570984, -0.07570436596870422, 0.024343326687812805, -0.25374552607536316, 0.1781681478023529, 0.032729681581258774, 0.027027519419789314, 0.0872378945350647, -0.2642362415790558, -0.10370993614196777, -0.06616818159818649, 0.21397806704044342, -0.19552625715732574, 0.16101059317588806, 0.24663294851779938, -0.0626368597149849, 0.14469197392463684, -0.22809892892837524, 0.17681485414505005, -0.07056339830160141, -0.09213890135288239, 0.3927184045314789, 0.030213912948966026, 0.1454019546508789, -0.3979818522930145, 0.061814650893211365, -0.17273856699466705, -0.0766790360212326, 0.09857354313135147, 0.04972098022699356, -0.09191708266735077, 0.16839167475700378, -0.051617562770843506, 0.09770969301462173, -0.052948132157325745, 0.056121453642845154, 0.130684956908226, 0.06675705313682556, -0.157943993806839, -0.12090495228767395, -0.23690827190876007, -0.21473747491836548, 0.13014911115169525, 0.037001993507146835, -0.008964485488831997, -0.12916989624500275, 0.17099697887897491, 0.3360772132873535, 0.1695317178964615, 0.16645170748233795, 0.06594036519527435, -0.12859801948070526, 0.07090993970632553, -0.03152044862508774, 0.08463966101408005, -0.12864120304584503, -0.041112836450338364, -0.18143527209758759, 0.06634707003831863, 0.02163507603108883, -0.12831537425518036, -0.21043387055397034, 0.14774323999881744, 0.22459037601947784, 0.086541548371315, -0.06273061782121658, 0.2584657371044159, 0.226863294839859, -0.04165060445666313, -0.29219621419906616, -0.15259289741516113, -0.03699593245983124, 0.043987154960632324, -0.25636544823646545, -0.009670034050941467, -0.08185726404190063, -0.3602685034275055, -0.11825363337993622, 0.11342716962099075, -0.06643436849117279, -0.2566974461078644, 0.06937337666749954, -0.1493615061044693, -0.2542322278022766, -0.18175537884235382, 0.060108333826065063, -0.013070744462311268, 0.08423976600170135, 0.11147217452526093, -0.06311448663473129, -0.11978837847709656, 0.10274379700422287, -0.0009681852534413338, 0.05676330626010895, -0.13088221848011017, 0.034164004027843475, -0.008325859904289246, -0.3874889314174652, -0.164605051279068, -0.025276100262999535, -0.09580007195472717, 0.1926870048046112, 0.08997458964586258, -0.05250578373670578, 0.0062105911783874035, -0.0022666114382445812, -0.1354599893093109, -0.060833487659692764, 0.1467231959104538, 0.28744617104530334, -0.16947542130947113, -0.16629789769649506, 0.10605316609144211, 0.05718390643596649, 0.004793263040482998, -0.11617793887853622, -0.07404528558254242, 0.2596239149570465, -0.04356686770915985, -0.0001673724182182923, -0.07146702706813812, 0.2206738442182541, -0.11538218706846237, -0.24841444194316864, 0.20584557950496674, 0.0723814144730568, -0.2179674357175827, 0.028921864926815033, -0.007138419896364212, -0.10140036046504974, -0.07135981321334839, -0.2631707489490509, 0.042343415319919586, 0.08487224578857422, -0.016436800360679626, -0.10442636907100677, -0.14263786375522614, -0.016228100284934044, 0.16941601037979126, 0.043016187846660614, 0.11206373572349548, -0.020700260996818542, -0.1288783997297287, -0.13007274270057678, -0.21360863745212555, 0.11028663069009781, -0.11035582423210144, -0.20460498332977295, 0.30428174138069153, 0.025688156485557556, -0.06606700271368027, 0.039271917194128036, -0.192653089761734, -0.040839552879333496, 0.1624079793691635, -0.02710682339966297, -0.046065736562013626, -0.06609109044075012, 0.012734957970678806, 0.11534532159566879, -0.15591232478618622, 0.04721532016992569, 0.2157059907913208, 0.3238949179649353, -0.060160450637340546, 0.08943766355514526, -0.06249400973320007, 0.2519058883190155, 0.09456183016300201, -0.33175089955329895, -0.11606335639953613, -0.033804751932621, 0.019443349912762642, 0.22333817183971405, -0.11310438811779022, -0.14648334681987762, 0.006611335556954145, 0.07942445576190948, 0.03479510545730591, 0.24550889432430267, 0.027516420930624008, -0.06490166485309601, -0.019239049404859543, -0.08874213695526123, -0.09827752411365509, -0.09341639280319214, 0.12419576942920685, 0.09256916493177414, -0.19392554461956024, -0.056414056569337845, -0.14322695136070251, 0.42342260479927063, 0.3130437433719635, -0.1808328777551651, 0.015516133978962898, -0.07541677355766296, 0.22475771605968475, -0.06867392361164093, -0.011334535665810108, -0.26066434383392334, -0.039351604878902435, -0.09108102321624756, -0.11833550035953522, -0.022670207545161247, 0.014460484497249126, -0.19714030623435974, -0.2844560146331787, 0.13931921124458313, 0.24151092767715454, -0.18343929946422577, -0.06866796314716339, 0.4105190932750702, 0.09096835553646088, -0.3092222809791565, -0.1626015305519104, -0.1517784148454666, 0.1387496292591095, -0.4027404189109802, -0.47330138087272644, 0.11884286254644394, -0.33849138021469116, -0.12940841913223267, 0.2900473475456238, -0.07267867773771286, -0.0022695399820804596, 0.21848924458026886, 0.39286407828330994, -0.017926933243870735, 0.030783474445343018, -0.03526708483695984, -0.017887914553284645, -0.15650014579296112, 0.18598239123821259, -0.09804374724626541, -0.08001731336116791, -0.0520884245634079, 0.27204567193984985, -0.1683463752269745, -0.3163990378379822, -0.17467589676380157, 0.23216310143470764, -0.17209243774414062, -0.0419369675219059, 0.11757908016443253, -0.4167502820491791, 0.2297644466161728, 0.3471214771270752, 0.05027001351118088, -1.0090969800949097, 0.12695424258708954, -0.23703476786613464, 0.09082742780447006, 0.3011578619480133, -0.25557059049606323, 0.18636706471443176, 0.08974867314100266, 0.37851613759994507, 0.020585255697369576, -0.25146400928497314, -0.13913467526435852, 0.002167239086702466, -0.17526444792747498, 0.022886618971824646, -0.08590494096279144, 0.014423721469938755, -0.16219545900821686, -0.0322004035115242, 0.029337959364056587, -0.18395328521728516, 0.09368358552455902, 0.07631012052297592, -0.007597973104566336, -0.05302095040678978, 0.1865045726299286, -0.12154773622751236, 0.31588685512542725, -0.09480739384889603, 0.10293559730052948, -0.08028285950422287, -0.18699944019317627, 0.308777779340744, 0.07866639643907547, -0.19449178874492645, -0.22586505115032196, -0.07065655291080475, 0.0654560998082161, 0.09317391365766525, 0.12198244780302048, 0.09688551723957062, -0.3737092614173889, 0.10825108736753464, -0.08926079422235489, -0.5454825162887573, -0.05827260762453079, -0.13829156756401062, -0.19589479267597198, -0.07728773355484009, 0.13618488609790802, -0.08343934267759323, -0.10046885162591934, 0.16255177557468414, -0.2200639396905899, 0.06390157341957092, -0.12250680476427078, 0.19751417636871338, -0.06764853745698929, -0.12945590913295746, 0.26996299624443054, 0.1543978750705719, -0.2123451977968216, -0.1296263337135315, -8.984774467535317e-05, 0.08332094550132751, -0.19646574556827545, 0.3891112804412842, 0.028917962685227394, -0.3280784487724304, -0.06078233942389488, 0.19498775899410248, -0.1696150302886963, -0.04559691995382309, 0.06884551048278809, 0.1218668594956398, -0.09604489058256149, -0.0030961576849222183, -0.06033673882484436, 0.199244424700737, -0.22686974704265594, -0.04104947671294212, 0.05646875128149986, -0.09115677326917648, 0.06668643653392792, 0.16749832034111023, 0.21412616968154907, -0.36125320196151733, -0.02339356020092964, -0.14183032512664795, -0.020518334582448006, -0.03758607059717178, 0.11998940259218216, -0.14413058757781982, 0.044066641479730606, 0.23039090633392334, 0.03217737004160881, 0.3085692524909973, -0.03314593434333801, -0.25294870138168335, -0.05994127318263054, 0.27583515644073486, 0.13192203640937805, -0.17165769636631012, 0.41583824157714844, 0.13442404568195343, -0.051720086485147476, -0.18768459558486938, 0.07994750887155533, -0.1908518224954605, -0.14020809531211853, -0.10257507115602493, -0.0447164811193943, 0.1299622356891632, -0.22931431233882904, 0.4439837634563446, 0.0142819257453084, -0.17827792465686798, -0.028816726058721542, 0.20912380516529083, -0.2093840092420578, -0.08894471079111099, 0.04895784333348274, -0.05030181258916855, -0.0007714304374530911, -0.18867942690849304, 0.04150135815143585, 0.0712287425994873, -0.10747969895601273, 0.06839859485626221, -0.07840166240930557, -0.13252371549606323, 0.06334146857261658, -0.24359147250652313, 0.1539832502603531, -0.14031560719013214, 0.2526647746562958, 0.22892466187477112, -0.2572343051433563, -0.038536183536052704, -0.06222054734826088, -0.023775409907102585, -0.10921134799718857, 0.15782740712165833, -0.13755875825881958, 0.37742212414741516, -0.10498214513063431, -0.13223615288734436, -0.1588754504919052, 0.2706192135810852, 0.13014622032642365, -0.18671227991580963, 0.092715322971344, 0.3776763677597046, 0.12125440686941147, -0.13605959713459015, -0.2099812924861908, -0.2766247093677521, -0.10881819576025009, 0.32965797185897827, 0.3786386549472809, -0.13206219673156738, -0.20976495742797852, -0.23040081560611725, 0.2142924666404724, 0.04668548330664635, 0.08538227528333664, -0.12581133842468262, -0.0710698813199997, 0.14604607224464417, 0.21592079102993011, -0.22604884207248688, -0.14987143874168396, 0.32650619745254517, -0.1770474910736084, 0.024770624935626984, -0.5179879665374756, -0.18399831652641296, -0.32068827748298645, -0.02954721823334694, -0.05300597473978996, -0.1680324673652649, 0.05298224464058876, 0.3437791168689728, 0.21988503634929657, 0.12298248708248138, -0.10201878845691681, -0.014597851783037186, -0.15106406807899475, 0.20561663806438446, 0.00994323380291462, 0.061291106045246124, -0.2057894468307495, -0.06705549359321594, -0.07002804428339005, -0.10238353908061981, -0.02469911426305771, -0.03817153722047806, -0.29266050457954407, -0.09100650995969772, 0.08372312784194946, 0.046923570334911346, -0.2624281644821167, -0.10173849761486053, -0.10224702954292297, 0.07751861214637756, -0.2050994336605072, -0.05967043712735176, -0.07114553451538086, 0.3481343686580658, -0.44683361053466797, -0.4307915270328522, -0.06418047845363617, -0.12158329039812088, -0.007447594311088324, -0.07810917496681213, 0.2887892723083496, 0.11304542422294617, -0.028317533433437347, 0.13684892654418945, 0.03310282900929451, -0.5112441182136536, -0.19459189474582672, -0.2066447138786316, -0.0867331400513649, 0.23091642558574677, 0.12598319351673126, -0.047331154346466064, -0.17840476334095, -0.0024760845117270947, -0.2847106456756592, 0.2733791470527649, -0.009626791812479496, 0.4263179898262024, -0.12472368031740189, -0.2573537826538086, -0.07294102013111115, -0.2363237589597702, 0.11056597530841827, -0.09526117891073227, -0.06305694580078125, -0.17282354831695557, 0.13439419865608215, -0.010409875772893429, -0.23818303644657135, -0.24857529997825623, -0.06129951402544975, 0.21993930637836456, -0.6077324748039246, 0.032885123044252396, 0.07574588060379028, 0.09867992252111435, 0.13509266078472137, -0.09589948505163193, 0.01289950031787157, -0.07977260649204254, -0.07721970230340958, 0.1517801284790039, -0.03923274576663971, 0.34813129901885986, 0.0654807835817337, -0.2197657972574234, -0.059589408338069916, 0.17974182963371277, 0.014246685430407524, -0.01904287375509739, 0.1112336665391922, -0.2553739845752716, -0.05690241977572441, -0.1332908421754837, -0.1557541936635971, 0.0988742783665657, -0.014101296663284302, 0.16704031825065613, 0.024268576875329018, -0.2560308575630188, -0.24446356296539307, -0.16639402508735657, -0.047581370919942856, -0.020285792648792267, 0.14135423302650452, 0.011812033131718636, -0.1886824667453766, -0.15757466852664948, 0.038399532437324524, -0.1286046952009201, -0.01208252739161253, 0.1763520985841751, 0.024391070008277893, 0.14858508110046387, -0.11904964596033096, -0.16572923958301544, -0.2300894856452942, 0.26811283826828003, -0.0935361236333847, -0.32154032588005066, 0.10961907356977463, 0.0796440839767456, -0.03593658655881882, -0.2516622245311737, -0.004871983081102371, -0.08988862484693527, 0.3910537362098694, 0.032713305205106735, -0.012804131954908371, -0.2163093388080597, 0.07991530001163483, -0.2824687361717224, 0.07561733573675156, 0.1427103877067566, 0.10637414455413818, -0.12521778047084808, 0.04340067505836487, 0.11193180829286575, -0.011195821687579155, -0.1332930028438568, -0.030297987163066864, -0.23654554784297943, -0.042110294103622437, 0.1731310337781906, -0.1007007285952568, -0.054755501449108124, -0.05492677912116051, -0.01762329787015915, 0.1601090431213379, -0.04716833308339119, 0.016188019886612892, -0.3557496666908264, 0.04235239699482918, -0.19898945093154907, 0.23982302844524384, 0.24600087106227875, -0.09451012313365936, 0.39396244287490845, -0.07379134744405746, 0.01308268029242754, -0.07843964546918869, -0.03156377375125885, -0.05995789170265198, 0.1611684411764145, 0.22845083475112915, -0.09479314088821411, 0.12164459377527237, 0.1532878428697586, -0.18858131766319275, 0.09568503499031067, -0.13693362474441528, 0.24204480648040771, -0.18332213163375854, 0.018727490678429604, 0.11142561584711075, 0.22283650934696198, -0.08070482313632965, -0.1583109050989151, 0.20402967929840088, -0.2777422368526459, -0.2400297224521637, 0.019521741196513176, 0.03160106763243675, 0.032028306275606155, -0.023613082244992256, 0.11371780931949615, 0.06836329400539398, 0.04700060188770294, 0.0036563139874488115, 0.032468874007463455, 0.05968499183654785, -0.06189343333244324, 0.0383421815931797, 0.017693066969513893, -0.005570617504417896, 0.032866038382053375, 0.02614610083401203, 0.15212653577327728, -0.08486928790807724, 0.23777568340301514, -0.1198945865035057, -0.01596509851515293, 0.13420799374580383, 0.030541524291038513, -0.24716989696025848, 0.21547213196754456, 0.035657357424497604, -0.10008105635643005, -0.12778237462043762, -0.05376904830336571, -0.009603861719369888, 0.15264949202537537, 0.19565868377685547, -0.2478642612695694, -0.025936007499694824, 0.052785929292440414, -0.09357017278671265, -0.2317429482936859, -0.05830622836947441, 0.18750515580177307, -0.04843262955546379, 0.18338492512702942, 0.23437906801700592, 0.1880302131175995, 0.03376145660877228, -0.006168971303850412, 0.1923733651638031, 0.017280304804444313, 0.18273301422595978, 0.04191838949918747, 0.03795066475868225, -0.06923443078994751, 0.02468509040772915, 0.011105190962553024, -0.2343420684337616, 0.016949065029621124, -0.035230740904808044, -0.0647643655538559, -0.009310321882367134, -0.1725475937128067, 0.09541109204292297, -0.08535496890544891, -0.04929620772600174, 0.15770389139652252, 0.16827739775180817, 0.15979896485805511, 0.004163903184235096, 0.1552126258611679, -0.25105345249176025, -0.10518565773963928, 0.11947118490934372, 0.1337403506040573, 0.015532558783888817, 0.19693168997764587, 0.34311443567276, -0.2586299777030945, -0.06513287127017975, -0.23302723467350006, 0.04111882299184799, 0.06775554269552231, 0.03207189962267876, -0.12264906615018845, 0.03188491612672806, 0.22616690397262573, -0.1252271682024002, -0.21771013736724854, -0.007351388689130545, 0.0002887957380153239, 0.4154230058193207, 0.10164022445678711, 0.2169291228055954, -0.2909350097179413, 0.013453568331897259, 0.025488393381237984, 0.344929039478302, -0.07502451539039612, 0.1498601883649826, -0.055767543613910675, 0.1757795810699463, 0.043472494930028915, -0.12232385575771332, 0.21524426341056824, 0.18322421610355377, 0.15916451811790466, -0.21918772161006927, 0.011310233734548092, -0.07853533327579498, 0.17353534698486328, 0.07823232561349869, -0.1393532156944275, 0.053393032401800156, 0.2534906566143036, 0.30254459381103516, -0.001671803998760879, -0.08700382709503174, -0.5776349306106567, -0.027022551745176315, -0.11000120639801025, 0.08412729948759079, 0.01625850796699524, 0.060113441199064255, 0.137198805809021, -0.17322227358818054, -0.05046458914875984, 0.25453615188598633, 0.10958590358495712, -0.01827305741608143, -0.07675077766180038, 0.17358925938606262, -0.20148630440235138, 0.233048677444458, 0.01225103996694088, 0.16933180391788483, 0.07357984036207199, -0.18855945765972137, 0.1634974628686905, 0.14925716817378998, -0.08749481290578842, 0.07574018836021423, -0.06006608530879021, -0.02856764942407608, -0.008963597938418388, -0.18669600784778595, 0.06369291245937347, 0.1662735641002655, 0.07472120225429535, 0.03331010043621063, -0.056469883769750595, -0.18319600820541382, 0.05706118792295456, 0.09516938775777817, -0.08460774272680283, -0.2610832154750824, -0.4380948841571808, 0.7521901726722717, 0.425237774848938, -0.33074384927749634, -0.28305578231811523, -0.2078440934419632, -0.46765419840812683, 0.3320797085762024, -0.7961177825927734, 1.0414080619812012, 0.499133437871933, 0.1541137993335724, -0.19101020693778992, 0.4537931978702545, -0.7464145421981812, 0.0216266680508852, -0.39109185338020325, 0.1883402019739151, -0.3013666570186615, -0.28617656230926514, 0.12000729888677597, 0.3705029785633087, -0.04121484234929085, 0.101315937936306, 0.04252774268388748, 0.19572924077510834, 0.09697601199150085, -0.2329241931438446, 0.05415843054652214, 0.1614716798067093, -0.32663437724113464, 0.05695771425962448, 0.010015659965574741, -0.04334186390042305, 0.12435194104909897, -0.16931450366973877, 0.2976340055465698, 0.12628062069416046, -0.16241653263568878, -0.2947494089603424, 0.07046329975128174, 0.04661332815885544, -0.08832691609859467, 0.023994451388716698, 0.26258429884910583, -0.14265570044517517, -0.1605449765920639, 0.1657278835773468, -0.3453826606273651, 0.10542146116495132, 0.08329325914382935, 0.03792402148246765, 0.35060378909111023, -0.06295886635780334, -0.3754172921180725, -0.05774160474538803, -0.13034985959529877, -0.15200476348400116, 0.13242772221565247, 0.2292647808790207, -0.2587706446647644, -0.20101040601730347, 0.32991039752960205, 0.061005041003227234, 0.0462818369269371, 0.11611467599868774, -0.11949875950813293, -0.3950856924057007, 0.3331206142902374, 0.07951845228672028, 0.2879756689071655, 0.2316761612892151, -0.09359672665596008, 0.2853653132915497, 0.35940298438072205, -0.0374920628964901, 0.09497655928134918, -0.036241624504327774, -0.14888159930706024, 0.07615985721349716, -0.33544889092445374, 0.31269779801368713, -0.1344659924507141, 0.032459806650877, 0.1989232748746872, 0.08149488270282745, 0.03456459566950798, 0.3042489290237427, -0.24747315049171448, -0.3465334177017212, 0.2097911685705185, -0.1744680106639862, -0.2211349904537201, 0.19707931578159332, -0.21561719477176666, -0.1422896683216095, -0.35608601570129395, 0.03746585175395012, 0.04932320863008499, -0.2893350422382355, -0.24410869181156158, 0.3121491074562073, -0.1694951206445694, -0.28572186827659607, -0.2956835925579071, -0.0033874460496008396, -0.06285296380519867, 0.12580275535583496, 0.18357880413532257, 0.3541918694972992, 0.21579201519489288, -0.011553747579455376, 0.4583492577075958, -0.09697182476520538, 0.0811266377568245, 0.2309233844280243, -0.1054132804274559, -0.14656572043895721, -0.11069463938474655, -0.11657671630382538, 0.39083462953567505, 0.3241347670555115, -0.07826579362154007, 0.04241899773478508, 0.08318644762039185, -0.059518810361623764, -0.11974005401134491, 0.24334801733493805, -0.018963662907481194, -0.23197369277477264, 0.0936710387468338, -0.25702956318855286, -0.0554552786052227, -0.021398283541202545, -0.11129368096590042, 0.07665346562862396, -0.10609910637140274, -0.0728997141122818, 0.17282718420028687, -0.09854286909103394, 0.04747318476438522, 0.026996511965990067, -0.14448215067386627, -0.3896133601665497, -0.04179947078227997, -0.07301276177167892, 0.2190568447113037, -0.05298982933163643, 0.3642841577529907, -0.175693079829216, 0.2929077446460724, 0.02309793420135975, -0.012931198813021183, -0.015445679426193237, 0.30570188164711, -0.26269587874412537, -0.11164788901805878, -0.05143645405769348, -0.015974093228578568, 0.02753148041665554, -0.0482996329665184, -0.25922492146492004, 0.12076167017221451, -0.6058461666107178, 0.23520822823047638, 0.026260539889335632, 0.04553021118044853, -0.36222994327545166, -0.15757380425930023, 0.15520454943180084, -0.19169217348098755, -0.27797606587409973, 0.017275940626859665, 0.21136507391929626, -0.24021390080451965, 0.2777792513370514, 0.02537364698946476, -0.24053315818309784, 0.007810478564351797, 0.30874645709991455, 0.04343561828136444, -0.07858329266309738, 0.11998303979635239, 0.28733381628990173, 0.24968014657497406, -0.2230084389448166, 0.07888973504304886, 0.16030721366405487, -0.14770013093948364, -0.04275223985314369, 0.3161028027534485, -0.22126908600330353, 0.003179923165589571, 0.02230771817266941, -0.2458696961402893, -0.17418840527534485, 0.4305436611175537, 0.5626733303070068, 0.05178486183285713, -0.040789391845464706, -0.4949766993522644, 0.13105018436908722, 0.3797043263912201, -0.3888360857963562, -0.358732134103775, -0.07621877640485764, -0.06359720230102539, -0.1250484138727188, -0.17260825634002686, -0.1845310479402542, 0.11199267208576202, -0.04276620224118233, -0.028887508437037468, -0.21663141250610352, -0.4870319962501526, -0.26884689927101135, -0.0944325253367424, -0.21501176059246063, 0.12525299191474915, 0.24168826639652252, 0.03099488653242588, -0.10818447172641754, 0.10940438508987427, -0.3006722033023834, 0.22120797634124756, -0.29467496275901794, 0.343012273311615, -0.024363642558455467, -0.09835226088762283, -0.22580218315124512, -0.057050254195928574, 0.06687558442354202, 0.053932156413793564, 0.34171175956726074, -0.1045527309179306, 0.03006473369896412, 0.24089227616786957, -0.226470485329628, 0.1998022347688675, -0.28209567070007324, -0.08017312735319138, -0.07222840934991837, -0.3197893798351288, -0.1598680317401886, 0.2602570652961731, 0.47508469223976135, -0.3345929980278015, 0.3909297585487366, -0.09429427236318588, 0.08017636835575104, 0.3252255916595459, -0.12273522466421127, -0.06570300459861755, -0.0805332362651825, -0.4193987250328064, -0.03386078402400017, -0.29532384872436523, 0.19371382892131805, -0.23011964559555054, 0.14743128418922424, -0.08814194798469543, -0.17157746851444244, -0.2855355441570282, 0.10617922246456146, 0.0010829868260771036, -0.07463885843753815, 0.27915307879447937, -0.02024778164923191, -0.27774396538734436, 0.05994357541203499, 0.3125852048397064, 0.06521285325288773, -0.069917231798172, 0.21090687811374664, 0.06188763678073883, -0.03640562295913696, 0.3339124321937561, -0.045651424676179886, 0.09813155978918076, -0.1639999896287918, -0.0966193825006485, -0.037584658712148666, 0.08135686814785004, 0.2522769868373871, 0.0127171715721488, 0.09678974747657776, 0.21536758542060852, 0.18292197585105896, -0.10214640200138092, -0.10290743410587311, -0.1763256937265396, -0.0011890706373378634, 0.11980096995830536, -0.031852200627326965, 0.11514897644519806, 0.020090565085411072, -0.22861823439598083, -0.14783643186092377, 0.2083527147769928, 0.3218075931072235, -0.15314647555351257, -0.2009415626525879, 0.16797690093517303, 0.1977081298828125, 0.11149618029594421, 0.14376375079154968, 0.10200890153646469, -0.03912287577986717, -0.09496841579675674, 0.14063839614391327, 0.11966625601053238, -0.13544443249702454, -0.34348779916763306, 0.11082224547863007, 1.695861283224076e-05, 0.18274934589862823, -0.0243171826004982, -0.23351168632507324, -0.14359621703624725, 0.3043043911457062, 0.01513940654695034, -0.33911266922950745, -0.07841622084379196, -0.22484391927719116, 0.1732574850320816, 0.10479941219091415, -0.14480575919151306, -0.03856506943702698, 0.003492217045277357, 0.00125542760360986, -0.07301928102970123, -0.15021860599517822, 0.1453378051519394, -0.05709777772426605, -0.11013708263635635, 0.1392931193113327, 0.18003202974796295, -0.1900123655796051, 0.0897054448723793, -0.106781505048275, 0.034902021288871765, 0.1445351541042328, -0.1383192539215088, -0.11452271789312363, -0.20173507928848267, 0.10650672763586044, 0.2895716428756714, 0.10674169659614563, -0.030403029173612595, -0.020646456629037857, -0.06814859062433243, -0.08830821514129639, -0.2754586935043335, -0.016244521364569664, 0.19191007316112518, 0.11873327940702438, -0.03369690477848053, -0.16052937507629395, -0.05679229274392128, -0.08488506078720093, 0.10623180121183395, 0.15689508616924286, -0.2876921594142914, 0.25884106755256653, 0.30805665254592896, -0.06369514763355255, 0.05296652391552925, 0.17748504877090454, 0.13459108769893646, -0.013017414137721062, -0.1262325942516327, -0.004234722349792719, 0.014257566072046757, 0.012615951709449291, -0.15327678620815277, 0.18691441416740417, 0.08666424453258514, 0.28646790981292725, 0.2509021759033203, -0.03549329191446304, 0.11974799633026123, 0.10834413021802902, -0.225492462515831, -0.24695172905921936, -0.18207335472106934, 0.16208934783935547, 0.21206733584403992, 0.07310742139816284, -0.20945559442043304, -0.29947182536125183, 0.04402077943086624, 0.07995881140232086, 0.048695433884859085, -0.04720529541373253, -0.015913544222712517, 0.043946921825408936, 0.27266621589660645, 0.09682874381542206, -0.155766099691391, -0.11968044191598892, 0.12579286098480225, 0.10751818865537643, 0.05354359745979309, -0.24641984701156616, 0.007599968463182449, 0.19213536381721497, 0.052012331783771515, 0.06097922474145889, -0.16069656610488892, 0.05897001922130585, 0.24466897547245026, 0.13449953496456146, 0.03841831907629967, 0.01881968416273594, 0.012278317473828793, -0.16764479875564575, -0.22770880162715912, -0.30616477131843567, 0.051865700632333755, -0.08345619589090347, -0.04209417104721069, -0.09580473601818085, 0.05825541913509369, -0.051179174333810806, -0.14132927358150482, 0.020343566313385963, -0.18977414071559906, 0.026398539543151855, -0.19532914459705353, -0.007734906859695911, 0.1180984154343605, -0.12091159075498581, 0.21192409098148346, 0.12413126230239868, 0.044050052762031555, 0.028071297332644463, 0.059121161699295044, 0.05894158035516739, -0.09446516633033752, -0.01325881015509367, 0.13042627274990082, 0.25079068541526794, -0.16778938472270966, -0.1338159441947937, 0.22404450178146362, 0.021664854139089584, 0.0043343789875507355, -0.16719700396060944, -0.03351616486907005, 0.05189063400030136, -0.2128845900297165, -0.0364701934158802, 0.10101854056119919, -0.04440204054117203, 0.08594268560409546, 0.06282483786344528, -0.04231226071715355, -0.26619964838027954, 0.03278987854719162, -0.009172693826258183, -0.1611284613609314, 0.04832137003540993, 0.11409296840429306, -0.17281518876552582, 0.033562079071998596, 0.48733875155448914, 0.14051564037799835, 0.01723598502576351, -0.03909691050648689, -0.1255139410495758, 0.14124976098537445, 0.02575330249965191, -0.27225109934806824, -0.2562114894390106, 0.05377957597374916, 0.11066130548715591, -0.2326371967792511, -0.015289459377527237, 0.05552330240607262, 0.41908809542655945, -0.10733618587255478, -0.11760608106851578, -0.1298140436410904, 0.26897844672203064, 0.10819095373153687, 0.019572265446186066, 0.41649043560028076, -0.01317549217492342, 0.4010564386844635, 0.07948540896177292, 0.09319974482059479, 0.39030522108078003, -0.025489356368780136, -0.17737708985805511, -0.40198591351509094, -0.034921735525131226, 0.10841653496026993, -0.47593602538108826, 0.0718238428235054, 0.1086299866437912, -0.09633836895227432, -0.12511390447616577, -0.17390233278274536, 0.40341880917549133, -0.022692078724503517, -0.03569096699357033, -0.5320949554443359, 0.4704596996307373, 0.04664994776248932, -0.06336349993944168, 0.223185196518898, -0.03071191906929016, 0.42191874980926514, -0.180620938539505, -0.03455624356865883, -0.424643337726593, 0.1242469921708107, 0.023452667519450188, -0.34348583221435547, -0.05457420274615288, 0.06999807059764862, 0.1734393686056137, -0.177464559674263, 0.03906532749533653, 0.28705501556396484, -0.2542063891887665, -0.10025076568126678, -0.035264551639556885, -0.11445202678442001, 0.04004602134227753, -0.0011924267746508121, 0.1328650861978531, -0.1968218982219696, 0.14614003896713257, 0.0831451267004013, 0.3953450620174408, 0.03960795700550079, 0.2229645997285843, -0.04584285244345665, 0.2922815978527069, -0.09710781276226044, -0.019490990787744522, -0.06342048943042755, -0.044830892235040665, 0.23833999037742615, -0.13901178538799286, 0.11174416542053223, -0.12374100834131241, -0.13427729904651642, -0.06117468699812889, 0.0660829022526741, -0.04275941848754883, 0.24431632459163666, 0.03825457766652107, -0.29768747091293335, 0.24463428556919098, -0.08447195589542389, -0.06069949269294739, 0.09099432080984116, -0.09651386737823486, 0.2975488603115082, 0.18292269110679626, 0.26964524388313293, 0.033228155225515366, -0.03190544247627258, -0.18859046697616577, -0.08448750525712967, 0.08642956614494324, -0.10705949366092682, 0.21070805191993713, 0.04722261056303978, 0.0484224371612072, -0.0035039002541452646, -0.07011902332305908, 0.03451487421989441, 0.07436375319957733, 0.07616401463747025, -0.2662600576877594, -0.15140441060066223, -0.06702978163957596, 0.14597433805465698, -0.33598873019218445, -0.04985536262392998, -0.21397319436073303, -0.07813575863838196, -0.06567446142435074, -0.09229503571987152, -0.019923239946365356, 0.20782984793186188, -0.03391047567129135, -0.3957822322845459, -0.19416743516921997, -0.026490284129977226, -0.06581959128379822, -0.11237066984176636, -0.05388057976961136, 0.1256403774023056, -0.04702641814947128, -0.011984514072537422, 0.019653145223855972, 0.0390414223074913, -0.008445068262517452, 0.28691983222961426, 0.059887416660785675, 0.057855330407619476, 0.04884926602244377, -0.06853633373975754, 0.13712719082832336, -0.05864277109503746, -0.02362477034330368, 0.0373837873339653, -0.15391230583190918, -0.3012881875038147, -0.05138767510652542, -0.17582528293132782, -0.1280854195356369, -0.03679310530424118, -0.23574630916118622, 0.14127056300640106, -0.059400126338005066, -0.038775306195020676, -0.024668756872415543, -0.37415534257888794, -0.18178142607212067, -0.07099611312150955, -0.017371423542499542, 0.14035624265670776, 0.12278551608324051, 0.08351021260023117, -0.4574965834617615, -0.40028145909309387, 0.10227975994348526, 0.08290819078683853, 0.2411409616470337, 0.05289803445339203, 0.11331509798765182, 0.1423843950033188, 0.20322023332118988, -0.4318206310272217, -0.22315837442874908, 0.05275862291455269, -0.010011403821408749, -0.1802901029586792, -0.09503956139087677, -0.12100084125995636, -0.057003166526556015, -0.016233036294579506, -0.03168802708387375, -0.0713079422712326, -0.13592448830604553, -0.025261152535676956, 0.09873407334089279, -0.12038882821798325, 0.1370643526315689, 0.0914718434214592, 0.012867782264947891, -0.11088090389966965, -0.043341848999261856, 0.21549026668071747, -0.07281578332185745, -0.02690686471760273, 0.14623796939849854, 0.1405276656150818, -0.0713706910610199, -0.001053459825925529, -0.15871578454971313, -0.06028497964143753, 0.0836469978094101, -0.15399517118930817, -0.17570793628692627, 0.05763552337884903, 0.07608029246330261, 0.17502357065677643, -0.05597864091396332, -0.009933244436979294, -0.09482039511203766, 0.2230144888162613, -0.0879492238163948, -0.184695765376091, -0.11472132802009583, -0.18181096017360687, 0.19969695806503296, -0.004742966033518314, -0.03706319257616997, 0.11316795647144318, 0.028071925044059753, -0.06079178303480148, 0.06462030857801437, -0.20673847198486328, -0.0069738090969622135, -0.2573271095752716, -0.016297340393066406, 0.12372783571481705, -0.058025676757097244, -0.12493102997541428, -0.11997265368700027, 0.3186159133911133, -0.026318298652768135, -0.20012688636779785, 0.001389326760545373, 0.0883815661072731, -0.008658147417008877, -0.05321016162633896, 0.07861713320016861, 0.2240949124097824, 0.40056994557380676, -0.2014962136745453, 0.08484029024839401, -0.18392466008663177, -0.10822226107120514, -0.1877458691596985, 0.15944577753543854, 0.09727497398853302, 0.182338148355484, 0.0936972126364708, -0.2558841407299042, 0.16290372610092163, -0.07633866369724274, -0.030479494482278824, 0.016961339861154556, 0.15465021133422852, 0.01021805964410305, -0.07672488689422607, -0.0064712571911513805, 0.15385869145393372, 0.3672378957271576, 0.17162871360778809, -0.003243416314944625, 0.09697648137807846, -0.04289659857749939, 0.130568265914917, 0.1800178438425064, 0.07954233139753342, -0.05110396072268486, 0.03023245930671692, -0.1074499860405922, -0.28916478157043457, -0.09608648717403412, -0.06414355337619781, 0.24967946112155914, 0.12194149941205978, -0.13458533585071564, 0.017639366909861565, 0.0750601515173912, 0.15689171850681305, 0.21239891648292542, -0.3126404285430908, 0.0929897129535675, 0.16238467395305634, -0.12006444483995438, -0.13372355699539185, -0.03015793487429619, 2.964163286378607e-05, -0.14804689586162567, -0.14218011498451233, -0.024482224136590958, -0.16782236099243164, -0.01963234134018421, -0.18810924887657166, -0.05563061684370041, 0.020176127552986145, 0.09851498901844025, 0.1505817025899887, -0.11438928544521332, 0.18225030601024628, 0.026429248973727226, 0.00995492935180664, 0.08172893524169922, -0.15651968121528625, 0.1601102352142334, 0.08964415639638901, 0.010524515062570572, -0.00041715041152201593, -0.33392012119293213, -0.06235962733626366, 0.17976301908493042, 0.2519644796848297, 0.011371898464858532, -0.0030175556894391775, -0.19947399199008942, -0.04029405117034912, 0.07634704560041428, 0.1946801245212555, -0.0017814519815146923, 0.07588471472263336, 0.03363162651658058, 0.029518019407987595, -0.20608429610729218, -0.09267280995845795, -0.19099655747413635, -0.10797292739152908, 0.10161969065666199, -0.06005825474858284, 0.1268908977508545, 0.21465212106704712, 0.07303230464458466, -0.04693323001265526, -0.02262410894036293, 0.11168685555458069, -0.11073341965675354, -0.05732795596122742, -0.04295559599995613, 0.01011866144835949, -0.0018670441349968314, -0.06563152372837067, 0.012207016348838806, 0.07636912167072296, -0.056973446160554886, 0.018788442015647888, -0.027640042826533318, -0.10565803200006485, 0.13041561841964722, -0.0006501591415144503, 0.010408958420157433, 0.12204745411872864, -0.19696058332920074, -0.020844697952270508, 0.15557092428207397, 0.0800139456987381, 0.13944293558597565, -0.15726320445537567, 0.09345822036266327, 0.20642682909965515, 0.18798580765724182, 0.06566660851240158, -0.4644584655761719, -0.12095646560192108, -0.07600165158510208, -0.48333847522735596, 0.08073779195547104, 0.1469513177871704, 0.04547165706753731, -0.14923851191997528, -0.1579163372516632, 0.12063775211572647, -0.14475512504577637, -0.0655394122004509, -0.20770730078220367, 0.040539152920246124, 0.019238939508795738, -0.7017661929130554, 0.023470334708690643, -0.07456913590431213, 0.2281188666820526, 0.03278364986181259, 0.2021719217300415, -0.1451444923877716, -0.011632522568106651, 0.2450486570596695, -0.6270485520362854, 0.047939348965883255, 0.13325603306293488, 0.34399697184562683, -0.10960718244314194, 0.3050742447376251, -0.07940005511045456, -0.07702815532684326, -0.13037681579589844, -0.3080441355705261, -0.0576288141310215, -0.06968898326158524, -0.08877876400947571, 0.23225201666355133, -0.26396632194519043, 0.04915418475866318, 0.08412051945924759, 0.24069936573505402, 0.018866969272494316, -0.19259780645370483, 0.12546683847904205, -0.12473532557487488, -0.003320137970149517, -0.048323892056941986, 0.14305748045444489, -0.1333262324333191, -0.06957727670669556, 0.023058855906128883, 0.02660219743847847, -0.09363756328821182, -0.1038469597697258, 0.04156934842467308, 0.00892237201333046, -0.04349566996097565, -0.23508858680725098, 0.024118447676301003, -0.12822271883487701, 0.1850084364414215, -0.14779511094093323, 0.28008171916007996, -0.1988709270954132, -0.11337846517562866, 0.1850053369998932, -0.2073081135749817, 0.16718463599681854, -0.03922588378190994, -0.17396777868270874, -0.3441908359527588, 0.24869482219219208, 0.3140161633491516, 0.2894230782985687, -0.054772648960351944, -0.022048726677894592, 0.35340210795402527, -0.00010937277693301439, -0.06472768634557724, -0.1910213828086853, 0.06652120500802994, 0.15866099298000336, -0.13850295543670654, -0.009837607853114605, 0.13225172460079193, 0.009640369564294815, -0.05319115146994591, 0.19354499876499176, 0.1377107948064804, 0.061771079897880554, 0.05128283426165581, -0.023344457149505615, 0.04998389258980751, -0.03501604124903679, 0.09638366848230362, -0.3490937054157257, 0.04738558456301689, 0.1411692351102829, -0.22890928387641907, 0.23504143953323364, -0.08460842818021774, 0.007905862294137478, -0.14541535079479218, -0.2997598350048065, 0.10964677482843399, 0.08388718217611313, -0.17441730201244354, 0.0014493867056444287, -0.2127135694026947, 0.01977241411805153, -0.24509143829345703, 0.09440828859806061, 0.014179786667227745, -0.4685240089893341, 0.25049883127212524, 0.11327517777681351, -0.06385089457035065, 0.015093465335667133, 0.005599107593297958, -0.5247756838798523, 0.021450182422995567, -0.044608041644096375, 0.1066281795501709, -0.2371230274438858, 0.0024478179402649403, -0.014028296805918217, 0.07768078148365021, -0.09433112293481827, -0.029501810669898987, 0.35988664627075195, -0.005939433351159096, 0.21689626574516296, 0.17027516663074493, 0.11912978440523148, 0.13562162220478058, 0.06345563381910324, -0.1805490106344223, -0.14158028364181519, 0.06363625079393387, 0.0038921853993088007, 0.030793488025665283, 0.20933276414871216, -0.1624961644411087, 0.3238683044910431, 0.2171393185853958, -0.1205824539065361, 0.21029320359230042, -0.062113456428050995, 0.17270050942897797, -0.16651365160942078, -0.05908742919564247, 0.07068010419607162, -0.4007376432418823, 0.10780375450849533, 0.09685186296701431, 0.10018078982830048, 0.05920356884598732, -0.11639617383480072, 0.5535324811935425, 0.13413940370082855, -0.07603995501995087, -0.114467553794384, -0.06785082817077637, -0.0848344936966896, -0.08163759857416153, 0.17524145543575287, 0.1667151004076004, 0.381052702665329, -0.15411730110645294, -0.15163323283195496, -0.13802087306976318, -0.0407409630715847, -0.19088798761367798, 0.07500359416007996, -0.003158703912049532, -0.046752285212278366, 0.08081500977277756, -0.21907277405261993, 0.06302190572023392, 0.12678344547748566, -0.07037113606929779, -0.24299128353595734, 0.22207069396972656, 0.062051087617874146, -0.10148556530475616, 0.0070823486894369125, 0.09183522313833237, -0.12043561786413193, -0.15519507229328156, -0.16894331574440002, -0.24826277792453766, 0.20544055104255676, 0.0063994647935032845, -0.23421350121498108, 0.24708491563796997, 0.07962006330490112, -0.23167279362678528, -0.0039595491252839565, 0.1965460628271103, 0.28072643280029297, -0.16461782157421112, -0.1163124069571495, 0.02760426513850689, 0.21769258379936218, -0.020919857546687126, -0.1499423086643219, 0.1563846319913864, -0.216049462556839, -0.46379169821739197, -0.022813376039266586, 0.17701159417629242, -0.041874632239341736, 0.037084195762872696, -0.09586048126220703, -0.47392648458480835, 0.32681870460510254, -0.09985630959272385, 0.15221238136291504, -0.15740616619586945, 0.10301269590854645, -0.10554956644773483, -0.030896848067641258, 0.06343258172273636, -0.15164361894130707, 0.198202982544899, 0.008421300910413265, -0.021549900993704796, 0.018171366304159164, 0.08698080480098724, 0.07647412270307541, -0.28780508041381836, 0.15642289817333221, -0.10863859206438065, 0.15771228075027466, 0.09236519783735275, -0.082333505153656, -0.17023959755897522, 0.09060141444206238, 0.24922630190849304, 0.0414462685585022, -0.17447754740715027, 0.07418046146631241, 0.06925981491804123, -0.060222823172807693, 0.05037830397486687, 0.5311843752861023, 0.11582524329423904, 0.6824384331703186, -0.7964915037155151, -0.7728370428085327, -0.09856802225112915, 0.05614037439227104, -0.2017001360654831, 0.42726191878318787, 0.307222455739975, -1.044054388999939, 0.5240742564201355, 0.027340427041053772, -0.633588433265686, -0.1410685032606125, -0.1559593826532364, -0.005663488060235977, -0.206257164478302, 0.6526815295219421, -0.3088203966617584, 0.03114575892686844, -0.0312877893447876, -0.04235047474503517, -0.1257690042257309, -0.2125541716814041, -0.00954250618815422, 0.08334363996982574, 0.15735092759132385, 0.2123127579689026, -0.02385873906314373, -0.059892356395721436, 0.014441927894949913, 0.08702129125595093, -0.1719612330198288, -0.15117262303829193, -0.16535505652427673, 0.25968649983406067, 0.03497190773487091, 0.15272857248783112, -0.15231212973594666, -0.06518905609846115, -0.15641693770885468, -0.26764678955078125, 0.03283213824033737, -0.187741219997406, -0.1358058899641037, 0.20434747636318207, 0.20482668280601501, 0.22061525285243988, 0.26677754521369934, -0.4817344844341278, -0.2562873065471649, 0.039268262684345245, -0.35192978382110596, -0.03246888890862465, 0.04224788025021553, 0.392962247133255, -0.2234368473291397, -0.043238405138254166, -0.48576217889785767, -0.09069972485303879, 0.0007286036270670593, 0.06233939900994301, 0.10674797743558884, -0.043848615139722824, -0.15499243140220642, -0.19634011387825012, 0.11661266535520554, 0.2868485748767853, 0.10339807718992233, 0.12786340713500977, -0.06191616132855415, -0.18547885119915009, -0.23987014591693878, 0.08988465368747711, -0.14790622889995575, 0.029048288241028786, 0.12408488988876343, -0.03928245231509209, -0.16592271625995636, 0.010290104895830154, 0.06433247774839401, 0.035936981439590454, -0.1092417985200882, -0.10137012600898743, -0.0560506172478199, 0.18323871493339539, -0.1610359102487564, 0.19228589534759521, 0.26572373509407043, 0.47718697786331177, 0.21375490725040436, -0.255968302488327, -0.3906044065952301, -0.06331401318311691, -0.2044345736503601, -0.3714927136898041, 0.2597905993461609, 0.193429097533226, 0.35528504848480225, -0.33049342036247253, 0.08106118440628052, 0.05995509773492813, -0.14162738621234894, 0.21123968064785004, 0.2561967968940735, -0.16889508068561554, 0.264695942401886, 0.14546890556812286, 0.1318812519311905, -0.20895136892795563, 0.05086975544691086, 0.07243718951940536, -0.20359207689762115, -0.21979351341724396, 0.06766313314437866, -0.15716706216335297, -0.0012311955215409398, 0.23749881982803345, 0.22813211381435394, -0.19150994718074799, 0.00808129832148552, -0.04594540223479271, -0.012797879986464977, 0.0383685901761055, 0.24142956733703613, 0.07420194149017334, -0.09996592998504639, -0.014280525036156178, 0.21270905435085297, 0.03227055445313454, 0.08849691599607468, 0.33501332998275757, -0.29358163475990295, -0.13375921547412872, 0.09630292654037476, 0.08480983972549438, -0.048126593232154846, -0.032923903316259384, 0.07604940980672836, -0.17024146020412445, 0.21121558547019958, 0.10892835259437561, -0.12740282714366913, -0.1640160083770752, -0.08138315379619598, -0.053945645689964294, -0.25701504945755005, 0.41424888372421265, -0.12115244567394257, -0.3897267282009125, -0.2611982226371765, -0.2438853234052658, -0.18484625220298767, -0.04537090286612511, -0.16548816859722137, 0.25258609652519226, 0.42713478207588196, -0.11848057061433792, 0.01129982527345419, -0.042787667363882065, 0.029523266479372978, -0.015245347283780575, 0.0739382654428482, -0.3022209107875824, 0.3701244592666626, -0.3773505687713623, 0.1047096699476242, -0.2798064947128296, -0.12865488231182098, 0.23582623898983002, 0.014749148860573769, -0.00048338252236135304, -0.20252427458763123, 0.2319980412721634, -0.0035980455577373505, -0.24278537929058075, 0.20562106370925903, -0.7002694606781006, -0.044657837599515915, 0.11123394966125488, 0.16763260960578918, -0.017397498711943626, -0.22965045273303986, 0.1948695033788681, -0.08801998943090439, 0.0317569263279438, -0.286658376455307, -0.2753073275089264, 0.04753488302230835, 0.30876684188842773, -0.1514032632112503, 0.1409364938735962, 0.22477124631404877, 0.06386245787143707, -0.23162619769573212, 0.1483883261680603, -0.14470575749874115, 0.07169361412525177, -0.05916336551308632, -0.2145622819662094, 0.13110914826393127, 0.03862670436501503, 0.2623409330844879, -0.3087409734725952, 0.1678851991891861, -0.21625298261642456, -0.09306485205888748, 0.1606796383857727, 0.2947242856025696, 0.18715152144432068, 0.25905266404151917, 0.015217568725347519, -0.10804478079080582, -0.18073756992816925, -0.18900936841964722, 0.18540005385875702, 0.08663825690746307, -0.05797499045729637, -0.1686304211616516, -0.2666603624820709, 0.020131567493081093, 0.09141139686107635, -0.27730363607406616, -0.1720941960811615, 0.07052873820066452, -0.10852988809347153, 0.28996938467025757, 0.09243862330913544, 0.06589826196432114, -0.0967002660036087, -0.29732397198677063, 0.01019616611301899, 0.3594667315483093, 0.0504867285490036, -0.23320358991622925, -0.19352957606315613, -0.17124943435192108, -0.04500103369355202, 0.1464289128780365, 0.6143612265586853, 0.10809585452079773, 0.3237262964248657, 0.01914776675403118, 0.14570023119449615, -0.27642515301704407, 0.2432081252336502, 0.06186504289507866, -0.0597689189016819, 0.016074765473604202, -0.3636036217212677, 0.10527819395065308, -0.053918976336717606, -0.2495185136795044, 0.003224182641133666, 0.0940501019358635, -0.08292658627033234, 0.34814152121543884, -0.14657166600227356, -0.23281718790531158, -0.16502492129802704, -0.39138466119766235, 0.3386973440647125, -0.33841678500175476, -0.0571439303457737, 0.37618064880371094, -0.18300722539424896, -0.049467917531728745, 0.02653682418167591, -0.07898814976215363, 0.18558041751384735, 0.13334257900714874, -0.1642153114080429, -0.04491734504699707, -0.0015360349789261818, -0.024147097021341324, 0.040945108979940414, 0.05564991012215614, -0.01582193747162819, 0.043211791664361954, -0.12505298852920532, 0.14102180302143097, -0.009101658128201962, 0.05391618609428406, 0.006327442824840546, -0.2181355357170105, -0.08755093067884445, 0.06804140657186508, 0.08323581516742706, -0.23971125483512878, 0.03890061005949974, -0.11543932557106018, 0.1758153736591339, -0.0760410949587822, -0.060144152492284775, 0.310451477766037, -0.22715596854686737, -0.09537646919488907, 0.2416905164718628, 0.007462755776941776, 0.11349696666002274, -0.1831137239933014, -0.05535350367426872, 0.08142279833555222, -0.23459091782569885, 0.09716116636991501, 0.038786813616752625, 0.03712041303515434, 0.03302768990397453, 0.03426731750369072, -0.03470839560031891, -0.16972896456718445, -0.18314488232135773, 0.178268164396286, -0.15413053333759308, 0.12102413177490234, -0.10579606890678406, -0.008176164701581001, 0.056148894131183624, 0.3747107982635498, -0.1832476705312729, -0.014459669589996338, -0.2815052270889282, -0.017124056816101074, 0.0005357339978218079, 0.02807455137372017, 0.13546927273273468, -0.1606738269329071, 0.21351860463619232, 0.0025203428231179714, 0.1373477429151535, -0.21440011262893677, 0.08334439247846603, 0.06500839442014694, -0.010757635347545147, 0.0316532664000988, -0.06416263431310654, 0.22099225223064423, 0.120817631483078, 0.11527600139379501, 0.0068663861602544785, -0.01129099540412426, -0.2318720519542694, -0.47345229983329773, -0.2663280963897705, 0.12436731159687042, 0.008292410522699356, 0.06679142266511917, 0.17501355707645416, -0.17541147768497467, 0.13313448429107666, 0.056154828518629074, 0.24438686668872833, 0.04541026055812836, -0.2500159442424774, 0.18704137206077576, 0.08372779935598373, -0.36177074909210205, 0.36502695083618164, -0.269782155752182, 0.1347421556711197, -0.07634541392326355, 0.07519258558750153, -0.03178385645151138, 0.08145622909069061, 0.1210588663816452, 0.2663569748401642, -0.36966726183891296, 0.01759156957268715, 0.2223702371120453, 0.522343099117279, -0.2552447021007538, -0.1474161446094513, -0.09265703707933426, -0.1619487851858139, 0.1648799479007721, -0.30840498208999634, -0.1040421724319458, -0.1455526202917099, 0.0912744477391243, -0.20086263120174408, -0.1475752592086792, -0.018822962418198586, -0.02004605159163475, 0.009517878293991089, -0.22825829684734344, 0.15786917507648468, -0.02187420055270195, 0.24940043687820435, 0.010355833917856216, -0.005680306814610958, 0.0934295803308487, 0.0636793002486229, -0.26417240500450134, 0.1264193058013916, -0.03843485191464424, 0.03522206470370293, -0.3238346576690674, -0.048873741179704666, 0.1846039742231369, -0.02091820165514946, 0.07885196059942245, -0.09511920064687729, 0.038711514323949814, -0.2159874588251114, -0.03544336184859276, -0.13562825322151184, 0.16489529609680176, -0.04870075359940529, 0.023288562893867493, 0.01307724416255951, -0.12675975263118744, -0.07517813891172409, -0.09523992240428925, 0.09417247027158737, 0.3941538333892822, 0.1336006373167038, 0.30310961604118347, -0.14076878130435944, 0.04516104236245155, 0.140826016664505, 0.05340087041258812, 0.16595831513404846, 0.0697227343916893, 0.3359620273113251, 0.06736929714679718, 0.17207901179790497, -0.10772458463907242, 0.10708793252706528, 0.23485371470451355, -0.21056269109249115, 0.06975463032722473, 0.07045520097017288, -0.21337075531482697, 0.019067587330937386, -0.08627176284790039, 0.10271799564361572, -0.021428164094686508, 0.16742101311683655, 0.20999208092689514, -0.0541396364569664, -0.042052578181028366, 0.0019382666796445847, 0.07010278850793839, 0.0742075964808464, -0.057485852390527725, 0.017340408638119698, 0.02894008718430996, -0.25781527161598206, 0.03194312006235123, 0.04231077432632446, 0.05318295583128929, 0.12248977273702621, 0.09107045084238052, -0.12387848645448685, -0.1372075378894806, -0.14203813672065735, 0.05139686167240143, 0.00667378818616271, -0.20217329263687134, -0.10134788602590561, -0.04263516142964363, -0.07118851691484451, 0.38593629002571106, 0.018793940544128418, 0.018210744485259056, -0.19504615664482117, -0.01649850234389305, 0.09283314645290375, 0.07457278668880463, 0.08038567751646042, -0.14238326251506805, 0.2561603784561157, -0.07497352361679077, 0.2716905474662781, -0.1800881177186966, 0.06258231401443481, 0.26101842522621155, -0.0695444792509079, -0.007253377698361874, -0.3118010461330414, 0.02236759476363659, 0.2794826030731201, 0.11102285236120224, -0.02442930079996586, -0.1459842026233673, 0.07299663871526718, 0.05743702873587608, 0.16014041006565094, -0.0027608259115368128, 0.1337994933128357, -0.06642545014619827, -0.048176754266023636, 0.10105855017900467, 0.14466632902622223, -0.05085466057062149, -0.006649643182754517, -0.06860244274139404, 0.2781788110733032, 0.02526947483420372, -0.16658742725849152, 0.06075257062911987, -0.0385432168841362, 0.03709007427096367, 0.20356570184230804, -0.04896164312958717, 0.18117977678775787, 0.12039986252784729, -0.02561347372829914, -0.03975365310907364, 0.20299139618873596, 0.11040221154689789, -0.28379833698272705, 0.2603767514228821, -0.2581193745136261, -0.024398740381002426, -0.2984047532081604, -0.02198350988328457, -0.10889266431331635, 0.13632255792617798, 0.0766933262348175, -0.21365323662757874, -0.2049020528793335, -0.1109936386346817, 0.32605376839637756, -0.23396028578281403, -0.006039638537913561, 0.2920576333999634, -0.10842099040746689, 0.2454203963279724, -0.14324802160263062, 0.05195363983511925, -0.09320304542779922, 0.13121214509010315, 0.026180937886238098, -0.20973098278045654, -0.0775076150894165, 0.09079344570636749, 0.03291350230574608, -0.020083244889974594, -0.10807298868894577, 0.025377441197633743, -0.045667242258787155, -0.26286154985427856, 0.06501881778240204, 0.05321791023015976, 0.21236951649188995, -0.04667914658784866, -0.05275135859847069, 0.08338074386119843, 0.16870704293251038, -0.10464677214622498, -0.0332135446369648, -0.2484423965215683, 0.029446860775351524, 0.19737406075000763, -0.08362693339586258, -0.13468323647975922, -0.03811408206820488, -0.23797789216041565, -0.08723295480012894, -0.1505826860666275, 0.2336764931678772, 0.056273020803928375, -0.10368406772613525, -0.13709117472171783, -0.11011764407157898, -0.1749587059020996, -0.29632729291915894, 0.002268856158480048, 0.06998920440673828, 0.22139085829257965, -0.057784877717494965, -0.09159832447767258, 0.1771080642938614, 0.003783981315791607, 0.04059601575136185, -0.16890661418437958, 0.01426807139068842, -0.15342079102993011, -0.11944403499364853, -0.07338771224021912, 0.034096475690603256, 0.2904134690761566, -0.010136266238987446, -0.23281389474868774, 0.048349104821681976, 0.02140105329453945, 0.41156360507011414, 0.14323188364505768, -0.08589846640825272, 0.15705235302448273, -0.058436404913663864, 0.010274944826960564, -0.2503667175769806, -0.07025598734617233, 0.010562952607870102, 0.13470081984996796, -0.046281296759843826, -0.09737885743379593, -0.27358224987983704, 0.1922859251499176, -0.02276979759335518, -0.31238260865211487, -0.022190116345882416, -0.016090229153633118, -0.14865602552890778, 0.38855472207069397, -0.027600649744272232, 0.19945846498012543, -0.36464136838912964, 0.107053741812706, 0.1916799396276474, 0.14129750430583954, 0.08545374125242233, -0.10614268481731415, 