{"version": "0.5.1", "metadata": {"date": {"year": 2023, "month": 6, "day": 30, "hour": 5, "minute": 42, "second": 54}, "loudness": -14.544950485229492, "gain": 0.8090698406034488, "name": "", "modeled_by": "", "gear_type": "amp", "gear_make": "", "gear_model": "", "tone_type": "clean"}, "architecture": "WaveNet", "config": {"layers": [{"input_size": 1, "condition_size": 1, "head_size": 8, "channels": 16, "kernel_size": 3, "dilations": [1, 2, 4, 8, 16, 32, 64, 128, 256, 512], "activation": "Tanh", "gated": false, "head_bias": false}, {"input_size": 16, "condition_size": 1, "head_size": 1, "channels": 8, "kernel_size": 3, "dilations": [1, 2, 4, 8, 16, 32, 64, 128, 256, 512], "activation": "Tanh", "gated": false, "head_bias": true}], "head": null, "head_scale": 0.02}, "weights": [0.0007833824492990971, 0.25309446454048157, -0.8541044592857361, -0.7007385492324829, -0.30658552050590515, 0.1675892025232315, 0.017798803746700287, 0.7388476133346558, -0.0656648501753807, 0.20923781394958496, -0.200191929936409, 0.016307564452290535, -0.898363471031189, -0.6235901117324829, -0.6577219367027283, -0.02870255894958973, 0.1477290689945221, 0.17166447639465332, -0.094015933573246, -0.05062820389866829, -0.06469139456748962, 0.11669592559337616, -0.04424142837524414, 0.22081896662712097, -0.013005346059799194, 0.0029716878198087215, 0.2395726591348648, -0.13112394511699677, -0.10341273248195648, 0.07687858492136002, -0.04283631965517998, 0.13916932046413422, -0.199701726436615, -0.06538339704275131, 0.0043005794286727905, -0.05439647287130356, -0.11530594527721405, 0.13479642570018768, -0.04045521095395088, 0.06496382504701614, 0.00017684434715192765, 0.03938588500022888, -0.014243713580071926, -0.1147041991353035, -0.1948203593492508, -0.0530272014439106, 0.06996303796768188, 0.17837022244930267, -0.08201306313276291, 0.07331962138414383, 0.2120806872844696, 0.09562697261571884, 0.047573868185281754, 0.12671126425266266, 0.10384438931941986, -0.09611701220273972, 0.13119307160377502, -0.10552754998207092, -0.11171837151050568, 0.0487690307199955, 0.0714535340666771, -0.05388624966144562, -0.02090601995587349, -0.04724214971065521, 0.0016684887232258916, -0.030794430524110794, -0.06066414713859558, 0.04729987680912018, 0.16327299177646637, -0.020492928102612495, -0.12711729109287262, -0.13137982785701752, 0.21421919763088226, 0.1026558130979538, 0.04877718538045883, 0.2852533757686615, 0.005945304408669472, -0.20648683607578278, 0.1689671277999878, -0.06864030659198761, -0.05597418546676636, -0.02136305533349514, 0.07318566739559174, -0.13707326352596283, 0.046301573514938354, -0.00595499761402607, 0.051647186279296875, -0.22231432795524597, 0.02703917771577835, -0.1703692078590393, 0.20258893072605133, 0.09150651097297668, 0.17308364808559418, -0.10855323076248169, -0.15835662186145782, -0.1616862416267395, 0.23159630596637726, -0.029060928151011467, -0.14044189453125, -0.01596144214272499, 0.1170816570520401, 0.020323362201452255, 0.09277866035699844, -0.0556253120303154, -0.2138247787952423, 0.152538001537323, -0.12957796454429626, -0.19824786484241486, 0.14709603786468506, -0.049823787063360214, -0.22339585423469543, 0.18560642004013062, 0.006406981963664293, 0.05281780660152435, 0.15879836678504944, -0.23281651735305786, 0.11484595388174057, -0.06611897051334381, 0.1276199370622635, -0.11780738085508347, 0.1272333562374115, 0.1147666946053505, -0.21777047216892242, 0.1404161900281906, -0.017750190570950508, -0.2252127230167389, 0.044166818261146545, -0.17997615039348602, 0.0766979530453682, -0.19845281541347504, -0.06233104690909386, 0.005411705933511257, -0.03704923391342163, -0.11054520308971405, 0.24759502708911896, -0.08661910891532898, 0.15023501217365265, -0.13390327990055084, 0.14740131795406342, -0.02651829458773136, 0.2614598870277405, -0.0006790247862227261, 0.2500903904438019, -0.14721563458442688, -0.04270170256495476, 0.022123627364635468, -0.02208900824189186, 0.08588212728500366, 0.030614595860242844, -0.25621193647384644, -0.06555484235286713, -0.018013987690210342, -0.16999946534633636, 0.15004116296768188, 0.2049637734889984, -0.29827946424484253, 0.17482931911945343, 0.12937556207180023, -0.18280360102653503, 0.11303718388080597, -0.09401948750019073, 0.052712492644786835, -0.1414203643798828, -0.12942726910114288, -0.2155562788248062, 0.12557189166545868, -0.05045122653245926, 0.2504119277000427, -0.2464148998260498, 0.007099112495779991, 0.31871598958969116, -0.17661166191101074, 0.13371849060058594, 0.236246719956398, -0.25558996200561523, 0.07518339157104492, -0.19804760813713074, 0.053881339728832245, 0.061203133314847946, -0.15061326324939728, -0.13585810363292694, -0.04835331067442894, -0.0835096538066864, 0.15705998241901398, 0.06326757371425629, 0.2316966950893402, -0.1875426173210144, -0.03094584308564663, -0.2820161283016205, 0.22046464681625366, 0.11921167373657227, 0.272996723651886, -0.23743712902069092, -0.026890423148870468, 0.05832478404045105, -0.22529210150241852, -0.06468433141708374, 0.23809656500816345, -0.20053599774837494, 0.015076974406838417, 0.19045667350292206, -0.02189921960234642, -0.1021447628736496, 0.10796810686588287, -0.20885884761810303, 0.15184496343135834, 0.2612406015396118, 0.03600366786122322, -0.16158001124858856, 0.04862894490361214, 0.09402380883693695, 0.17504414916038513, -0.16270983219146729, -0.12054034322500229, -0.1977851688861847, 0.2122846096754074, -0.02320670150220394, -0.2724533975124359, 0.30754581093788147, -0.02804720029234886, -0.22257044911384583, 0.3190509080886841, 0.13055230677127838, 0.18842147290706635, -0.3160742223262787, -0.019552452489733696, -0.10363511741161346, 0.07236631214618683, 0.17567048966884613, 0.1754956692457199, -0.18680883944034576, 0.03522860258817673, -0.19565001130104065, 0.3081485331058502, 0.1698247194290161, 0.12064952403306961, -0.10223401337862015, -0.17108651995658875, -0.26195091009140015, 0.22887460887432098, 0.1277807354927063, -0.10745186358690262, 0.06533420830965042, 0.05751810222864151, -0.12104547023773193, 0.049650419503450394, 0.19125919044017792, -0.31519243121147156, 0.18996599316596985, 0.06230703741312027, -0.2890104651451111, 0.21631675958633423, 0.20813171565532684, -0.12112744897603989, 0.2594062089920044, 0.21098068356513977, -0.055445991456508636, 0.03742997348308563, 0.022080184891819954, -0.16109837591648102, 0.06554297357797623, 0.023312730714678764, 0.13838373124599457, -0.041800059378147125, 0.11338099837303162, 0.013968141749501228, -0.18871894478797913, 0.10523393005132675, 0.19288183748722076, -0.10198643803596497, -0.00031972923898138106, -0.13374319672584534, -0.00527814170345664, -0.04091716185212135, -0.0846189633011818, -0.12873142957687378, 0.21565650403499603, -0.15436410903930664, 0.13016976416110992, -0.021883556619286537, 0.10076253861188889, -0.2171105295419693, -0.015009111724793911, 0.041469674557447433, 0.15312200784683228, 0.04024308919906616, 0.020470809191465378, -0.09657496958971024, 0.04300884157419205, 0.06889069080352783, -0.17451666295528412, 0.1291930228471756, 0.10557878762483597, -0.15021003782749176, 0.028783520683646202, -0.027687879279255867, -0.044236376881599426, -0.04460294917225838, 0.13761673867702484, -0.20412346720695496, 0.0016072530997917056, 0.20845502614974976, -0.19222216308116913, 0.16667082905769348, 0.14331169426441193, -0.20561321079730988, 0.051400505006313324, -0.07885784655809402, 0.15727637708187103, -0.1480935662984848, 0.016381513327360153, -0.11755351722240448, 0.18443728983402252, 0.0820423886179924, -0.033899374306201935, 0.2323611080646515, 0.0671662837266922, -0.08907613903284073, 0.19335217773914337, -0.11719657480716705, 0.08871163427829742, -0.11666614562273026, -0.12789535522460938, -1.1454661944299005e-05, 0.1392315775156021, -0.0022274195216596127, 0.16879108548164368, -0.11718924343585968, 0.23425382375717163, -0.1444927155971527, 0.049897246062755585, -0.27354851365089417, 0.2071368247270584, -0.0642615333199501, 0.04505060985684395, -0.01912182942032814, 0.2609287202358246, 0.20479589700698853, -0.007175207603722811, 0.2046697437763214, 0.09729395806789398, -0.13733698427677155, 0.2514978051185608, 0.21158647537231445, -0.16857010126113892, 0.2638302743434906, 0.22425861656665802, -0.02823546528816223, 0.05412159115076065, 0.28463757038116455, -0.17708536982536316, 0.32192912697792053, 0.01715964637696743, -0.12435754388570786, -0.11746980249881744, -0.024994591251015663, 0.13802827894687653, 0.08562295138835907, -0.014487748965620995, -0.15280257165431976, -0.11626514792442322, -0.05844590812921524, -0.29882073402404785, 0.09629470109939575, 0.16983267664909363, -0.04286373779177666, 0.10328708589076996, -0.21426180005073547, 0.08560881018638611, -0.0034928659442812204, -0.06178890913724899, -0.014822687953710556, -0.16053436696529388, -0.1492268443107605, 0.03677015006542206, -0.06341002881526947, 0.22606168687343597, -0.07494663447141647, 0.10998324304819107, 0.015476097352802753, 0.2874561846256256, -0.04168246313929558, 0.15692861378192902, -0.040425218641757965, 0.04544942453503609, 0.17120330035686493, -0.11697746068239212, 0.07189024239778519, 0.026092717424035072, -0.10987620055675507, -0.004746762104332447, 0.04493210092186928, -0.2568599581718445, -0.10120859742164612, -0.018031785264611244, -0.1019146591424942, 0.08808708190917969, 0.1964685469865799, -0.26678282022476196, 0.2069544643163681, 0.11330278217792511, -0.09128933399915695, -0.05724218115210533, 0.02827586978673935, 0.1973591446876526, -0.09147334843873978, 0.24040579795837402, -0.034688081592321396, -0.07204311341047287, 0.18449629843235016, -0.22320333123207092, -0.04112398624420166, 0.23840096592903137, -0.12613645195960999, -0.11225685477256775, -0.15431882441043854, 0.08663599193096161, -0.019181333482265472, -0.06046050041913986, 0.0734977126121521, 0.0013564007822424173, -0.1914781630039215, 0.14789585769176483, 0.08632621169090271, 0.20599034428596497, -0.2445191890001297, -0.011103134602308273, -0.222610205411911, 0.0625545084476471, 0.05448499321937561, 0.005045170430094004, -0.08183428645133972, 0.11484213173389435, 0.07074535638093948, -0.17967388033866882, -0.032919082790613174, 0.1333751231431961, -0.25123241543769836, 0.052261728793382645, -0.027558481320738792, -0.27669817209243774, -0.1581273376941681, 0.08997022360563278, -0.04752170294523239, -0.14717499911785126, 0.3116839826107025, -0.16324570775032043, 0.08849941194057465, 0.06674765795469284, -0.15379871428012848, 0.19448335468769073, 0.03240175172686577, 0.2669874429702759, -0.015172671526670456, -0.05354588106274605, -0.002531222300603986, 0.10241341590881348, 0.11061792820692062, -0.23503130674362183, 0.05535897985100746, -0.09624043107032776, -0.17617975175380707, 0.12140136957168579, -0.15110741555690765, 0.1537834256887436, -0.019875507801771164, 0.057549890130758286, -0.030527804046869278, 0.027483180165290833, -0.08707363903522491, 0.18040671944618225, 0.04482409358024597, 0.1401529312133789, -0.1135016530752182, 0.17696630954742432, -0.19462226331233978, -0.022047745063900948, -0.044036053121089935, -0.03208710253238678, -0.03629631549119949, 0.008645808324217796, -0.08764863014221191, -0.17978227138519287, 0.14634457230567932, 0.026752790436148643, -0.008204367943108082, 0.18415020406246185, 0.12168501317501068, -0.111087866127491, 0.051634762436151505, 0.019939685240387917, -0.10970410704612732, 0.1724580079317093, 0.016311895102262497, 0.04784516617655754, 0.15521898865699768, -0.13089367747306824, -0.18635690212249756, 0.14319849014282227, 0.16781799495220184, 0.09271738678216934, 0.02734280563890934, 0.03934333473443985, -0.14308474957942963, 0.18786416947841644, -0.11377805471420288, -0.17831069231033325, 0.13158409297466278, -0.07524143904447556, -0.17566604912281036, 0.028623852878808975, 0.11943939328193665, 0.18375395238399506, -0.13396070897579193, 0.09822391718626022, 0.011024718172848225, 0.164221853017807, 0.05152991786599159, 0.3010048270225525, -0.08502880483865738, 0.023334303870797157, -0.25966155529022217, 0.16361376643180847, -0.07803738862276077, 0.11538759618997574, -0.17185422778129578, 0.10751032829284668, -0.24401775002479553, 0.09209174662828445, -0.1123492643237114, -0.08082742989063263, 0.24534350633621216, -0.14926458895206451, -0.3365916311740875, -0.04031229764223099, -0.037795890122652054, -0.2538102865219116, -0.02376164123415947, -0.0852406695485115, -0.21126548945903778, -0.008247015997767448, 0.11051174253225327, -0.2669501006603241, 0.05994032323360443, 0.20866084098815918, 0.21653702855110168, -0.006689366418868303, -0.11376844346523285, -0.23323184251785278, 0.25464528799057007, -0.01582607626914978, 0.04138784483075142, 0.023390987887978554, 0.03130112960934639, 0.2055395096540451, -0.13347530364990234, 0.08392727375030518, 0.14056411385536194, -0.031583674252033234, -0.10495781153440475, -0.3050437271595001, 0.04511665180325508, 0.03201298415660858, 0.005157691892236471, -0.29747676849365234, 0.013198288157582283, -0.20614831149578094, 0.09598680585622787, 0.21781261265277863, 0.23100291192531586, -0.029775114730000496, -0.02893275022506714, -0.20052100718021393, 0.04526212811470032, 0.10572002083063126, 0.28231388330459595, -0.1817461997270584, 0.01174951996654272, 0.18036295473575592, 0.04378408193588257, 0.08278578519821167, 0.05717574805021286, -0.25043216347694397, 0.15701016783714294, 0.16000276803970337, -0.1967802792787552, 0.14951133728027344, 0.2403060346841812, -0.007576005533337593, 0.1584010124206543, 0.15922820568084717, -0.25021031498908997, -0.028513817116618156, 0.0026303830090910196, 0.10999051481485367, -0.055005013942718506, 0.008705861866474152, -0.010359046049416065, 0.2475324273109436, -0.0037582358345389366, 0.01597825437784195, 0.056920114904642105, -0.22656972706317902, 0.2785142660140991, 0.049373380839824677, -0.19959098100662231, 0.21164090931415558, -0.16923142969608307, 0.057903729379177094, -0.143788680434227, -0.050670772790908813, -0.27396833896636963, 0.0756884440779686, -0.17275942862033844, 0.17360541224479675, -0.015011674724519253, 0.19456933438777924, -0.11183270066976547, 0.28329670429229736, -0.10256226360797882, 0.040629904717206955, -0.020819446071982384, 0.15517084300518036, -0.25622668862342834, 0.11300700157880783, -0.04603002220392227, -0.05979948118329048, 0.08438929170370102, -0.024110151454806328, -0.13340161740779877, 0.22930072247982025, 0.14496465027332306, -0.07629631459712982, 0.15079344809055328, 0.1706855744123459, -0.18105870485305786, 0.08744125068187714, 0.049150653183460236, -0.2651655077934265, 0.2508617341518402, -0.13698625564575195, 0.0815248116850853, 0.10811468213796616, 0.1458449810743332, -0.22885850071907043, -0.0346841886639595, -0.21797411143779755, 0.2635878920555115, 0.0618971511721611, -0.16890248656272888, 0.22221681475639343, 0.11722149699926376, -0.02816752716898918, 0.03004041686654091, 0.04281988739967346, 0.07211851328611374, -0.10809031873941422, -0.028858758509159088, -0.0456286184489727, 0.08878926932811737, 0.02265908755362034, 0.10259533673524857, -0.03819311782717705, -0.2848755717277527, -0.14219947159290314, 0.25292882323265076, 0.13589651882648468, 0.25530242919921875, -0.17587910592556, -0.04727435111999512, -0.27542349696159363, 0.12051715701818466, 0.1431373804807663, -0.09886081516742706, 0.07201774418354034, 0.15183192491531372, -0.15503568947315216, 0.13851593434810638, 0.2735854685306549, -0.17448164522647858, 0.2688849866390228, 0.07666654884815216, -0.16433843970298767, 0.13283304870128632, 0.23860786855220795, -0.027127861976623535, 0.13086318969726562, 0.09449520707130432, 0.12871092557907104, -0.013480624184012413, -0.0018656328320503235, -0.14968205988407135, 0.1393888294696808, 0.11511935293674469, 0.06802156567573547, -0.18785937130451202, 0.1312624216079712, -0.05279042199254036, -0.021198026835918427, 0.04688753932714462, -0.006282236892729998, 0.007687428500503302, -0.09784488379955292, -0.01676960289478302, -0.04611727222800255, -0.03226365149021149, -0.0022472888231277466, 0.05340024456381798, -0.15171515941619873, 0.04199622943997383, 0.03795627877116203, -0.09269867092370987, -0.07132065296173096, -0.17623856663703918, 0.14585810899734497, -0.08268982172012329, 0.05929682031273842, 0.027454201132059097, 0.14535698294639587, 0.06910514086484909, 0.1284283995628357, -0.04347929358482361, -0.03322098031640053, -0.09247931838035583, -0.030408060178160667, -0.022184783592820168, 0.1606094092130661, -0.06422623991966248, 0.033999525010585785, -0.04995748773217201, 0.037358760833740234, 0.0653802752494812, 0.0038494060281664133, 0.09597187489271164, -0.1285397708415985, 0.15559262037277222, 0.021008413285017014, -0.09726515412330627, 0.03176192194223404, -0.09553414583206177, -0.0948895663022995, 0.2566753625869751, 0.10178547352552414, -0.06616485118865967, -0.18268093466758728, 0.1130196675658226, 0.07071606814861298, -0.32544592022895813, -0.015623592771589756, -0.061843253672122955, -0.3616212010383606, 0.0029192010406404734, 0.125238299369812, 0.3576458692550659, 0.0410933680832386, 0.08161401748657227, -0.08038613945245743, 0.11955726891756058, -0.03332328423857689, 0.14518101513385773, 0.03550431877374649, 0.08173537999391556, -0.3671712875366211, 0.1348140388727188, 0.07515849173069, 0.14446966350078583, -0.041420772671699524, 0.09440291672945023, -0.358158677816391, 0.07848147302865982, 0.08433092385530472, -0.2115674763917923, 0.06829595565795898, 0.04935755580663681, -0.15707921981811523, -0.10133381187915802, 0.1183634027838707, -0.3305701017379761, 0.1407880038022995, -0.1573302000761032, -0.37926217913627625, 0.10276886075735092, 0.025401173159480095, -0.27361777424812317, -0.04873327165842056, -0.10217767208814621, -0.057719625532627106, -0.10354026407003403, 0.046894464641809464, 0.0036920008715242147, 0.008749178610742092, -0.01644228957593441, 0.02057468518614769, 0.05532826483249664, -0.009737825952470303, 0.04927850514650345, -0.02671574428677559, 0.11904755979776382, -0.001032860018312931, 0.05707462877035141, 0.4325088858604431, -0.585406482219696, 0.7362390160560608, -0.5935620069503784, -0.08331242203712463, 0.8448851704597473, 0.8641669750213623, -0.5560745596885681, 0.20399758219718933, 0.025515606626868248, -0.531208872795105, -0.23034849762916565, 0.1332063376903534, -0.8756772875785828, 0.13782796263694763, 0.6821556687355042, -0.08894332498311996, 0.16300198435783386, 0.0510072186589241, 0.13234280049800873, 0.1033959686756134, -0.029297232627868652, 0.20308205485343933, 0.11921071261167526, -0.01222129724919796, 0.012515134178102016, 0.20311710238456726, -0.1738496869802475, 0.10747801512479782, 0.030749604105949402, -0.03436940163373947, -0.08004077523946762, 0.07867005467414856, -0.14826221764087677, -0.29600250720977783, 0.17294524610042572, 0.030107880011200905, -0.08852922916412354, -0.16459640860557556, -0.024831043556332588, -0.09262209385633469, 0.1962963044643402, -0.2656192183494568, 0.15516476333141327, 0.00653483159840107, -0.10567964613437653, 0.023577410727739334, 0.2512611150741577, 0.032973237335681915, 0.12248259782791138, -0.03582439571619034, 0.03363075479865074, -0.20561186969280243, -0.17288769781589508, 0.08722929656505585, -0.15620802342891693, 0.008734205737709999, -0.14665353298187256, 0.20054137706756592, -0.1705518513917923, 0.20076604187488556, 0.3313409686088562, -0.015003674663603306, -0.19656617939472198, 0.1714119166135788, -0.09977217763662338, -0.05029419809579849, -0.14285214245319366, 0.013537581078708172, 0.09620397537946701, 0.04153468832373619, 0.03500829264521599, -0.18473659455776215, -0.011864247731864452, 0.048541199415922165, -0.10147633403539658, 0.1119522750377655, 0.27097734808921814, 0.00018569393432699144, -0.06479083746671677, -0.1594618856906891, -0.2234676629304886, -0.21035145223140717, 0.028073566034436226, -0.02721628174185753, 0.15432821214199066, 0.2627098262310028, -0.014775225892663002, 0.13319525122642517, 0.2584823668003082, -0.2016616314649582, 0.2850290834903717, 0.10816524922847748, 0.14472830295562744, 0.00879009161144495, 0.102904312312603, -0.16794882714748383, 0.020299816504120827, 0.003024900797754526, 0.09772663563489914, 0.3520059585571289, 0.12413456290960312, 0.11813265830278397, 0.033133700489997864, 0.0773506611585617, -0.02857087552547455, -0.2465905100107193, -0.03320186957716942, -0.054771292954683304, -0.07975458353757858, -0.013061917386949062, 0.07599970698356628, 0.23647530376911163, 0.08576226979494095, 0.2702421247959137, 0.22969962656497955, -0.48461976647377014, -0.07839133590459824, 0.14593543112277985, -0.035872213542461395, 0.11573729664087296, -0.3500761389732361, -0.42470794916152954, 0.37234199047088623, 0.36342108249664307, -0.3027972877025604, -0.031090494245290756, -0.019259991124272346, 0.2007872462272644, 0.15590007603168488, 0.26392024755477905, -0.20084445178508759, -0.19629940390586853, 0.09338293969631195, 0.15274739265441895, 0.013254281133413315, 0.08243885636329651, -0.24737043678760529, 0.11328209191560745, -0.15901832282543182, 0.1358182728290558, -0.1553913950920105, -0.022426800802350044, 0.07534913718700409, -0.03810950741171837, -0.002735140500590205, -0.27710843086242676, -0.15507535636425018, 0.1751468926668167, -0.0971919596195221, -0.252034068107605, -0.0727570652961731, -0.23242023587226868, -0.24777653813362122, 0.21096108853816986, 0.08723608404397964, -0.05472516268491745, -0.1071261465549469, -0.0263148732483387, -0.11247557401657104, -0.3519808053970337, 0.06096726655960083, 0.3362494707107544, -0.36696675419807434, -0.2866654098033905, 0.056997742503881454, 0.24681700766086578, -0.0026764150243252516, 0.14585570991039276, 0.2870748043060303, 0.38858503103256226, -0.08591891825199127, 0.2522861361503601, 0.13154762983322144, -0.0006813064101152122, -0.05237135663628578, 0.20487970113754272, 0.12987929582595825, -0.2689153254032135, 0.16527241468429565, -0.12237066775560379, -0.16544046998023987, 0.016352856531739235, -0.12294355779886246, 0.08243494480848312, -0.20787259936332703, -0.2186121940612793, -0.028330055996775627, -0.19560907781124115, 0.14098764955997467, -0.04130119830369949, 0.22729627788066864, 0.19316881895065308, -0.3605338931083679, 0.08563109487295151, 0.1558103710412979, 0.07626670598983765, -0.024437416344881058, -0.03474334999918938, -0.04673020914196968, -0.0004126879503019154, -0.21434834599494934, -0.12202248722314835, -0.16885191202163696, -0.27719011902809143, 0.12063849717378616, -0.030877431854605675, -0.04370134323835373, 0.006940627936273813, -0.1368238478899002, 0.11010938882827759, 0.09729143977165222, -0.08504851907491684, -0.0632510781288147, 0.04473195970058441, 0.007149422075599432, 0.29867884516716003, -0.01628975383937359, -0.1713506281375885, 0.08755684643983841, 0.13868094980716705, -0.23688213527202606, 0.00039160859887488186, 0.21524691581726074, -0.03747096285223961, -0.14122529327869415, -0.03820744529366493, 0.07630740851163864, -0.3126014173030853, 0.2826838791370392, 0.3008778989315033, 0.16698545217514038, 0.040447674691677094, -0.1079360842704773, -0.037496086210012436, -0.020556647330522537, 0.042042993009090424, -0.08356492966413498, -0.039273884147405624, 0.21113531291484833, -0.18987706303596497, 0.36663123965263367, -0.17433315515518188, -0.2756376266479492, 0.19122804701328278, -0.13130898773670197, 0.12942290306091309, 0.20391805469989777, -0.29969167709350586, 0.12204411625862122, 0.08317960053682327, -0.0036716654431074858, 0.17278175055980682, 0.34311443567276, 0.01688217557966709, -0.35299035906791687, -0.029946034774184227, 0.19331736862659454, 0.33043310046195984, -0.29196423292160034, -0.5056105256080627, 0.2679399847984314, 0.2366858571767807, 0.41328296065330505, 0.08856672048568726, -0.025091959163546562, 0.22969847917556763, -0.267711877822876, 0.23012453317642212, 0.1422496736049652, 0.013985159806907177, -0.22204400599002838, 0.09862664341926575, -0.03072286956012249, 0.2240179181098938, -0.27888253331184387, -0.09149114787578583, 0.01007063314318657, 0.0879618376493454, -0.015593189746141434, 0.0051561142317950726, -0.14951813220977783, 0.08503343909978867, 0.016378775238990784, 0.03387294337153435, -0.020102810114622116, 0.1511346697807312, 0.019200196489691734, 0.06479307264089584, 0.18212279677391052, 0.07794269174337387, 0.3268899619579315, -0.4794779121875763, 0.24958854913711548, -0.22720201313495636, 0.05704415589570999, 0.11699913442134857, -0.24297331273555756, -0.05733926221728325, 0.014285718090832233, -0.15096068382263184, -0.30690062046051025, 0.13493244349956512, 0.3628225028514862, 0.022422732785344124, 0.07209283113479614, -0.23778948187828064, -0.3279634416103363, -0.07588900625705719, 0.0955352857708931, 0.07207272946834564, -0.3886122405529022, -0.12616164982318878, 0.00684077525511384, 0.06067546084523201, -0.15235622227191925, 0.38574302196502686, -0.30057311058044434, -0.18412533402442932, -0.25167450308799744, 0.2434816211462021, 0.13351655006408691, -0.38606396317481995, 0.37460389733314514, -0.402571439743042, 0.15481235086917877, -0.22651463747024536, -0.3794718384742737, 0.13954128324985504, -0.4120299816131592, -0.2719482481479645, 0.35334810614585876, 0.13811035454273224, -0.10432346165180206, 0.6703311800956726, -0.46781012415885925, 0.15921670198440552, 0.10024070739746094, 0.4371490180492401, -0.23826037347316742, 0.10576751828193665, -0.045611683279275894, 0.056129563599824905, -0.050009068101644516, 0.4717574715614319, -0.3585307002067566, -0.21333187818527222, -0.07993721961975098, -0.031439438462257385, -0.268047571182251, 0.006455184891819954, -0.06408420950174332, 0.005332391243427992, -0.22650933265686035, 0.2514967620372772, 0.07358571887016296, -0.13759206235408783, 0.20567405223846436, 0.042574260383844376, -0.29388928413391113, -0.10950478166341782, -0.056139323860406876, 0.3073204457759857, 0.1260177195072174, -0.0937897264957428, -0.37379297614097595, 0.022581296041607857, 0.04093204811215401, 0.26046478748321533, -0.18527120351791382, -0.06826578080654144, 0.4063996374607086, 0.37695521116256714, 0.32933369278907776, 0.2459193915128708, 0.28745684027671814, 0.27139970660209656, 0.0935211181640625, 0.005407271906733513, -0.24605292081832886, 0.3515893518924713, 0.10497668385505676, 0.1028657928109169, -0.16390641033649445, 0.0009390884661115706, -0.10102356225252151, -0.0048447176814079285, 0.08087888360023499, 0.21123412251472473, -0.021213702857494354, -0.06996335834264755, -0.0684322789311409, 0.05749129131436348, 0.1171739250421524, -0.04812842607498169, -0.037384238094091415, 0.04835191369056702, 0.0043146186508238316, 0.10861056298017502, -0.04014492407441139, 0.31734758615493774, 0.1060350090265274, -0.021146614104509354, -0.15240547060966492, -0.0545552633702755, -0.06647443026304245, 0.047865793108940125, 0.05647498369216919, 0.030391959473490715, -0.2555001974105835, 0.05697048082947731, -0.006707410793751478, 0.22290559113025665, -0.10095799714326859, -0.1516103446483612, -0.24878259003162384, 0.15392819046974182, 0.2853188216686249, 0.026859210804104805, 0.1761351078748703, -0.10947925597429276, 0.033670712262392044, 0.17984916269779205, -0.07833040505647659, -0.08902964740991592, 0.19085298478603363, -0.08810556679964066, 0.04832508787512779, 0.07948770374059677, -0.14648814499378204, 0.19282059371471405, 0.15233124792575836, -0.12879888713359833, -0.2010950893163681, -0.21403667330741882, -0.2238370180130005, 0.07641428709030151, 0.2243119478225708, 0.19720850884914398, -0.1430698037147522, -0.34057849645614624, 0.19503872096538544, 0.14991280436515808, -0.12650169432163239, -0.05276475101709366, -0.09121828526258469, 0.00587447639554739, -0.24369606375694275, -0.0598568432033062, 0.11951680481433868, 0.07562362402677536, 0.218017578125, -0.0152466781437397, -0.24095621705055237, 0.02804582379758358, 0.10713992267847061, 0.1299399882555008, -0.14561471343040466, 0.009990762919187546, 0.14990895986557007, -0.11516831070184708, -0.09067098051309586, 0.17272856831550598, -0.0784529447555542, 0.01945371925830841, 0.1235201507806778, -0.12057898193597794, 0.3524719774723053, 0.30580851435661316, 0.19659405946731567, -0.26463425159454346, 0.1771547794342041, 0.025937987491488457, -0.34825217723846436, 0.15363474190235138, -0.21133293211460114, -0.06006705388426781, 0.228324294090271, 0.16797032952308655, -0.1858319342136383, 0.05231744796037674, 0.0764956921339035, 0.12751854956150055, -0.0695393979549408, 0.06934437155723572, -0.06081635132431984, -0.01376787293702364, 0.10397572815418243, 0.057945024222135544, -0.13581153750419617, 0.021605081856250763, 0.10436239093542099, -0.10001523792743683, -0.04951471835374832, -0.13048283755779266, -0.1769658327102661, 0.12677595019340515, -0.22240938246250153, 0.0027978939469903708, -0.1069122925400734, -0.040730345994234085, 0.017010999843478203, 0.19976268708705902, 0.06429082155227661, 0.16388361155986786, -0.013168171048164368, 0.12899284064769745, -0.06565681844949722, 0.06416570395231247, 0.014801470562815666, 0.14998900890350342, -0.13310493528842926, 0.07464424520730972, -0.03790679946541786, 0.018401922658085823, 0.23847582936286926, -0.30280396342277527, -0.22795894742012024, 0.11358264088630676, -0.11814034730195999, -0.01629754528403282, 0.13849873840808868, 0.09813736379146576, 0.02874768152832985, -0.050790440291166306, 0.1291690468788147, 0.17756175994873047, -0.018570180982351303, 0.15494869649410248, 0.21433518826961517, -0.08517860621213913, -0.18288156390190125, -0.35684362053871155, 0.44013455510139465, 0.022561725229024887, 0.3323017656803131, 0.022930271923542023, -0.12441839277744293, 0.07650730013847351, -0.03809463232755661, -0.15384724736213684, 0.06063619628548622, 0.23298411071300507, 0.249243825674057, -0.2393602728843689, 0.11889579147100449, -0.18297788500785828, -0.505846381187439, 0.12638907134532928, 0.03557645156979561, -0.42755618691444397, 0.07201012223958969, 0.2641623616218567, 0.45053350925445557, -0.045876022428274155, 0.05843057483434677, -0.10706525295972824, -0.25674620270729065, 0.11552339047193527, 0.25363966822624207, 0.21792824566364288, 0.1677950620651245, 0.19573917984962463, 0.28796064853668213, -0.32572484016418457, -0.12526647746562958, -0.02635728381574154, -0.32302236557006836, -0.27415627241134644, 0.04282579571008682, 0.013748557306826115, 0.7242265939712524, -0.14856451749801636, -0.16578541696071625, 0.0067166914232075214, -0.5636886954307556, -0.05620821937918663, -0.003624540753662586, -0.016479918733239174, 0.11248818784952164, 0.11349834501743317, 0.024376124143600464, -0.185808002948761, -0.16949564218521118, 0.19274213910102844, 0.12270408123731613, -0.00914670992642641, 0.09117802232503891, -0.11961586028337479, 0.0580608956515789, 0.09432507306337357, 0.25299981236457825, 0.20929200947284698, 0.008633676916360855, -0.043271347880363464, -0.11880045384168625, 0.25140517950057983, -0.04928288608789444, 0.2183258831501007, -0.1996288001537323, -0.029206667095422745, -0.2201855182647705, -0.03045065514743328, -0.013876284472644329, 0.1768166720867157, -0.12420663237571716, 0.06949672102928162, -0.2150268852710724, 0.23662379384040833, 0.2662706673145294, -0.18359573185443878, 0.10399581491947174, -0.3133888244628906, 0.25694724917411804, 0.3555140793323517, -0.2469933032989502, 0.08423653990030289, -0.14853040874004364, -0.2932499051094055, -0.18126744031906128, 0.044092245399951935, -0.3736751973628998, 0.14836432039737701, -0.07909297198057175, -0.12939654290676117, -0.009947064332664013, 0.006225917022675276, -0.0347711406648159, 0.0019326977198943496, 0.09485554695129395, -0.13654804229736328, -0.0015886279288679361, 0.15011514723300934, -0.05082712322473526, -0.03149905800819397, 0.03382837772369385, -0.15659558773040771, -0.12262692302465439, -0.05368752032518387, 0.18692001700401306, -0.013339419849216938, -0.10170353949069977, -0.05806814506649971, -0.028602611273527145, 0.13818766176700592, 0.17114275693893433, -0.028199292719364166, -0.12635967135429382, -0.07155583798885345, -0.14115019142627716, 0.23367160558700562, 0.26668718457221985, 0.17114223539829254, -0.1654803305864334, -0.02351486310362816, -0.14545851945877075, 0.13837556540966034, -0.07993968576192856, -0.05266528204083443, 0.1654021441936493, -0.006536172702908516, 0.23256002366542816, 0.11806384474039078, -0.1059172973036766, 0.06112973019480705, 0.015957731753587723, 0.012237790040671825, -0.01337100937962532, 0.07302891463041306, 0.05737961828708649, 0.10128374397754669, -0.058461859822273254, 0.1453956663608551, 0.2702024579048157, -0.03881605342030525, 0.08859535306692123, -0.2539476454257965, -0.06625727564096451, 0.16149429976940155, 0.0883244127035141, 0.09204042702913284, 0.1934850662946701, -0.024282433092594147, -0.11182530969381332, 0.21339137852191925, -0.08329743146896362, -0.028985420241951942, -0.26370009779930115, 0.10732672363519669, -0.014337352477014065, 0.14534395933151245, 0.042064595967531204, -0.044279925525188446, -0.42805370688438416, 0.01314476691186428, 0.06862646341323853, 0.15651914477348328, -0.16038933396339417, 0.18745706975460052, -0.3666219711303711, 0.2456180602312088, -0.19503216445446014, 0.36316007375717163, -0.12457812577486038, -0.012172290123999119, 0.3951665163040161, -0.2430504560470581, 0.28345465660095215, -0.04856580123305321, 0.21355006098747253, -0.04373591020703316, -0.12170162051916122, -0.020849812775850296, -0.2548697590827942, 0.030163289979100227, 0.01481526717543602, -0.005343696102499962, -0.4525509476661682, 0.3527728319168091, -0.235523983836174, 0.2703629732131958, 0.10811000317335129, -0.0008576226537115872, -0.13169454038143158, 0.005282945930957794, 0.07047678530216217, -0.15437771379947662, -0.011087480932474136, 0.008252269588410854, -0.14077018201351166, 0.08246735483407974, -0.07769642025232315, -0.16181549429893494, -0.16331899166107178, -0.09875171631574631, -0.0630250871181488, -0.17767766118049622, -0.02399619109928608, -0.3520306944847107, -0.0359715037047863, 0.21454375982284546, -0.10367653518915176, 0.006894953548908234, 0.15584921836853027, 0.08318932354450226, 0.25855398178100586, 0.007271554786711931, -0.15484674274921417, -0.22408460080623627, 0.014812804758548737, -0.13763278722763062, 0.1011691614985466, 0.14386284351348877, 0.3062269985675812, -0.02273762784898281, -0.23145617544651031, -0.5778350234031677, -0.08357633650302887, -0.02794705145061016, -0.38551169633865356, 0.06995679438114166, 0.06429009884595871, -0.06531064212322235, -0.2704108655452728, 0.029572296887636185, -0.0703885555267334, -0.013975279405713081, 0.017574051395058632, -0.06733936071395874, -0.01458230521529913, -0.18642470240592957, -0.19941258430480957, 0.06872200220823288, -0.10604477673768997, 0.060034509748220444, 0.021397236734628677, 0.0393185093998909, -0.07145057618618011, 0.050133198499679565, -0.008815638720989227, 0.07549168169498444, 0.093743234872818, -0.05095396190881729, 0.1157362163066864, -0.024993937462568283, 0.1492215394973755, -0.08573800325393677, 0.10552964359521866, 0.09875217825174332, -0.005818832200020552, -0.010699022561311722, 0.16791746020317078, -0.1293918639421463, 0.011826703324913979, 0.002647850662469864, 0.11068593710660934, -0.20432834327220917, 0.02327743172645569, -0.010401572100818157, 0.014080054126679897, -0.2026345282793045, -0.11026117950677872, -0.15126092731952667, -0.21379181742668152, 0.2268262356519699, 0.058530136942863464, -0.015420675277709961, 0.12409328669309616, -0.001833479618653655, -0.0621340349316597, 0.11414148658514023, -0.12265462428331375, -0.042922716587781906, 0.21135017275810242, -0.18976758420467377, 0.009304244071245193, 0.03387806564569473, -0.02892777882516384, -0.12741060554981232, -0.09217588603496552, -0.05438711866736412, -0.20404577255249023, -0.04942614212632179, 0.07663281261920929, 0.07806020230054855, 0.08749911189079285, 0.055645108222961426, 0.011420948430895805, -0.010847639292478561, 0.05017532780766487, -0.08165262639522552, 0.004416582174599171, 0.26619189977645874, 0.16219863295555115, 0.040709804743528366, -0.223282128572464, -0.013330594636499882, 0.09427155554294586, 0.20331734418869019, 0.07459049671888351, 0.10971792787313461, -0.1952638030052185, -0.13830311596393585, -0.14510409533977509, 0.17408312857151031, -4.2579809814924374e-05, -0.04167650640010834, -0.03366772085428238, -0.12347839027643204, -0.030771248042583466, -0.034837134182453156, 0.21787317097187042, 0.3437214195728302, 0.03980349376797676, 0.34500136971473694, 0.33324798941612244, 0.1281537115573883, -0.013090614229440689, 0.13380195200443268, -0.1424139440059662, -0.08856778591871262, -0.08707801252603531, 0.05343562737107277, 0.010256276465952396, -0.03370705246925354, 0.13943344354629517, 0.07418631762266159, 0.20718048512935638, 0.12672077119350433, -0.13945931196212769, 0.3383439779281616, 0.180901437997818, -0.031019853428006172, 0.002647782675921917, -0.05205401033163071, -0.1714184582233429, 0.29886484146118164, -0.002484995173290372, -0.1268189251422882, -0.17595334351062775, -0.09564948081970215, 0.2497408092021942, 0.14957331120967865, -0.061930570751428604, -0.19946685433387756, -0.36118993163108826, -0.15401332080364227, 0.11288086324930191, 0.07668906450271606, 0.13071349263191223, 0.01729864627122879, -0.3566572666168213, -0.16453692317008972, -0.07663264125585556, 0.40868401527404785, 0.2729683816432953, -0.04353782534599304, 0.27030277252197266, -0.26221174001693726, -0.04766319319605827, 0.36142662167549133, 0.02786692976951599, -0.08094905316829681, 0.1422707587480545, 0.04816410690546036, -0.12435854971408844, 0.2541705369949341, -0.05880243703722954, 0.0482107438147068, -0.22217601537704468, -0.06325092911720276, -0.004200747702270746, -0.047641322016716, -0.23289264738559723, 0.0826539471745491, -0.09526020288467407, 0.3206402063369751, -0.11355850845575333, 0.21024155616760254, -0.19732622802257538, 0.1282292902469635, -0.017627200111746788, -0.05293132737278938, -0.04497554153203964, -0.0360916405916214, 0.0963774099946022, 0.03719867020845413, -0.0941171869635582, 0.16009625792503357, 0.003676989348605275, -0.1744469702243805, 0.18747973442077637, 0.11766738444566727, 0.0420362651348114, 0.08262401074171066, 0.10302229970693588, 0.08498478680849075, -0.10475185513496399, -0.017345113679766655, 0.07986868172883987, -0.2596643567085266, 0.3094819188117981, 0.031293220818042755, 0.029663842171430588, -0.20123809576034546, 0.16567058861255646, 0.03570348769426346, -0.36593958735466003, 0.054346997290849686, 0.13811369240283966, 0.33592039346694946, 0.07399492710828781, 0.14091315865516663, 0.16207586228847504, 0.08980297297239304, -0.32142049074172974, -0.09811124950647354, -0.027377132326364517, -0.31687435507774353, 0.4610047936439514, -0.22598092257976532, -0.1762867569923401, 0.04837898537516594, 0.1334095597267151, 0.378417044878006, -0.3790789842605591, -0.15506623685359955, -0.09279265254735947, 0.2321082502603531, -0.07502791285514832, -0.11911236494779587, 0.11836956441402435, 0.054274752736091614, 0.16889305412769318, -0.02348799630999565, 0.17084786295890808, 0.06386078149080276, -0.308817982673645, 0.10064582526683807, 0.25098279118537903, -0.1146698147058487, 0.0475434735417366, 0.08747053146362305, -0.2716776430606842, 0.030130278319120407, -0.2022264152765274, 0.13903725147247314, -0.20944379270076752, -0.22260256111621857, 0.20074936747550964, 0.03830587491393089, 0.061097558587789536, 0.12840965390205383, 0.20321029424667358, 0.1336105614900589, -0.08657270669937134, -0.12479718774557114, -0.10172875225543976, -0.10423041880130768, -0.11247371137142181, -0.06308753788471222, -0.12496966123580933, -0.3241046071052551, -0.28947344422340393, 0.162625253200531, -0.12119723111391068, -0.2698632776737213, 0.2594759166240692, -0.18120573461055756, -0.005833326373249292, -0.179636150598526, 0.13903896510601044, 0.11512275040149689, 0.07013582438230515, -0.0007468233816325665, 0.02746902033686638, -0.012254619970917702, 0.05431853234767914, 0.061755407601594925, -0.14625196158885956, 0.020174063742160797, 0.05831393599510193, 0.09125803411006927, -0.04833339899778366, -0.10139352828264236, 0.13422474265098572, 0.031758520752191544, 0.034315165132284164, -0.22291578352451324, -0.0030655197333544493, -0.22350569069385529, -0.10166026651859283, -0.10197611898183823, -0.02898421324789524, -0.13038165867328644, -0.1423282027244568, -0.02535216696560383, 0.1530957967042923, 0.04572640359401703, 0.1669333577156067, -0.18168213963508606, -0.10092858970165253, 0.12406598031520844, -0.06891899555921555, 0.03421062231063843, -0.008018500171601772, -0.040568795055150986, 0.15202133357524872, 0.06682120263576508, -0.21208292245864868, -0.07651533931493759, -0.14324091374874115, 0.015131257474422455, 0.007804944645613432, -0.07397844642400742, 0.03775327280163765, 0.13759401440620422, 0.35526150465011597, -0.05014112964272499, 0.06272738426923752, -0.030672313645482063, 0.21403661370277405, 0.07514399290084839, 0.0696646124124527, -0.03884727135300636, -0.013164885342121124, 0.0254475437104702, 0.057615071535110474, 0.25794970989227295, 0.07542886584997177, 0.06778419017791748, -0.03380399942398071, -0.5117806792259216, 0.011405229568481445, 0.2445714920759201, -0.3787845969200134, 0.15114673972129822, -0.7224540114402771, -0.45294323563575745, -0.5480185747146606, 0.9800386428833008, -0.8371984362602234, -0.5551629662513733, -1.055830478668213, 0.29304829239845276, -0.861124575138092, 0.15590891242027283, -0.7000417709350586, -0.42950916290283203, -0.1711377203464508, 0.06335059553384781, 0.2618282735347748, 0.24314334988594055, -0.02755650319159031, -0.2744314670562744, -0.04278101399540901, -0.013079777359962463, -0.23831145465373993, 0.018165266141295433, 0.21928434073925018, 0.17613458633422852, 0.044380564242601395, -0.15303117036819458, 0.07392790168523788, 0.08824597299098969, -0.2187664657831192, -0.14984829723834991, -0.06964603811502457, -0.40078064799308777, 0.003460226347669959, -0.07083293050527573, -0.3872051537036896, 0.3076603412628174, -0.1603553742170334, 0.09786106646060944, 0.05683819204568863, 0.108441561460495, 0.06216178834438324, -0.0004558051296044141, 0.2565779983997345, 0.03090524673461914, -0.2824399173259735, 0.05597011372447014, 0.11572644859552383, -0.008062886074185371, -0.0798715129494667, -0.027746856212615967, 0.03911250829696655, 0.08164466917514801, 0.09766050428152084, -0.3760565221309662, -0.20684710144996643, 0.09222569316625595, -0.28304481506347656, 0.11958587914705276, 0.16248641908168793, 0.19511795043945312, 0.20873166620731354, -0.23778782784938812, -0.3004721999168396, -0.15875259041786194, 0.2222994714975357, -0.04720337316393852, 0.01811475306749344, -0.2415940910577774, 0.21767960488796234, 0.21356607973575592, 0.06743983924388885, 0.15997974574565887, -0.16063974797725677, 0.17478452622890472, 0.13993696868419647, 0.25603213906288147, 0.05785395950078964, -0.2792031168937683, 0.06886735558509827, 0.0899294912815094, -0.2014124095439911, -0.16195760667324066, 0.2595036029815674, 0.20858953893184662, -0.0807410329580307, 0.08088617771863937, 0.3384333550930023, -0.007015313487499952, 0.007483378052711487, -0.05374646186828613, -0.15610501170158386, -0.19832506775856018, -0.21073313057422638, -0.39466673135757446, -0.14588791131973267, -0.17616406083106995, -0.25255087018013, -0.13608494400978088, -0.22678382694721222, 0.18949446082115173, 0.4389985203742981, -0.0006523716729134321, -0.20155392587184906, -0.19066978991031647, -0.16266201436519623, 0.09634977579116821, 0.12291484326124191, 0.28160133957862854, -0.149023175239563, 0.11548016965389252, -0.1194387674331665, 0.1385353058576584, 0.17957377433776855, -0.3345700800418854, -0.06623324751853943, 0.16025224328041077, -0.4061286747455597, -0.0035661219153553247, 0.22274136543273926, 0.011864100582897663, -0.09073543548583984, -0.15620124340057373, 0.17510323226451874, 0.27631837129592896, -0.062300004065036774, 0.06980998069047928, -0.0805271789431572, 0.12100253254175186, -0.1339692622423172, 0.08223848044872284, 0.077744260430336, -0.018618745729327202, 0.4576185941696167, -0.288796603679657, 0.03496173769235611, -0.24071329832077026, -0.0072597116231918335, 0.24230742454528809, 0.056835852563381195, 0.13908982276916504, 0.2168656438589096, -0.2388477772474289, -0.27820175886154175, -0.3955298662185669, -0.057354334741830826, -0.006809288635849953, -0.26021090149879456, -0.02660227194428444, 0.27421683073043823, 0.32406312227249146, -0.4104624390602112, 0.034030161798000336, 0.05153181031346321, 0.05054568499326706, 0.46883705258369446, -0.21284089982509613, -0.022849366068840027, 0.04464384913444519, -0.04410947114229202, 0.24525466561317444, -0.10743385553359985, 0.011155723594129086, -0.05446891859173775, -0.027095284312963486, -0.10629395395517349, 0.0027718557976186275, -0.07465679198503494, 0.10448792576789856, -0.15953709185123444, 0.34064939618110657, -0.2245388925075531, -0.09979894757270813, -0.18806082010269165, -0.10727720707654953, 0.14314989745616913, -0.08200783282518387, -0.05811213701963425, -0.08355116099119186, -0.2250370979309082, 0.185295969247818, 0.21187572181224823, -0.056278351694345474, -0.018610754981637, 0.25043222308158875, 0.018555548042058945, -0.08239626884460449, 0.24822817742824554, -0.11292575299739838, 0.34393030405044556, -0.5477821230888367, -0.0665479451417923, -0.46289122104644775, -0.18915903568267822, -0.07694505900144577, -0.0882578119635582, -0.23520427942276, 0.0879838764667511, 0.3994408845901489, -0.5340354442596436, 0.060847025364637375, -0.08606665581464767, -0.04628479853272438, 0.07152353972196579, 0.023861924186348915, -0.3262307345867157, -0.38450461626052856, 0.1825510561466217, -0.06144312769174576, 0.08674758672714233, -0.10945770889520645, 0.21346017718315125, -0.47877243161201477, 0.038262639194726944, -0.09453711658716202, -0.47884601354599, 0.1733987033367157, -0.35673099756240845, -0.027375856414437294, -0.12867575883865356, 0.0986737385392189, 0.06122343987226486, -0.07662408798933029, 0.139226034283638, -0.35293862223625183, 0.12147917598485947, 0.09870665520429611, -0.2545107901096344, 0.25402724742889404, 0.5406312346458435, 0.010526802390813828, -0.1513354629278183, 0.44717031717300415, 0.27588748931884766, 0.22177541255950928, 0.17023149132728577, -0.11546134948730469, 0.3011971712112427, 0.12403909116983414, -0.015296545810997486, -0.14860297739505768, -0.27847298979759216, 0.22947236895561218, -0.012340698391199112, -0.0780814066529274, 0.32464998960494995, -0.09990909695625305, 0.011539790779352188, -0.1151469424366951, 0.1463080793619156, 0.21404151618480682, 0.14247700572013855, 0.12592782080173492, -0.0435175858438015, -0.2727492153644562, 0.00403777277097106, -0.26750490069389343, 0.045230597257614136, -0.25775349140167236, 0.14222796261310577, 0.03705570846796036, -0.13100843131542206, 0.30223578214645386, 0.04599213972687721, -0.02636875957250595, 0.2799580693244934, -0.25930026173591614, -0.0708710253238678, -0.07704883813858032, 0.012966429814696312, 0.08440278470516205, -0.1774042695760727, -0.12066468596458435, 0.13978245854377747, 0.10892902314662933, 0.1887984722852707, 0.019411873072385788, 0.11431235074996948, -0.08728788048028946, -0.08521757274866104, 0.05888238549232483, -0.3850063681602478, -0.028935791924595833, -0.019067972898483276, 0.31474149227142334, -0.11652474850416183, 0.031191231682896614, -0.07918915897607803, -0.14581388235092163, 0.002214976819232106, 0.21400927007198334, 0.11338498443365097, 0.04104193300008774, 0.09221623092889786, 0.12323080748319626, -0.05994851514697075, 0.39674434065818787, 0.10321024805307388, -0.15871667861938477, -0.035866979509592056, -0.17366650700569153, 0.1349654495716095, -0.038912080228328705, 0.030632052570581436, 0.019349969923496246, -0.1424352526664734, -0.11073993146419525, -0.1561530977487564, -0.14703574776649475, 0.17521288990974426, -0.006099941208958626, 0.0037720168475061655, -0.0722978413105011, 0.06598987430334091, -0.009916296228766441, 0.096445731818676, -0.016454599797725677, -0.2630688548088074, -0.010331224650144577, -0.13157466053962708, 0.21018008887767792, 0.13576330244541168, 0.05486316978931427, -0.11687719821929932, 0.15846650302410126, 0.011745510622859001, 0.16996245086193085, 0.3810335695743561, -0.0014524980215355754, 0.38868677616119385, -0.29232057929039, 0.09079162776470184, 0.09070438146591187, -0.025168515741825104, 0.09536434710025787, 0.06416871398687363, 0.1360960155725479, -0.1217137947678566, 0.04831954836845398, 0.0738653913140297, 0.042729370296001434, -0.18789134919643402, -0.12435654550790787, -0.04377743974328041, 0.5106656551361084, -0.12067026644945145, -0.2245030403137207, -0.11130011826753616, 0.009077680297195911, -0.13675685226917267, 0.20978929102420807, -0.04698861390352249, 0.09722990542650223, -0.3244174122810364, 0.05940968543291092, -0.022220535203814507, -0.03864145651459694, -0.11551918089389801, -0.10785023123025894, -0.14925630390644073, 0.15160126984119415, 0.0720590204000473, 0.28090623021125793, 0.04625936597585678, 0.03153098747134209, 0.035616856068372726, -0.4876018166542053, 0.062307123094797134, -0.11012706160545349, -0.31589755415916443, -0.0759112685918808, 0.010000896640121937, 0.15683455765247345, 0.011521932668983936, -0.5144931674003601, 0.06427686661481857, -0.018112340942025185, 0.17079949378967285, 0.03212519735097885, -0.04881427437067032, 0.02067743055522442, -0.2409587800502777, -0.16457541286945343, 0.1524590104818344, -0.014291341416537762, -0.04931690916419029, -0.045099448412656784, -0.11862547695636749, 0.18561404943466187, -0.2724386155605316, -0.06815709918737411, 0.27075836062431335, 0.17428050935268402, -0.10179706662893295, 0.037764474749565125, 0.08892582356929779, 0.1352716088294983, -0.093560129404068, 0.07384320348501205, 0.0944753885269165, 0.11018981784582138, -0.031882721930742264, 0.23269519209861755, 0.040106892585754395, -0.039991021156311035, -0.1363813430070877, 0.08475938439369202, -0.10181387513875961, 0.10760071873664856, -0.08537021279335022, -0.2392698973417282, -0.06251566112041473, 0.004041348583996296, 0.021784909069538116, -0.22078949213027954, -0.009870464913547039, 0.06201224401593208, -0.2935151159763336, 0.16860507428646088, -0.1523035317659378, -0.05271793529391289, 0.22365759313106537, -0.44598519802093506, -0.26011455059051514, -0.12131112068891525, -0.0844552218914032, -0.35215628147125244, 0.2090308964252472, -0.46927058696746826, 0.11835038661956787, 0.056686270982027054, 0.06301326304674149, 0.06478120386600494, -0.06327566504478455, 0.02808550000190735, 0.11535058915615082, -0.09056323021650314, 0.28671613335609436, 0.049159567803144455, -0.11369718611240387, 0.20092272758483887, -0.18510037660598755, -0.025552203878760338, -0.34995678067207336, -0.06899823248386383, -0.044271644204854965, 0.47250425815582275, 0.019173279404640198, -0.05943642556667328, -0.10911183059215546, -0.002412289148196578, 0.13532371819019318, 0.20068469643592834, 0.1269916445016861, 0.12715774774551392, -0.2662109434604645, -0.1235395073890686, -0.2066800743341446, -0.020961495116353035, 0.05800122767686844, -0.028756290674209595, 0.3495252728462219, 0.20009203255176544, 0.04642757400870323, -0.33285656571388245, -0.28243428468704224, -0.41285786032676697, 0.4067656695842743, 0.09495329111814499, 0.10271568596363068, -0.21884195506572723, -0.22980576753616333, 0.11162308603525162, 0.09819991141557693, 0.3094659149646759, -0.004213716369122267, -0.051239386200904846, -0.13357602059841156, -0.04130006954073906, -0.10613442212343216, 0.09506866335868835, 0.0582759752869606, 0.11879189312458038, 0.12287375330924988, -0.13630981743335724, 0.0911405012011528, 0.31862005591392517, -0.16214117407798767, -0.13865579664707184, -0.034370340406894684, 0.14126943051815033, 0.004914317280054092, 0.05308206379413605, 0.13726955652236938, -0.2164306938648224, -0.1690809428691864, 0.11610419303178787, -0.013121258467435837, -0.2318725883960724, 0.07623330503702164, 0.08765722811222076, 0.03219732642173767, 0.042168665677309036, 0.16872990131378174, -0.0161811001598835, 0.01546101737767458, -0.08086881786584854, 0.03953833505511284, -0.001043391996063292, -0.016551315784454346, 0.6450847387313843, -0.08598511666059494, -0.3032872974872589, 0.6745190620422363, 0.18962362408638, -0.057492297142744064, -0.03218954801559448, 0.03658280521631241, 0.276872456073761, 0.03716444969177246, 0.026529664173722267, 0.11732957512140274, 0.014739945530891418, 0.08515649288892746, 0.10069800168275833, 0.04580586776137352, -0.18888048827648163, 0.01801983080804348, -0.28650370240211487, -0.0439961738884449, 0.03105214238166809, -0.04731043428182602, -0.11599281430244446, 0.023803584277629852, 0.0024849912151694298, 0.09529945999383926, 0.09808561950922012, -0.03612879663705826, 0.2297670692205429, -0.30717724561691284, -0.36676502227783203, 0.09732845425605774, -0.023320546373724937, 0.16219455003738403, 0.0857188031077385, -0.16023090481758118, -0.2053816020488739, -0.008803446777164936, 0.028922604396939278, -0.12435145676136017, -0.19614341855049133, 0.014358941465616226, 0.06477022171020508, -0.07625120878219604, -0.025394640862941742, -0.05825338140130043, -0.04667752608656883, -0.11268671602010727, -0.20245563983917236, 0.054175831377506256, 0.08030077815055847, 0.15433600544929504, -0.4507010579109192, -0.012948133051395416, 0.015966029837727547, 0.0660865381360054, -0.012402604334056377, 0.10865866392850876, 0.003669321071356535, 0.11694404482841492, 0.0456925593316555, -0.22403790056705475, -0.18878959119319916, -0.29757654666900635, 0.17297771573066711, -0.027157649397850037, 0.019744278863072395, -0.0025350868236273527, 0.007881507277488708, -0.21134592592716217, -0.034784309566020966, -0.11918679624795914, 0.1865578442811966, 0.015102379955351353, -0.002155885100364685, -0.016800329089164734, -0.10311958938837051, -0.022078055888414383, -0.028634747490286827, -0.027443423867225647, -0.06879960745573044, 0.04293983802199364, -0.10028979927301407, 0.21550239622592926, 0.06986496597528458, -0.1307411789894104, -0.17479507625102997, -0.058810748159885406, 0.05252721905708313, -0.11876461654901505, 0.019496550783514977, 0.09801488369703293, -0.21625152230262756, -0.011895555071532726, 0.0035837702453136444, -0.06237440183758736, -0.06618217378854752, -0.3309943974018097, -0.0721362829208374, -0.2924252450466156, 0.09343240410089493, -0.17081256210803986, -0.13910908997058868, 0.09338217973709106, -0.25913137197494507, 0.007466447539627552, -0.039588384330272675, 0.05605825036764145, -0.3312351405620575, -0.055280137807130814, 0.19900286197662354, 0.23551660776138306, -0.10923756659030914, -0.015586641617119312, 0.23146192729473114, 0.09960101544857025, -0.0985541045665741, 0.177495077252388, 0.0771709531545639, -0.2807549238204956, -0.09266332536935806, 0.11658715456724167, -0.15151667594909668, -0.4117591083049774, -0.15028148889541626, 0.0034585443791002035, 0.28706711530685425, -0.06571030616760254, -0.14173205196857452, 0.01775948703289032, 0.02013452537357807, -0.07479789853096008, 0.18599635362625122, -0.0015641681384295225, -0.03607858344912529, 0.16899050772190094, -0.03046327270567417, -0.07880901545286179, 0.1236024871468544, -0.0909082219004631, 0.007440128829330206, -0.03992779552936554, -0.07344169169664383, 0.15435098111629486, 0.09535090625286102, -0.09245573729276657, 0.17096641659736633, 0.26757583022117615, 0.1788712739944458, -0.2568188011646271, 0.04103084281086922, -0.0008229067898355424, -0.09780211746692657, -0.32093527913093567, -0.05396082624793053, 0.07207149267196655, 0.10683012753725052, 0.28196781873703003, -0.17661653459072113, -0.15353849530220032, -0.11403726041316986, 0.030124295502901077, 0.18667343258857727, 0.021460846066474915, 0.34412264823913574, 0.13806657493114471, -0.09474717825651169, 0.1593075543642044, 0.17949053645133972, -0.030358344316482544, -0.39983418583869934, -0.08897773921489716, -0.06207910180091858, -0.42407211661338806, -0.1406075358390808, -0.29741132259368896, 0.1565670222043991, 0.309745728969574, 0.10270155221223831, 0.0161910243332386, -0.12351354956626892, -0.11582381278276443, 0.5193778872489929, 0.2712756395339966, 0.1994878500699997, 0.11265619099140167, -0.033361490815877914, -0.04859573394060135, 0.10408765822649002, 0.17317989468574524, -0.211112841963768, 0.1706332564353943, 0.5607661604881287, 0.16460081934928894, -0.2162192016839981, 0.16981226205825806, -0.38488826155662537, 0.25195974111557007, 0.22756528854370117, -0.0817657858133316, 0.4306250512599945, -0.051579274237155914, -0.10174664109945297, 0.2951960563659668, 0.33062297105789185, 0.16904155910015106, -0.12127873301506042, -0.24152737855911255, -0.11939430236816406, -0.016464972868561745, 0.014670423232018948, 0.06465613842010498, 0.042751722037792206, 0.004644033964723349, -0.02635004185140133, 0.034796349704265594, 0.04398927092552185, -0.1858731508255005, -0.054007358849048615, 0.43435731530189514, 0.0498792864382267, -0.1562313437461853, -0.3848471939563751, 0.040611833333969116, -0.09954483807086945, 0.06357939541339874, -0.12981058657169342, 0.03518364205956459, -0.30423489212989807, -0.042339809238910675, -0.002981924917548895, -0.20305407047271729, 0.045318443328142166, 0.23126330971717834, -0.22531995177268982, 0.10973604023456573, 0.048425108194351196, 0.021334825083613396, -0.08741328120231628, -0.05800541117787361, 0.10647384077310562, -0.10982217639684677, -0.016702432185411453, -0.17397908866405487, -0.21093504130840302, -0.006355895660817623, -0.1289166510105133, 0.03273176774382591, 0.16448579728603363, 0.23151783645153046, -0.15101882815361023, 0.2569396197795868, -0.0649186223745346, -0.173577219247818, 0.04147383198142052, -0.1272708922624588, -0.04448404535651207, 0.10025064647197723, -0.2435375303030014, 0.030770890414714813, 0.13120536506175995, -0.07364977151155472, 0.29252463579177856, -0.18101173639297485, -0.11376959830522537, 0.09983239322900772, 0.03406398743391037, -0.15682022273540497, -0.165186807513237, 0.08935795724391937, -0.1353929489850998, -0.2175177037715912, 0.19693686068058014, 0.06248892471194267, 0.027361620217561722, 0.1607486456632614, 0.1561560332775116, -0.048198092728853226, 0.013840689323842525, -0.07369036972522736, 0.120535708963871, 0.07317773997783661, 0.14371813833713531, 0.1479499638080597, 0.06974193453788757, -0.357248991727829, 0.15105094015598297, -0.06050865724682808, -0.2924637794494629, -0.040167953819036484, 0.26780715584754944, 0.009464763104915619, 0.24368269741535187, 0.03397957980632782, -0.5524300336837769, 0.04061729088425636, -0.3890804052352905, 0.17340514063835144, 0.05518987774848938, 0.16339057683944702, -0.17663240432739258, 0.03638937696814537, -0.05005869269371033, 0.1394902765750885, 0.16878779232501984, -0.04657665267586708, -0.20409773290157318, 0.058906398713588715, -0.0007464232621714473, -0.20342980325222015, -0.019413303583860397, -0.24217236042022705, -0.4164835810661316, -0.023961463943123817, -0.036446522921323776, 0.09410715848207474, -0.10170755535364151, 0.08919893950223923, 0.1614125669002533, 0.20171436667442322, -0.10984092950820923, -0.1925610899925232, -0.013582550920546055, 0.2767798602581024, -0.16100762784481049, -0.08341481536626816, -0.20937731862068176, -0.26125672459602356, -0.13372763991355896, 0.05794210731983185, 0.24561339616775513, 0.03168643265962601, -0.1920066475868225, -0.1247611939907074, -0.022078102454543114, -0.010889394208788872, -0.29618188738822937, 0.1752994805574417, -0.04422134906053543, -0.3274896442890167, 0.20504096150398254, -0.09198418259620667, -0.38253432512283325, 0.09107456356287003, -0.08858807384967804, -0.17768529057502747, 0.28989383578300476, 0.10209242254495621, -0.334038645029068, -0.23606058955192566, -0.377875417470932, -0.04403745383024216, 0.27227717638015747, 0.3034628629684448, -0.07381239533424377, -0.08324150741100311, -0.06768762320280075, -0.04662251099944115, 0.1416407823562622, 0.07549551129341125, 0.10919538885354996, 0.1495172679424286, -0.03416823595762253, 0.16967467963695526, 0.0627531185746193, -0.01489761658012867, 0.09585095196962357, -0.09583435952663422, -0.006356288678944111, 0.09824974089860916, 0.028548236936330795, 0.108860082924366, -0.03147297352552414, -0.2070692926645279, 0.20570415258407593, -0.024462949484586716, 0.21760194003582, -0.1649005264043808, 0.04833598807454109, -0.132258802652359, 0.04302847385406494, 0.17992985248565674, 0.14367656409740448, 0.25684699416160583, 0.2013641893863678, 0.4432525932788849, -0.056593846529722214, -0.055534590035676956, 0.1400650441646576, 0.08271387219429016, 0.09773491322994232, 0.14057403802871704, -0.12631148099899292, 0.35353410243988037, -0.1786835938692093, -0.002787876408547163, 0.20321737229824066, 0.6331450939178467, -0.13189305365085602, -0.08510525524616241, -0.1267024576663971, 0.3263901174068451, -0.23682227730751038, -0.05731814727187157, 0.0695873498916626, -0.10836169123649597, -0.138454407453537, -0.16123394668102264, -0.28640878200531006, 0.04465333744883537, -0.24167056381702423, 0.16096411645412445, 0.01197951752692461, -0.01350086648017168, -0.05963403359055519, -0.16813844442367554, 0.12140220403671265, -0.09814658761024475, 0.03614873066544533, 0.17943355441093445, 0.09493444859981537, -0.04034465551376343, 0.10769736766815186, -0.06298088282346725, 0.07945656031370163, 0.13488192856311798, 0.0677495077252388, 0.20085014402866364, 0.034682996571063995, -0.17657841742038727, -0.02566247619688511, -0.05552584305405617, -0.025453833863139153, 0.09968052059412003, -0.2220403254032135, -0.18760423362255096, -0.18019087612628937, 0.35179999470710754, -0.09714887291193008, 0.12914840877056122, -0.4150111973285675, -0.05719981715083122, -0.042892828583717346, 0.03810567036271095, -0.1474442332983017, -0.1796848177909851, -0.007826459594070911, 0.46682485938072205, 0.12660138309001923, 0.09080784022808075, 0.043156255036592484, 0.18281659483909607, 0.06917589902877808, 0.13586530089378357, 0.23017160594463348, -0.06619072705507278, -0.33614417910575867, -0.036710940301418304, -0.021283024922013283, -0.07153229415416718, -0.006106477230787277, 0.05785323306918144, 0.25436803698539734, -0.09766633808612823, -0.06237305328249931, -0.020248502492904663, -0.11325941979885101, -0.05960657447576523, 0.11329823732376099, 0.017250774428248405, 0.13482828438282013, -0.23971709609031677, 0.07169611752033234, 0.03348969295620918, 0.14628653228282928, -0.06948201358318329, -0.051872823387384415, 0.09585051238536835, 0.23868028819561005, -0.05776931345462799, -0.5203911662101746, -0.20337004959583282, -0.18519967794418335, -0.43384528160095215, -0.1613219529390335, -0.14611685276031494, -0.12582409381866455, 0.2043619006872177, 0.3343779146671295, -0.2560773193836212, -0.05689036846160889, -0.1155853345990181, 0.03443565592169762, 0.004498099908232689, -0.026497090235352516, -0.36228740215301514, 0.09772363305091858, 0.058564893901348114, -0.059088174253702164, 0.1320534497499466, 0.02133443020284176, 0.17490200698375702, -0.05930982902646065, 0.0021018150728195906, 0.11306063085794449, 0.00022444930800702423, -0.339504599571228, 0.6565154194831848, -0.07829532027244568, 0.12844493985176086, -0.43877893686294556, 0.022894248366355896, -0.033813104033470154, 0.22537319362163544, 0.04757758975028992, 0.06789765506982803, 0.002635340904816985, 0.13681761920452118, 0.15463364124298096, -0.03434612601995468, -0.01139683835208416, -0.052537884563207626, -0.31715771555900574, -0.0024856477975845337, 0.13977128267288208, -0.10714486241340637, 0.0130646713078022, 0.11695056408643723, -0.3490627706050873, 0.2159610241651535, 0.19187454879283905, 0.10325146466493607, -0.2118670642375946, 0.10505831986665726, 0.051162660121917725, -0.1759108155965805, 0.4703770875930786, 0.07540526986122131, 0.0033814976923167706, -0.34464243054389954, -0.37573617696762085, -0.04603074863553047, 0.07839688658714294, -0.00931081548333168, -0.03459024801850319, -0.05283031985163689, 0.08218832314014435, -0.014740129001438618, -0.08484088629484177, 0.010279571637511253, 0.39937669038772583, 0.1074221208691597, 0.13305805623531342, -0.02662665583193302, -0.09596888720989227, 0.07406707108020782, -0.022435057908296585, 0.09485787153244019, -0.40035808086395264, -0.6486283540725708, 0.8119393587112427, 0.40168991684913635, -0.45846953988075256, -0.04364714398980141, -0.09037964791059494, 0.03201036900281906, 0.6812896132469177, -0.7530129551887512, 0.7522949576377869, 0.6007566452026367, -0.08933785557746887, -0.23780030012130737, 0.23031581938266754, -0.6083067059516907, 0.29178065061569214, -0.10899574309587479, 0.044282928109169006, -0.3752714991569519, 0.19808782637119293, 0.2890971899032593, 0.18099403381347656, -0.006206613965332508, 0.2509479522705078, 0.33090659976005554, 0.15573211014270782, 0.11497075110673904, -0.2307693511247635, -0.015310456976294518, -0.21053515374660492, 0.052633728832006454, 0.40111243724823, 0.19445036351680756, -0.08536263555288315, -0.09419286996126175, 0.33437928557395935, 0.23027966916561127, -0.07676517963409424, -0.4763109087944031, -0.31566932797431946, 0.22022436559200287, 0.18610313534736633, -0.04947827383875847, 0.0008349851705133915, 0.13637402653694153, -0.02324329875409603, 0.06396280229091644, -0.21295514702796936, -0.396443247795105, -0.18440380692481995, -0.17321227490901947, 0.2364233434200287, -0.4282844066619873, -0.03401663899421692, -0.19669300317764282, -0.36348581314086914, -0.08889977633953094, -0.2715446650981903, 0.20374156534671783, 0.3033643066883087, -0.05311097577214241, -0.00166278425604105, 0.07027971744537354, 0.24706290662288666, 0.16225998103618622, 0.14462552964687347, 0.041714977473020554, -0.13369019329547882, 0.32242122292518616, -0.25786933302879333, 0.12502898275852203, 0.24405032396316528, -0.1247890517115593, 0.11270355433225632, 0.22828200459480286, 0.09180892258882523, 0.22096943855285645, 0.09727931767702103, -0.10735083371400833, 0.07647009193897247, 0.3291451334953308, 0.5321242213249207, -0.12241043895483017, -0.04088667035102844, -0.32492196559906006, 0.4084753692150116, 0.15164446830749512, -0.10209575295448303, -0.10683345794677734, 0.2017236053943634, 0.24451610445976257, -0.13193270564079285, -0.13325345516204834, -0.24359413981437683, -0.08017872273921967, -0.07203640788793564, 0.13175511360168457, 0.006375421769917011, -0.131302148103714, -0.18257595598697662, -0.19607146084308624, 0.19345346093177795, 0.16379094123840332, -0.20321786403656006, -0.21361680328845978, 0.019080663099884987, 0.11079850792884827, 0.009249142371118069, 0.12638439238071442, 0.20095346868038177, 0.06467536091804504, 0.21465548872947693, 0.4497264325618744, -0.20983710885047913, -0.04565756022930145, 0.11501128226518631, 0.019028933718800545, -0.021124960854649544, -0.11050672084093094, -0.31383779644966125, 0.08598895370960236, 0.021967442706227303, -0.056903544813394547, -0.023050712421536446, -0.04718820005655289, 0.015987198799848557, 0.1681448072195053, 0.01814858242869377, 0.05445730686187744, -0.25265446305274963, -0.024513717740774155, 0.06961032003164291, -0.22075486183166504, 0.04487927258014679, -0.32111436128616333, 0.04349415376782417, 0.05840906500816345, 0.06167259067296982, 0.14973324537277222, -0.03593893721699715, 0.1995462030172348, 0.11479101330041885, -0.14453595876693726, -0.18352550268173218, 0.08311092853546143, -0.20401953160762787, 0.20798054337501526, 0.28049734234809875, 0.10224033892154694, -0.3420955240726471, -0.06318443268537521, -0.11868651956319809, 0.130253866314888, -0.22076278924942017, 0.2049432396888733, -0.2593623697757721, 0.0408511683344841, -0.00487014465034008, 0.025922706350684166, 0.07615050673484802, -0.24622921645641327, -0.2515152394771576, 0.15039239823818207, 0.0018781567923724651, 0.20682990550994873, -0.2707747519016266, 0.10880386084318161, 0.06179467961192131, -0.10322178900241852, -0.2611658573150635, -0.34600239992141724, 0.01822534017264843, -0.26747748255729675, 0.44907712936401367, -0.12528584897518158, 0.3800591230392456, -0.243002787232399, -0.05417701601982117, -0.20338059961795807, 0.2286628931760788, -0.07306099683046341, 0.0641661062836647, 0.015510044060647488, 0.2637161910533905, 0.16894270479679108, -0.2651417851448059, 0.04798819497227669, -0.024345630779862404, -0.3910016119480133, -0.04660765081644058, 0.4076947569847107, 0.4399887025356293, -0.01165079791098833, -0.08243339508771896, -0.15370796620845795, 0.02940324880182743, 0.6683257222175598, 0.18911723792552948, 0.013297713361680508, -0.29720640182495117, 0.032194238156080246, 0.00974399596452713, 0.22530700266361237, -0.3540211021900177, -0.2558187246322632, 0.06206169351935387, 0.059944238513708115, -0.5777642726898193, -0.37973883748054504, -0.1429034024477005, -0.15663787722587585, 0.14539578557014465, -0.05829254537820816, -0.26159846782684326, 0.07073422521352768, 0.34145084023475647, -0.13385502994060516, -0.5877258777618408, -0.1278558075428009, -0.16195371747016907, -0.23914627730846405, 0.02432846836745739, -0.25213423371315, -0.2062842696905136, 0.2894357442855835, -0.08739267289638519, 0.17722195386886597, -0.08260209113359451, -0.11495832353830338, 0.14356699585914612, -0.24136409163475037, 0.004115865100175142, 0.18184742331504822, 0.2945489287376404, -0.2541244328022003, 0.14447399973869324, 0.16848993301391602, -0.23528917133808136, 0.35303714871406555, -0.14989237487316132, 0.09492519497871399, -0.0426010899245739, -0.026550497859716415, -0.1042400449514389, -0.326822966337204, 0.1010720357298851, 0.2550840973854065, 0.12138067930936813, -0.025884149596095085, -0.19221341609954834, 0.20419074594974518, -0.11803746968507767, -0.165681853890419, 0.2721182703971863, -0.24855192005634308, -0.05608711391687393, -0.5934332013130188, -0.2915519177913666, -0.2359386831521988, -0.13503076136112213, 0.3458709418773651, -0.07964503020048141, -0.7076748609542847, -0.03868066892027855, 0.3279995918273926, 0.07071158289909363, 0.18228648602962494, -0.2379785180091858, 0.11165320873260498, -0.037701044231653214, 0.26898834109306335, -0.016058165580034256, 0.07122991234064102, 0.3092668652534485, 0.012475799769163132, 0.03879919275641441, 0.3540556728839874, 0.19676454365253448, 0.019012246280908585, -0.2294793277978897, -0.09521257132291794, -0.06096107140183449, 0.27201569080352783, 0.0878773033618927, -0.18901371955871582, 0.3010379672050476, -0.0326264463365078, 0.02331775240600109, 0.07025172561407089, 0.2884798049926758, -0.12501588463783264, 0.15208519995212555, 0.051144398748874664, 0.26026055216789246, -0.13308632373809814, -0.02832893840968609, -0.03487464785575867, -0.03749779984354973, 0.2730169892311096, 0.008866158314049244, -0.1956285983324051, -0.11252956837415695, -0.007979482412338257, 0.04046008363366127, 0.16826283931732178, 0.11782710254192352, 0.03556254506111145, -0.10862062126398087, -0.1556115597486496, 0.10431332886219025, -0.032063718885183334, -0.049499280750751495, -0.39534953236579895, -0.09333260357379913, 0.0431395098567009, 0.12451052665710449, 0.027736781165003777, -0.05863703787326813, -0.16785554587841034, 0.06920432299375534, 0.2294250726699829, 0.04353203624486923, -0.11216465383768082, -0.2860810458660126, -0.019664684310555458, 0.2867932915687561, -0.17997975647449493, -0.12232397496700287, -0.17267373204231262, 0.0378861166536808, -0.3334261476993561, -0.04608732461929321, 0.19478827714920044, 0.09361325204372406, 0.033583275973796844, 0.05544501915574074, 0.14565253257751465, 0.05771559104323387, 0.36012503504753113, 0.13058483600616455, -0.04712972417473793, 0.13019713759422302, 0.6445395946502686, 0.001389911281876266, 0.12542356550693512, 0.2916104793548584, -0.03338223695755005, 0.08368020504713058, 0.02249331586062908, 0.1894899308681488, -0.17534102499485016, -0.01996372826397419, 0.08049996942281723, 0.1281414031982422, 0.07582610100507736, -0.09482567012310028, -0.171212300658226, -0.2153576761484146, -0.036989495158195496, 0.041101355105638504, 0.361183762550354, -0.037219204008579254, 0.09762458503246307, 0.06297091394662857, -0.0028036395087838173, -0.11610385030508041, 0.26093119382858276, 0.04103996604681015, -0.007384799420833588, 0.053365327417850494, 0.05791787803173065, -0.02715391106903553, -0.07230768352746964, -0.4326874613761902, -0.33257728815078735, 0.21439532935619354, -0.24171367287635803, -0.2762599587440491, 0.20321129262447357, 0.02023506723344326, -0.02672426961362362, -0.06612595170736313, -0.051288459450006485, -0.08930692076683044, -0.15462258458137512, -0.13687226176261902, 0.0011162211885675788, -0.006234109867364168, -0.08227783441543579, -0.33580639958381653, -0.47742778062820435, 0.20389722287654877, -0.07500024884939194, 0.053226448595523834, -0.010168373584747314, -0.04870476573705673, -0.21768291294574738, -0.06192496418952942, -0.09434712678194046, -0.007944323122501373, -0.14861026406288147, -0.08778533339500427, -0.11924608796834946, -0.10275275260210037, 0.013794293627142906, 0.11546291410923004, -0.0010546554112806916, -0.2631707191467285, 0.022933823987841606, 0.2903003692626953, 0.4435718357563019, 0.2527129650115967, -0.05490480735898018, -0.06451867520809174, -0.18104344606399536, 0.03245565667748451, -0.4646965265274048, 0.1016560047864914, -0.007977059110999107, -0.08639513701200485, -0.04934534803032875, 0.0797380656003952, 0.077378049492836, -0.042862847447395325, -0.10968676954507828, -0.011805970221757889, -0.011170029640197754, -0.03742559254169464, 0.23289097845554352, 0.051145635545253754, -0.13096649944782257, -0.054370537400245667, 0.3395622968673706, -0.14203672111034393, -0.029672469943761826, 0.16702428460121155, 0.08669165521860123, 0.531953752040863, 0.049975186586380005, -0.16521036624908447, 0.019423358142375946, -0.0022568730637431145, -0.21933430433273315, 0.11001205444335938, 0.08914888650178909, -0.06724053621292114, -0.08139985054731369, -0.2698734998703003, 0.0940544530749321, 0.2191055417060852, 0.12358973920345306, 0.08476495742797852, -0.10603397339582443, -0.14569011330604553, 0.1554352045059204, 0.02579694613814354, -0.11512497812509537, -0.13964547216892242, -0.3055262267589569, -0.017477963119745255, 0.14122727513313293, 0.04626750200986862, 0.35350969433784485, -0.042646102607250214, 0.1941680759191513, 0.234846293926239, 9.64381433732342e-06, -0.02388894371688366, 0.18613484501838684, -0.015990186482667923, 0.035592325031757355, 0.1321069747209549, -0.2379496842622757, -0.11827408522367477, -0.23327946662902832, 0.02159796841442585, -0.1481066644191742, -0.04932742938399315, -0.17650072276592255, 0.1116713210940361, 0.41004446148872375, -0.12113948166370392, 0.06713785976171494, 0.3522860109806061, 0.029434647411108017, 0.0763874351978302, 0.19002488255500793, -0.15699566900730133, 0.016483699902892113, -0.1748039722442627, -0.19901269674301147, 0.07211079448461533, -0.10647371411323547, -0.11409831047058105, -0.2597898244857788, -0.029503414407372475, 0.24886435270309448, 0.06766457110643387, 0.1631426364183426, 0.14469105005264282, 0.0553358718752861, -0.1376720666885376, 0.040333572775125504, -0.14427700638771057, -0.21443332731723785, -0.18493761122226715, -0.19759728014469147, -0.12345042079687119, 0.012329005636274815, 0.10493887215852737, 0.4260205030441284, -0.07107526063919067, -0.06482584774494171, 0.03374208137392998, 0.28978803753852844, 0.07314493507146835, -0.0218826811760664, 0.13172569870948792, -0.13066160678863525, 0.19727134704589844, -0.13908520340919495, 0.29434287548065186, -0.2376863658428192, 0.16625048220157623, -0.05120202898979187, 0.30707064270973206, -0.005010797176510096, -0.18256430327892303, 0.052185580134391785, -0.11198971420526505, 0.08436913043260574, 0.09706801176071167, -0.11167309433221817, 0.07277505099773407, -0.09193349629640579, 0.1960589438676834, 0.06479334831237793, 0.17404645681381226, -0.2621661424636841, 0.11836828291416168, -0.18085499107837677, -0.037962328642606735, -0.11492148786783218, -0.3604464828968048, 0.008828028105199337, 0.15064871311187744, 0.030444685369729996, 0.11221665143966675, -0.08979322016239166, -0.339877724647522, -0.038369305431842804, 0.12494782358407974, 0.23277702927589417, -0.20205087959766388, -0.012909780256450176, -0.08744221925735474, -0.10520701855421066, -0.03372589498758316, 0.04291988164186478, -0.02762482687830925, 0.16549263894557953, 0.2532130479812622, 0.3951692581176758, 0.11261066049337387, 0.03126131743192673, -0.20334789156913757, 0.17550328373908997, 0.018515367060899734, -0.18556329607963562, -0.006135703530162573, 0.011105069890618324, 0.063412606716156, 0.06784897297620773, 0.008632452227175236, 0.043473269790410995, -0.24582938849925995, 0.18023596704006195, 0.23310746252536774, -0.25340673327445984, 0.11856669932603836, 0.18977966904640198, 0.3139384090900421, -0.2182815819978714, 0.5048053860664368, -0.32447779178619385, -0.21598204970359802, -0.22360394895076752, -0.024467473849654198, 0.06963355839252472, -0.01669827662408352, 0.045158714056015015, -0.27363890409469604, 0.19042235612869263, -0.03454897180199623, 0.06459515541791916, 0.030777955427765846, 0.14712604880332947, -0.03888711705803871, 0.05155503377318382, 0.02508625201880932, 0.5594738125801086, 0.14226748049259186, -0.07900623232126236, 0.0842663124203682, -0.07617069035768509, 0.09313179552555084, 0.16546078026294708, 0.11964566260576248, -0.22245900332927704, 0.2737506926059723, 0.33726969361305237, 0.254172682762146, 0.30535003542900085, 0.00824633426964283, -0.13685359060764313, 0.03788427636027336, 0.05550229176878929, -0.11809242516756058, -0.1354988068342209, 0.16840949654579163, 0.09151706099510193, -0.09119263291358948, 0.40068644285202026, -0.07956074178218842, 0.1584806889295578, 0.0380038321018219, 0.152531236410141, 0.10153262317180634, 0.11359355598688126, -0.05810215696692467, -0.09310827404260635, 0.08585524559020996, 0.21234728395938873, 0.17616432905197144, -0.07044316828250885, -0.15137337148189545, 0.09193374216556549, 0.018080923706293106, -0.20350852608680725, -0.15122893452644348, -0.15162210166454315, 0.22339610755443573, -0.05703310668468475, 0.013606377877295017, -0.2112884372472763, 0.06557293981313705, -0.0771329253911972, 0.2647583782672882, 0.2699730396270752, -0.09270016103982925, 0.10647585242986679, -0.08496509492397308, -0.03591480478644371, -0.1300833523273468, -0.0694299042224884, -0.19215606153011322, 0.2376188486814499, 0.3504439890384674, -0.3062306344509125, -0.04667043313384056, -0.06929407268762589, -0.04139235243201256, -0.03043094463646412, -0.22932785749435425, -0.2208082377910614, -0.020750394091010094, -0.0030220644548535347, -0.058780863881111145, -0.024795804172754288, 0.0813719779253006, 0.06522388011217117, 0.1443490833044052, 0.5377202033996582, -0.0991608127951622, 0.17605385184288025, 0.05247478559613228, -0.03646806254982948, -0.34362396597862244, 0.336254745721817, 0.2077176868915558, -0.08323932439088821, -0.24702347815036774, -0.12279687821865082, -0.10648199915885925, -0.14085747301578522, -0.008729299530386925, -0.007488311268389225, 0.16811172664165497, -0.009636581875383854, 0.048330631107091904, -0.2311805635690689, -0.17925339937210083, 0.04691251739859581, -0.22638998925685883, -0.04944914951920509, -0.24917912483215332, -0.28662171959877014, -0.04547407478094101, 0.09850641340017319, 0.3233259618282318, 0.008591612800955772, -0.04835769906640053, 0.2410447895526886, -0.08154843002557755, 0.1206388920545578, -0.7830511927604675, 0.08694140613079071, 0.011350557208061218, -0.04085620865225792, 0.029279325157403946, -0.21580207347869873, 0.29668179154396057, -0.18516983091831207, -0.11080073565244675, 0.09415150433778763, 0.20886698365211487, -0.15947161614894867, -0.38927242159843445, 0.2215748280286789, 0.03878378868103027, 0.09921009093523026, -0.10320769250392914, 0.15300221741199493, -0.02459915354847908, 0.017084714025259018, -0.019329117611050606, 0.12454953789710999, -0.18801194429397583, -0.04718158021569252, -0.06858459115028381, 0.11375749111175537, -0.08298604935407639, 0.22322294116020203, 0.01611715741455555, -0.005659488029778004, -0.07682128995656967, 0.043192535638809204, -0.1508747786283493, 0.13798953592777252, 0.015202479436993599, 0.008925946429371834, 0.05582784116268158, 0.08933072537183762, 0.19294558465480804, -0.0024428432807326317, 0.10104003548622131, -0.1968896985054016, -0.07436802983283997, -0.07056009024381638, 0.04541571065783501, 0.27430260181427, -0.2706905007362366, -0.03311986103653908, -0.6038783192634583, 0.04777885600924492, 0.058498315513134, 0.3221290707588196, -0.2754201889038086, 0.029810676351189613, 0.174652099609375, -0.046954285353422165, -0.13849681615829468, -0.36838752031326294, -0.17219966650009155, -0.22571934759616852, -0.36473599076271057, 0.18682058155536652, 0.06633143872022629, 0.0524732768535614, 0.04994261637330055, 0.13837255537509918, -0.039163410663604736, 0.08127418905496597, -0.4848270118236542, -0.24990426003932953, 0.10533589869737625, 0.27381888031959534, -0.06556178629398346, -0.2818455100059509, -0.18675018846988678, -0.03750860318541527, -0.02337145246565342, 0.023917876183986664, 0.027398036792874336, 0.10829750448465347, 0.20456400513648987, 0.22387339174747467, -0.024876946583390236, -0.12716013193130493, 0.004316085018217564, 0.07030364125967026, 0.11860492080450058, -0.2702527940273285, -0.04835488274693489, -0.03011050447821617, 0.04543761909008026, 0.06790857017040253, 0.024280350655317307, 0.08917748928070068, -0.07718855142593384, -0.2770051062107086, -0.16070842742919922, -0.0389045886695385, 0.08324316143989563, 0.11270727962255478, 0.18271556496620178, 0.15375278890132904, -0.14178499579429626, -0.0683567151427269, 0.018396222963929176, -0.04435008764266968, 0.2051348239183426, 0.0052482131868600845, 0.06144951656460762, 0.1854558289051056, -0.2120797485113144, 0.10953569412231445, -0.08428572118282318, -0.037813451141119, 0.06329991668462753, -0.08230419456958771, -0.1350267380475998, -0.07609359174966812, 0.07772832363843918, -0.18275612592697144, -0.41844722628593445, 0.12427329272031784, -0.13048624992370605, 0.012761924415826797, 0.10052212327718735, 0.04296740144491196, -0.06957288086414337, -0.04024959355592728, -0.1466016322374344, 0.06445769220590591, -0.17212781310081482, 0.01371012069284916, 0.2224518209695816, -0.02182186022400856, -4.0536811866331846e-05, -0.17532338201999664, 0.013350026682019234, -0.11964995414018631, 0.4778442978858948, 0.03323862701654434, 0.1638992577791214, -0.04446122795343399, -0.09637750685214996, 0.03192155808210373, -0.45570746064186096, 0.03774460405111313, 0.01600624807178974, 0.14783160388469696, -0.13765667378902435, 0.048327550292015076, 0.014841173775494099, 0.09976539760828018, -0.21896599233150482, -0.3331288993358612, -0.24337954819202423, -0.1711796373128891, -0.2152213156223297, 0.09515136480331421, -0.019086003303527832, 0.2132326066493988, -0.24096280336380005, -0.08212035149335861, -0.17346082627773285, -0.3108384311199188, -0.23168615996837616, -0.6282574534416199, -0.3476964235305786, -0.08123325556516647, -0.028785817325115204, -0.48387280106544495, -0.013716093264520168, 0.09434780478477478, 0.13891229033470154, 0.16709516942501068, -0.01548917405307293, 0.164617121219635, -0.16018874943256378, 0.005013458430767059, -0.13306404650211334, 0.08034759014844894, 0.11704285442829132, 0.5389922261238098, -0.30575454235076904, 0.23583798110485077, -0.5221498012542725, -0.0692436695098877, 0.1548209935426712, -0.09904853254556656, -0.0682745948433876, -0.0935998409986496, -0.2824721336364746, -0.0021977366413921118, 0.14379262924194336, -0.002420153934508562, 0.11982770264148712, 0.13841497898101807, -0.051066625863313675, 0.24715502560138702, -0.08424093574285507, -0.3904809057712555, -0.03139115124940872, 0.17076657712459564, 0.2513284385204315, 0.13617315888404846, 0.15675827860832214, -0.5134730339050293, 0.023183032870292664, -0.4139007031917572, 0.13909082114696503, 0.20705385506153107, -0.0984356626868248, 0.04171363264322281, -0.447609007358551, 0.12846338748931885, 0.11086004972457886, 0.2576599717140198, -0.04198422655463219, 0.08385255932807922, 0.042547356337308884, 0.07992207258939743, 0.17398108541965485, 0.15648379921913147, 0.19545617699623108, 0.18222765624523163, -0.04160340875387192, 0.04734179750084877, 0.1261402666568756, -0.11897467821836472, -0.053565625101327896, -0.17608189582824707, 0.17515821754932404, -0.15664750337600708, -0.0019102479564025998, 0.0871765986084938, -0.012531697750091553, 0.14935053884983063, 0.017099542543292046, -0.21237963438034058, 0.15490348637104034, 0.5349478125572205, -0.4176277220249176, 0.2701953053474426, 0.09743066877126694, 0.14631405472755432, -0.238076850771904, 0.009506362490355968, -0.2319755256175995, 0.22995536029338837, -0.2355027049779892, 0.04009920731186867, 0.24280144274234772, 0.09854624420404434, -0.35967501997947693, 0.11562991887331009, -0.016031716018915176, -0.031040146946907043, 0.1422167420387268, -0.0169282965362072, -0.0733441486954689, 0.17460063099861145, 0.15100432932376862, 0.6346524953842163, 0.2246731072664261, -0.24920779466629028, 0.11536270380020142, 0.11301401257514954, -0.17083024978637695, -0.16952212154865265, -0.12046808004379272, 0.21150165796279907, -0.11808563023805618, -0.08671444654464722, 0.07725642621517181, -0.05682142451405525, 0.2774697244167328, 0.06456168740987778, -0.03315729647874832, 0.10230082273483276, -0.09861572831869125, 0.07073228061199188, 0.016212746500968933, -0.16506081819534302, -0.0336645171046257, -0.16053564846515656, -0.030443387106060982, -0.013177233748137951, 0.11072865128517151, 0.21224673092365265, -0.33931443095207214, 0.19168072938919067, 0.06561125814914703, -0.14783500134944916, -0.31676557660102844, -0.004610626958310604, 0.3292267620563507, 0.13141605257987976, -0.049805741757154465, 0.3821510970592499, 0.009893938899040222, -0.2911636531352997, -0.004747549071907997, 0.02655845135450363, -0.07638587802648544, 0.013838725164532661, -0.20180383324623108, -0.4209066927433014, 0.0866074487566948, 0.1229231208562851, -0.1667359173297882, -0.14426349103450775, -0.026188455522060394, -0.02986355498433113, 0.2662542462348938, 0.12378472089767456, 0.06474334746599197, 0.06175517290830612, -0.01746627502143383, 0.007638882379978895, 0.022029712796211243, 0.0356447771191597, 0.01484572235494852, -0.09475663304328918, -0.03883635997772217, 0.025380969047546387, 0.16555491089820862, -0.00663732411339879, -0.14458373188972473, 0.39472028613090515, 0.16345424950122833, -0.1402004510164261, 0.10658232122659683, 0.0961138904094696, -0.1785048544406891, 0.11359597742557526, -0.15061041712760925, 0.026592787355184555, 0.13775739073753357, -0.17177939414978027, -0.051601506769657135, 0.10534147918224335, -0.1293434500694275, -0.11845871806144714, 0.18353739380836487, 0.15463989973068237, -0.12198712676763535, 0.16969898343086243, -0.23912501335144043, 0.6335474848747253, -0.3045872151851654, 0.046150606125593185, 0.010978695005178452, -0.15173308551311493, 0.16704310476779938, -0.06670453399419785, 0.2786407172679901, 0.19485518336296082, -0.06508762389421463, -0.10207770019769669, 0.09264884144067764, 0.0656953901052475, 0.09798494726419449, -0.24151957035064697, 0.15185005962848663, 0.10004626214504242, 0.2000734955072403, 0.044947121292352676, 0.6695374846458435, 0.14049701392650604, 0.6184037923812866, -0.9201861619949341, -0.24988700449466705, 0.11197257786989212, 0.13360796868801117, -0.21819402277469635, 0.3962857127189636, 0.30253875255584717, -0.8420654535293579, 0.19020767509937286, 0.1431986391544342, -0.766736626625061, 0.0906997099518776, -0.14546751976013184, -0.21088193356990814, -0.2495901733636856, 0.32815274596214294, -0.1224803775548935, 0.013108949176967144, 0.13937753438949585, -0.1361750364303589, -0.0516963005065918, -0.37230995297431946, 0.10522854328155518, -0.16135336458683014, -0.13994720578193665, 0.06285133957862854, -0.07332611083984375, 0.18694831430912018, 0.019449759274721146, 0.03902139142155647, -0.18989215791225433, 0.03173312544822693, -0.2007783204317093, -0.07018176466226578, -0.07897498458623886, 0.20149654150009155, -0.11011936515569687, -0.0973120927810669, -0.313159704208374, -0.3050720989704132, 0.010316318832337856, -0.0072089144960045815, 0.08212067931890488, 0.1897054761648178, 0.18351759016513824, -0.02944697067141533, 0.4221900403499603, -0.32486021518707275, -0.2799485921859741, -0.12029802054166794, -0.0948653593659401, 0.10315354913473129, -0.043754942715168, 0.3097583055496216, 0.36012282967567444, 0.0067683556117117405, -0.1289566457271576, 0.02636568807065487, -0.1199115514755249, -0.10367395728826523, 0.21576842665672302, -0.1913490891456604, -0.004746653605252504, -0.004040598403662443, 0.30096086859703064, 0.2365880310535431, 0.2679450213909149, 0.09926878660917282, 0.0969199687242508, -0.03902300074696541, -0.047592151910066605, 0.15159788727760315, -0.09212888777256012, 0.22519803047180176, 0.019395502284169197, 0.0672367736697197, -0.16781054437160492, 0.11302096396684647, -0.1128317341208458, -0.2308879941701889, 0.0037096317391842604, -0.04336373507976532, -0.17973260581493378, 0.09207994490861893, -0.40423157811164856, 0.1651201844215393, 0.34645983576774597, 0.1386564075946808, 0.42374274134635925, -0.23387020826339722, 0.06561914086341858, 0.08188481628894806, -0.30364832282066345, -0.5073821544647217, 0.16066470742225647, 0.12434379011392593, 0.14310255646705627, -0.0648186206817627, 0.15278260409832, -0.25576913356781006, -0.00651067728176713, 0.05001816153526306, -0.1156822219491005, -0.29747626185417175, 0.22260425984859467, -0.0004852749698329717, -0.08643650263547897, -0.1149868592619896, -0.1910550743341446, -0.05892679840326309, -0.11498908698558807, -0.33424112200737, 0.05051571875810623, -0.18518775701522827, -0.18243487179279327, 0.3027476370334625, -0.005083387717604637, -0.10150422155857086, -0.09183729439973831, -0.06479425728321075, 0.10061056166887283, 0.13822896778583527, 0.06694363057613373, 0.09468889981508255, -0.22326816618442535, -0.12182506173849106, 0.25405845046043396, -0.27324122190475464, 0.03513173386454582, 0.14499638974666595, -0.33305540680885315, -0.10777857154607773, 0.2732314169406891, -0.03378428891301155, -0.07028049975633621, 0.06918197125196457, -0.10917764157056808, -0.2210630476474762, 0.09272423386573792, 0.15600399672985077, 0.21441994607448578, -0.27631130814552307, 0.07353834807872772, -0.12085455656051636, 0.14237788319587708, 0.2381371557712555, 0.09203394502401352, -0.0685148760676384, -0.05279356241226196, -0.3858131468296051, -0.1717480719089508, 0.0066167376935482025, -0.2729601562023163, 0.29832178354263306, -0.08813458681106567, 0.107044517993927, 0.04788995161652565, -0.002847804920747876, 0.109674833714962, 0.03641744330525398, -0.18169251084327698, -0.16445386409759521, 0.07963448762893677, -0.05147838220000267, 0.17768509685993195, -0.2546781599521637, -0.47678184509277344, -0.07235275954008102, -0.524968147277832, 0.15441468358039856, -0.1973814219236374, -0.04522836208343506, 0.18135623633861542, -0.04187511280179024, 0.2139398157596588, -0.37167245149612427, -0.12604089081287384, -0.17759495973587036, 0.021196087822318077, 0.058514054864645004, -0.13452482223510742, 0.17130059003829956, -0.027866637334227562, -0.22557193040847778, -0.14759719371795654, -0.06717439740896225, 0.04907119274139404, 0.04658903926610947, -0.06521915644407272, 0.24638676643371582, 0.1312391608953476, 0.08235833793878555, -0.037923265248537064, -0.09094195067882538, -0.16987216472625732, -0.05818985775113106, 0.5106357336044312, -0.2837386727333069, -0.0530855618417263, 0.2593449652194977, 0.171357199549675, 0.0837646871805191, -0.009943386539816856, -0.22697052359580994, -0.2536047101020813, -0.0682053491473198, 0.3092222511768341, 0.3492574989795685, 0.17258049547672272, -0.21396617591381073, 0.16611461341381073, -0.01908532716333866, -0.02445334568619728, 0.5195186734199524, -0.15757058560848236, -0.2024417519569397, -0.25778859853744507, -0.30405306816101074, 0.13502679765224457, -0.1689625084400177, -0.027362320572137833, -0.08015269786119461, 0.140019029378891, 0.18084026873111725, 0.24639716744422913, -0.14674614369869232, 0.15815569460391998, -0.2957477867603302, 0.2086712121963501, -0.07535751163959503, 0.2816804349422455, 0.24327999353408813, 0.19363459944725037, -0.20522861182689667, -0.04101216793060303, 0.06835873425006866, -0.15215620398521423, 0.3568236231803894, -0.11406952142715454, 0.02710569277405739, 0.20249488949775696, -0.14228710532188416, -0.18201623857021332, 0.026675555855035782, 0.2593224346637726, -0.48030343651771545, -0.08964100480079651, -0.2990831434726715, -0.16243323683738708, 0.13610897958278656, -0.275816410779953, -0.10916903614997864, 0.10440395772457123, -0.27774569392204285, 0.44257184863090515, -0.11995186656713486, -0.05231256037950516, -0.12135351449251175, -0.23809891939163208, -0.10907585173845291, -0.10908924788236618, 0.17898502945899963, 0.12972116470336914, -0.2243809551000595, -0.04731709510087967, 0.21123938262462616, -0.10912696272134781, 0.2736325263977051, 0.10081750899553299, -0.18607771396636963, 0.042698733508586884, 0.1608823537826538, -0.10952606052160263, 0.22316431999206543, 0.17648166418075562, 0.029401740059256554, 0.13169288635253906, -0.2404174953699112, 0.12490057945251465, 0.08133482187986374, 0.1884918361902237, -0.028392575681209564, -0.29818063974380493, 0.052600372582674026, 0.050617437809705734, -0.0386495366692543, 0.13665112853050232, -0.058486130088567734, 0.07424947619438171, 0.4316820204257965, -0.4321625828742981, 0.23054605722427368, 0.27319759130477905, -0.3133201599121094, 0.06351625919342041, 0.1599653661251068, 0.035810377448797226, -0.014021232724189758, -0.08337519317865372, -0.06347125768661499, 0.01232920866459608, -0.11109073460102081, 0.3145477771759033, 0.09415818750858307, 0.27984148263931274, 0.16956941783428192, 0.1342308223247528, 0.13216425478458405, -0.026016926392912865, 0.21303240954875946, 0.38097819685935974, 0.057337936013936996, -0.01336169894784689, 0.04051303490996361, 0.001240721670910716, 0.21981456875801086, 0.49296098947525024, -0.29050564765930176, 0.010525340214371681, -0.30697333812713623, -0.05126367136836052, -0.13713999092578888, 0.2875158190727234, 0.05615786835551262, -0.06266655027866364, 0.05213448032736778, -0.1298360377550125, 0.1964952051639557, -0.1646435558795929, 0.12926052510738373, -0.012557060457766056, 0.25576549768447876, 0.016363879665732384, -0.09626304358243942, 0.18284553289413452, -0.1114581972360611, 0.011592650786042213, 0.0023363560903817415, 0.07438898086547852, -0.19756263494491577, 0.05132294446229935, -0.15602371096611023, -0.2510891556739807, 0.10506732761859894, 0.05814295634627342, 0.20694883167743683, 0.04457961767911911, 0.016664890572428703, 0.14698576927185059, -0.08687431365251541, -0.17995692789554596, -0.16232623159885406, 0.1392001211643219, -0.017204701900482178, -0.2834937870502472, -0.19570578634738922, -0.27115368843078613, -0.07533764839172363, 0.20694600045681, -0.1294175237417221, -0.2322244495153427, 0.2392565906047821, 0.01287904568016529, -0.01290060393512249, -0.17891860008239746, 0.1365666687488556, -0.3581255376338959, 0.08719179034233093, -0.04354355111718178, -0.06533603370189667, -0.2687501013278961, 0.0949702337384224, -0.08234833925962448, -0.10809136927127838, 0.21964043378829956, 0.17625002562999725, 0.014882192946970463, -0.14612583816051483, -0.05734444037079811, 0.06691405922174454, -0.1723821461200714, -0.15030203759670258, -0.2926846742630005, 0.21059659123420715, 0.039307497441768646, 0.25037336349487305, 0.25739169120788574, -0.2925858795642853, 0.01864258199930191, -0.009522592648863792, -0.10909084975719452, 0.2110990434885025, -0.08838698267936707, -0.04649161547422409, -0.25070905685424805, -0.06714679300785065, -0.038379766047000885, -0.0039291661232709885, 0.15436822175979614, 0.06417588889598846, 0.07039036601781845, -0.10269217938184738, 0.02777872420847416, -0.08431264758110046, 0.10212621837854385, 0.1734895408153534, 0.12434022128582001, -0.24337270855903625, -0.022055620327591896, -0.07670510560274124, -0.24853742122650146, 0.07692127674818039, 0.1988856941461563, 0.007119304966181517, 0.07445903867483139, -0.38106071949005127, -0.3373294770717621, -0.07095344364643097, -0.13310977816581726, -0.1770581752061844, -0.07903747260570526, 0.09936463087797165, -0.05217538774013519, 0.04869028553366661, 0.06088963523507118, 0.23330873250961304, 0.15027588605880737, -0.14619340002536774, 0.19280557334423065, 0.032381463795900345, -0.11094643920660019, 0.17819489538669586, 0.14355945587158203, 0.03661172464489937, -0.13986612856388092, -0.11352314054965973, 0.301769495010376, -0.006243804935365915, 0.1436961144208908, -0.0947173610329628, 0.09327520430088043, -0.007032520137727261, 0.020069675520062447, 0.007194097153842449, -0.097134068608284, 0.06102814897894859, 0.14284418523311615, 0.19100108742713928, 0.0030475801322609186, 0.05091487988829613, -0.048060569912195206, -0.3547259569168091, -0.2548341453075409, 0.1743033230304718, 0.3685348629951477, 0.09916453808546066, -0.018761547282338142, -0.13037627935409546, 0.26577866077423096, 0.07870852947235107, 0.1971752941608429, -0.008312489837408066, 0.07868053019046783, -0.2790758013725281, -0.14997875690460205, 0.004213936626911163, 0.03473229333758354, -0.003199582686647773, -0.07706069946289062, 0.07510533928871155, -0.1736735701560974, 0.10640210658311844, -0.0522073470056057, 0.15096817910671234, 0.035783205181360245, -0.008711486123502254, 0.1351405531167984, -0.11264688521623611, -0.17677268385887146, 0.2562096416950226, -0.055119339376688004, 0.2801371216773987, 0.03812768682837486, 0.05733393132686615, -0.011039935983717442, 0.49530503153800964, -0.1251060664653778, 0.1884934902191162, -0.011932849884033203, 0.09551997482776642, -0.03627138212323189, 0.1728557050228119, 0.11809438467025757, -0.05449224263429642, -0.06326468288898468, 0.07336516678333282, -0.16416534781455994, -0.20475436747074127, 0.09331992268562317, -0.03612358123064041, 0.05882151052355766, -0.2431158572435379, -0.007729937322437763, 0.22773541510105133, 0.20961563289165497, -0.11101387441158295, -0.038489967584609985, 0.00576391676440835, 0.218330979347229, -0.09522971510887146, 0.0855100005865097, -0.2544189691543579, -0.11955347657203674, -0.0004945775144733489, 0.23508070409297943, -0.08150846511125565, 0.09787776321172714, 0.14947748184204102, -0.21209584176540375, -0.045162398368120193, -0.12237190455198288, 0.1634894460439682, -0.11921325325965881, -0.28532761335372925, 0.3990986943244934, -0.09644187986850739, 0.02751673385500908, -0.15168291330337524, 0.09160176664590836, 0.03854140266776085, 0.06931890547275543, -0.04365215823054314, 0.006719821598380804, -0.11181888729333878, -0.1118021160364151, -0.06006797030568123, -0.009996711276471615, -0.019698159769177437, -0.1757916808128357, -0.18126976490020752, -0.06820088624954224, -0.09078363329172134, -0.12305948883295059, 0.05424990877509117, -0.08910036087036133, -0.1456635296344757, 0.024790456518530846, 0.1960648149251938, 0.008502503857016563, 0.03158244118094444, -0.13197694718837738, -0.01743750460445881, -0.2652675211429596, -0.12693846225738525, -0.2098807543516159, 0.04265503212809563, -0.01711287721991539, -0.0304037407040596, -0.3436650037765503, 0.2796725928783417, 0.18105000257492065, -0.03359129652380943, -0.0066821156069636345, -0.11769824475049973, -0.2560443580150604, -0.0503513477742672, 0.13858793675899506, 0.13753481209278107, 0.0685986876487732, -0.11243543773889542, 0.0919930711388588, -0.007656702306121588, 0.04354242980480194, -0.11299166828393936, -0.10560586303472519, -0.14781899750232697, 0.1862805038690567, -0.08983167260885239, -0.20989124476909637, 0.03348344936966896, 0.21440936625003815, -0.09465266764163971, -0.20360234379768372, -0.22143445909023285, 0.03463573381304741, 0.11487527936697006, 0.15651261806488037, -0.1609908640384674, 0.23712337017059326, 0.18954125046730042, 0.11300872266292572, 0.017118003219366074, 0.07761574536561966, 0.008673688396811485, -0.13833671808242798, -0.03537415713071823, -0.11560411751270294, 0.1652689427137375, -0.19586169719696045, 0.0886443704366684, 0.08913753926753998, 0.2500944137573242, -0.13252492249011993, -0.049374546855688095, 0.07793977111577988, 0.01010730117559433, -0.05625439062714577, -0.11384255439043045, 0.1109451875090599, -0.14944547414779663, 